115 64
84 -0.15783918 -0.23501484 -0.07605058 0.53678113 -0.03130793 -0.12951995 -0.07022155 -0.06864962 0.11435351 0.07541927 -0.11433689 0.22535852 0.1438762 0.013101562 -0.12156726 -0.41910782 -0.08834264 -0.20537673 0.08568307 -0.61878324 0.53807545 0.17131503 -0.06591498 0.21783295 0.032424085 -0.21583864 -0.20621476 -0.2599413 -0.15995876 0.29946026 -0.15666991 0.19996601 -0.18181497 -0.009682989 0.027311673 -0.064232044 -0.2904311 0.2309016 -0.33014238 0.24659432 0.03544492 0.060315393 0.21742085 0.27798298 0.45588717 -0.15342683 0.03740459 0.2853074 -0.15254776 -0.6194144 0.2502098 0.4237457 -0.28438392 -0.45641902 0.35534415 -0.09019559 0.3135256 0.036286503 0.30373895 0.21871705 0.04819869 -0.27875182 0.038564626 0.3890165
0 0.1758441 -0.31645858 -0.123730905 0.024986692 0.08902692 -0.22751786 0.29104653 -0.30500895 0.20760103 -0.050195143 -0.33703706 -0.07240368 0.075476736 0.3747261 0.22853261 -0.12706444 -0.020097746 0.11155669 0.008764011 -0.1047542 0.10655341 -0.23602857 -0.19937521 -0.2749172 0.024360819 0.40804225 -0.32708645 -0.33544624 -0.24227883 -0.02727129 -0.016867118 -0.12812155 0.25624415 -0.14782295 0.049490158 -0.049972538 -0.4413806 0.1975751 -0.18201518 -0.22295019 -0.5923506 0.43282712 0.26956823 0.619132 0.19846585 -0.38136262 0.04709095 0.18163683 -0.265578 0.0007954133 -0.4147282 -0.034102064 -0.1560863 0.29527226 0.043578602 -0.20735434 -0.022429207 -0.06548907 0.17279372 0.04851937 -0.17949432 0.057489492 0.021210464 -0.016553381
22 -0.005965165 -0.35453957 0.16745996 0.324968 -0.020586766 -0.017573504 0.06540262 0.126201 0.23538548 -0.17740393 0.28215098 -0.0046763737 0.27924782 0.23229526 -0.13985822 -0.011178272 -0.13364498 0.11905906 0.42303228 0.18089226 0.24810432 -0.5695022 -0.2901654 -0.004623723 -0.055463254 0.18950135 -0.27648285 -0.022550592 -0.23284031 0.31104067 -0.32877868 0.29847667 0.20989971 -0.31474236 -0.13608155 -0.00042689836 -0.10180969 0.19255598 -0.3119042 -0.22981127 0.25942698 0.098399 0.6038798 0.2070522 0.5623151 -0.35818735 -0.04363555 -0.0788239 -0.06156805 -0.09900829 -0.23906177 -0.42144957 -0.3911642 0.26410332 0.07542204 -0.03652361 0.2584274 0.0610787 0.23523043 -0.09715901 -0.3116884 0.26476994 -0.41668558 0.12002661
67 0.24022876 -0.5205914 0.1860241 0.40838766 0.110566236 -0.12557809 0.3944238 0.09028041 0.3051529 -0.2539584 -0.14907482 0.4161598 0.34226838 0.043688007 -0.21380754 -0.06755612 -0.04628611 0.10032929 0.1105315 -0.31315407 0.14869992 -0.014201044 0.22158705 -0.130161 0.003968137 -0.13229176 0.07815389 -0.42333785 -0.014383378 0.15289403 -0.2563747 0.028809525 0.18090262 -0.21193731 0.2279347 -0.111266956 -0.27793416 -0.3072712 -0.062476236 0.098958485 0.029576397 -0.31468928 0.2487751 0.5206906 0.40995196 -0.48375764 -0.21108398 0.33677986 0.12487411 -0.44537535 -0.14213696 -0.0064979843 -0.39310262 0.14050734 0.1431173 -0.13073261 0.34496036 0.10176412 0.21153724 0.0015694742 -0.009136515 0.109307766 0.13876945 0.23195006
51 -0.053760048 -0.43874156 0.3216392 0.38215122 -0.0733654 -0.032118127 -0.0636946 0.037782144 0.042004667 -0.008639337 0.33089718 -0.011097493 0.046306875 0.21080892 -0.24974443 -0.023765119 0.23694062 0.060248807 0.44416142 -0.052818034 0.328803 -0.3518454 -0.49732655 0.33441123 -0.1036902 0.09629189 -0.21048474 -0.106431015 -0.30356073 0.291049 -0.46929726 0.3223703 0.17674567 -0.3770308 -0.20811673 -0.058000017 -0.34652066 0.13348365 -0.18738748 0.049032338 0.2807376 0.050154798 0.6030518 0.030279616 0.6108264 -0.34545416 -0.26406837 -0.05373552 -0.20277855 0.06907654 0.016552834 -0.5245958 -0.19085905 0.14489754 -0.08717573 0.07573365 0.61034787 -0.05265478 0.08566402 -0.08942135 -0.28460017 0.20844132 -0.2792561 0.20973475
5 0.014744785 -0.026529988 -0.123070024 0.18163398 -0.06282331 -0.15902117 -0.1213981 -0.31666854 -0.059652552 -0.10572296 -0.16233502 0.023251643 0.1997231 0.32453945 0.18141656 -0.19040623 -0.17215651 0.019176109 0.11868203 -0.49368507 0.42329594 0.08847667 -0.2671608 0.21649982 0.1929857 -0.08134738 -0.22616617 -0.018546306 -0.05139556 0.33878538 -0.36461458 0.1511197 -0.20964862 0.05328678 0.043273155 -0.042278137 -0.38330546 0.45237106 -0.35094628 0.29657263 -0.037287045 0.2780076 0.27987346 0.3448683 0.5428471 0.08553615 0.15741405 0.18637529 -0.3532395 -0.27251968 0.20029713 0.37174702 -0.09663699 -0.4786335 0.16082925 -0.13526113 0.22970763 0.01281396 0.1685998 0.20574768 -0.10005145 0.012714563 0.22728573 0.11151396
7 0.05351883 -0.3540309 0.3155962 0.30016842 -0.032286104 0.002552205 0.011844502 0.11267027 0.15384138 -0.17535198 0.23772784 0.027573975 0.30092436 0.25753745 -0.14822876 0.058754936 -0.002362834 0.19250982 0.38424644 -0.0033698338 0.17537068 -0.39397362 -0.29285437 0.30197582 -0.055499017 -0.038448215 -0.19669245 0.031087348 -0.23811144 0.36842224 -0.5580602 0.46563038 0.22745252 -0.29272798 -0.1417265 0.03770772 -0.18372524 0.2398905 -0.13287972 0.07225879 0.46156582 -0.0468085 0.57488143 -0.093250155 0.63213044 -0.23468724 -0.23962833 -0.093175575 -0.13641793 -0.018426895 -0.058780655 -0.33335766 -0.2524808 0.15898731 0.092926666 -0.03175991 0.37480342 0.21187419 -0.039948184 -0.052799672 -0.22940145 0.2513844 -0.13023631 0.059510186
9 0.13369098 -0.19703372 0.0049311384 0.063029185 -0.19417404 -0.17133962 0.28251642 -0.14945242 0.44402725 -0.27418292 -0.033021804 -0.06543624 0.32048827 0.4446603 0.3391143 0.03044118 -0.3247984 0.31545597 0.18564819 0.06047303 0.17330329 -0.40230396 -0.23691845 -0.16392818 -0.111655526 0.24392591 -0.23054291 -0.07431927 -0.2653581 0.10729157 -0.2747077 0.1214325 0.20527455 -0.17360567 0.06392898 0.023402875 -0.36869273 0.102754824 -0.41583574 -0.159612 -0.24412416 0.22930315 0.51105577 0.5322168 0.54074115 -0.34629792 0.128977 0.044229437 -0.18594708 -0.059873678 -0.38270345 -0.102498986 -0.27135983 0.29970428 0.20903182 -0.18539439 0.057855655 0.30620867 0.18942565 -0.24676527 -0.17288105 0.25481683 -0.0072287875 -0.13128592
55 0.27646306 -0.0063447496 -0.28511205 0.1296979 0.43325284 -0.22729887 0.43479243 -0.201789 0.4971777 0.18367876 -0.48667338 -0.10239582 0.15856723 0.05505568 0.13383673 -0.057925876 0.67393196 -0.11624003 -0.03178175 -0.13884605 0.057397824 -0.27461907 -0.18586576 0.14456412 -0.21767697 0.10761614 -0.28118566 -0.12726599 -0.34223413 0.15472904 -0.015482824 0.1929908 -0.17503338 -0.18144484 0.03686264 -0.06987059 0.254641 0.09824345 0.008159152 0.023674471 0.14685915 -0.33759978 0.17902702 -0.062249385 -0.09578456 -0.50808054 -0.18528211 0.05415908 0.15487918 0.32946315 -0.1745469 -0.19044442 0.46263775 0.31617388 -0.03089624 -0.5771409 0.39912668 -0.6437579 -0.054603662 0.08191524 -0.13144982 0.03226952 0.44812256 -0.19225584
15 -0.14797728 -0.10190209 -0.10175669 0.31267947 0.08097458 0.10094377 0.08277287 0.026875075 0.66349953 -0.27384198 -0.17203556 -0.047122363 0.46486968 -0.15937793 0.088653944 -0.029683508 -0.1714957 0.034826484 0.14593895 0.20400956 0.11436482 -0.20960376 -0.25619587 0.13216402 -0.4622448 0.034862217 -0.09346431 0.0009238692 -0.25523156 0.43803918 -0.06713776 0.05827059 -0.037424564 -0.10345753 0.13283306 0.16140065 0.098307855 0.3328736 -0.045783006 -0.3066862 0.41942567 -0.2855765 0.21111554 -0.34176886 0.052673973 -0.24417385 -0.037555568 0.019322196 0.01112146 0.009380081 -0.33383372 0.14208798 -0.09324705 0.26117453 0.39092457 0.04197823 0.050759558 0.06464316 0.058920514 0.051183965 -0.3464093 -0.3358514 0.003429089 -0.0041102744
88 0.112547 -0.32266366 0.12771173 0.5385233 0.15336007 0.0012935122 0.2929153 -0.11346607 0.24155569 -0.069276676 -0.28353688 0.46958345 0.18957299 -0.100583255 -0.2737026 -0.15829667 0.081487216 -0.10763941 0.013963197 -0.7413497 0.07877837 0.1916654 0.030432463 -0.022773977 0.07550413 -0.24730653 0.09227121 -0.33436155 -0.010962482 0.070440985 -0.105765946 -0.11706797 -0.032839622 -0.22646748 0.25315017 -0.0009070263 -0.070854984 -0.12636703 -0.04529843 0.28449216 0.12780634 -0.52777356 0.18652374 0.26618522 0.45543173 -0.27338678 -0.15976748 0.29577133 0.08168778 -0.420596 0.078519486 -0.05002842 -0.31882182 -0.033185896 0.21076782 -0.13045038 0.33887514 0.06642748 0.15569222 0.18338737 -0.021798111 -0.10461093 0.07203841 0.37319207
66 0.13937594 0.17121398 -0.29254484 0.46922472 0.07918175 -0.34749928 0.24265134 -0.3861648 -0.002711746 -0.26872376 -0.08753948 0.23732224 -0.16869925 -0.0958501 0.0075583444 -0.14711073 0.06253092 -0.1172534 -0.176772 -0.41631883 0.059943035 -0.07691625 0.29328322 0.19128545 0.157933 -0.23923042 0.3971608 -0.23556262 -0.042318135 0.6383916 0.23813955 -0.16597714 0.02534853 -0.19967237 0.019374507 -0.22130671 -0.1748081 0.57625276 0.35788977 -0.061565477 0.009063581 0.17500162 0.2367371 -0.12050975 0.037409246 -0.16927083 0.48643142 0.09080805 -0.16259226 0.0072951447 -0.09278936 -0.066558905 -0.12732576 0.051500462 0.067396894 -0.03225542 0.27461633 -0.3243205 0.1904148 -0.026864437 -0.0834234 -0.2040163 -0.040137142 -0.008216224
1 0.14068528 0.0941776 -0.17616625 -0.006661037 0.06548255 -0.021126173 0.2221007 -0.5606288 0.17400254 -0.05445 -0.62284154 0.23325719 0.111205496 0.15127338 0.047072623 0.06952729 0.53438497 -0.14027536 0.105721645 -0.17769915 -0.09665594 0.03960458 -0.26033497 0.09389852 -0.0031951575 0.39820036 0.1251511 -0.28990817 -0.109651335 0.044906486 -0.08378719 -0.5757789 -0.15456386 -0.40239206 -0.16155598 -0.13984479 -0.15830927 0.15315305 0.17249553 0.40831324 -0.59697 0.19921134 0.29268005 0.15692927 0.1002231 -0.5137224 0.156785 -0.044966225 -0.2505716 -0.014931505 -0.25693744 -0.53369826 -0.011722732 0.019067803 -0.19423889 0.03462715 0.1188417 -0.13287048 -0.07437047 0.14854527 -0.32039118 -0.16533431 0.001772545 -0.342573
68 -0.05959751 -0.2938349 0.22546557 0.33903247 -0.11824828 0.07441088 -0.01334435 0.15015905 0.25011894 -0.2776995 0.31366432 0.15764855 0.3245872 0.08088334 -0.19143775 0.04645283 -0.12598486 0.10775396 0.4734096 0.06305046 0.18148723 -0.48554674 -0.41243058 0.15052506 -0.069287635 0.0011501138 -0.11879717 0.022532089 -0.28679538 0.36394057 -0.4122091 0.37851596 0.07574606 -0.33268228 -0.10025458 -0.05244311 -0.0716981 0.1669646 -0.32229424 -0.057995263 0.45749646 -0.08391628 0.5966085 0.047297217 0.56903595 -0.18220732 -0.06153172 -0.03815442 -0.1403083 -0.08475755 -0.0760451 -0.46103406 -0.26718488 0.13589218 0.017786706 0.068576045 0.5027031 0.014735703 0.24602604 -0.14064573 -0.30060416 0.28874692 -0.26939458 0.09350084
6 -0.032217536 -0.048112452 -0.0519274 0.25971213 0.064229995 0.08260161 -0.0842172 -0.11475855 0.5669804 -0.27596945 -0.2132689 -0.038131896 0.3563013 -0.25896564 0.047800783 0.018776674 -0.17731825 0.051884253 0.24432229 0.2024885 0.041166287 -0.18031394 -0.22308622 0.27935854 -0.19745713 -0.07317404 -0.20291378 -0.0093113 -0.3242441 0.2920368 -0.21020482 0.06568171 -0.23692665 -0.13959295 0.006249871 -0.085024625 0.25895348 0.2986026 -0.14264603 -0.28864878 0.48205113 -0.48175052 0.13093384 -0.21001899 0.18753481 0.019546008 -0.17349744 0.1553538 0.028793238 0.0840312 -0.29497388 0.09280749 -0.05482687 0.21922371 0.24085361 0.086030774 0.17694035 -0.14520547 0.16864379 0.25008392 -0.2172178 -0.30529898 0.36075175 0.23031387
29 0.2828569 0.13549301 -0.22804299 0.076274686 0.44063678 -0.085439004 0.20749578 -0.30723342 0.318645 -0.02159803 -0.25921884 -0.06473363 0.01996317 0.21432807 0.26099685 -0.13555093 0.6189194 -0.22763821 -0.030484838 0.043753527 0.32809463 -0.33501965 -0.08186771 0.28110406 -0.12164728 0.35088387 0.0014344371 -0.050559793 -0.18211958 0.27838835 -0.047816552 0.46970445 -0.3018275 -0.21873462 -0.17132455 -0.25790647 -0.009421289 0.30419633 -0.119935855 0.2937855 0.10311134 -0.15037714 0.11482234 -0.17751485 0.24647091 -0.3164581 -0.08378958 -0.18006735 0.25639397 0.22990038 -0.00086872303 -0.2832651 0.4397175 0.23258857 -0.06635137 -0.47311807 0.34331027 -0.49027815 -0.1201752 0.086307146 -0.11573887 0.23500536 0.17788397 -0.3438007
104 0.18353838 -0.20069157 -0.092993006 -0.06762402 -0.1684461 -0.48810804 0.37364712 -0.070685916 0.2801824 -0.2794005 -0.17681006 0.18575366 0.21693215 0.33970317 0.2383081 -0.15207724 -0.41716582 0.1757747 0.1087626 -0.3442962 0.04802756 -0.31156307 0.05953107 -0.09102485 -0.025304446 -0.042336408 -0.052691046 -0.261098 -0.12686314 0.16364166 -0.12297484 0.111020364 0.071470626 -0.3150606 -0.035069373 -0.1619297 -0.41291857 0.09980747 -0.34308568 -0.008492843 -0.35914025 0.2391261 0.33410555 0.6054425 0.35025665 -0.041398365 0.16327994 0.119449206 -0.27498406 -0.26354048 -0.4016795 -0.00462937 -0.17212756 0.12326935 0.036566563 -0.1714939 -0.00031427093 0.2661641 0.21584037 -0.035058293 -0.0004892578 0.1501769 0.14225912 -0.10462413
35 0.23168215 0.08441981 -0.26923293 0.2313594 0.43148866 -0.17651638 0.45240778 -0.34930894 0.42167073 0.012535669 -0.31241107 -0.15516418 -0.041498676 0.1697949 0.20108105 -0.084703855 0.56509674 -0.03772377 -0.063814245 -0.11369406 0.23238645 -0.329554 0.053626932 0.09959273 -0.24493478 0.27946508 -0.071546145 -0.07283828 -0.39149296 0.12611584 0.11593102 0.1995573 -0.20085356 -0.22539188 -0.03579842 -0.11619785 -0.0024314385 0.31467688 0.07439721 -0.027843548 0.056361973 -0.05212758 0.23965608 -0.11521513 0.051401734 -0.59018755 -0.0001865776 -0.17294408 0.23406601 0.3498803 -0.18017456 -0.25817138 0.3320247 0.40201116 0.01846584 -0.44520065 0.2714187 -0.6166554 -0.019410325 -0.12786232 -0.0418209 0.040050734 0.18587385 -0.20528413
98 -0.092997186 -0.13459906 -0.074911006 0.39556068 -0.22958545 -0.10120756 -0.23128854 -0.11750236 0.058882933 -0.12640378 -0.04881102 0.06260895 0.24060895 0.14812766 0.10401894 -0.4400737 0.03502311 -0.18784636 0.20819749 -0.240974 0.68582976 0.09187702 0.0063942913 0.3584945 -0.054672506 -0.1546569 0.050505176 0.03996478 -0.034721643 0.4062024 -0.20722029 0.07526136 -0.12034117 0.020246 -0.10212233 -0.13224907 -0.57197064 0.29235336 -0.2499151 0.34239462 0.109955035 0.19289742 0.2191648 0.14027144 0.6117647 -0.21969819 0.33722433 0.095473275 -0.27808332 -0.27233917 0.14317746 0.2643823 -0.2582795 -0.4936215 0.24121368 0.179033 0.47515732 0.033960477 0.14310335 0.029517448 -0.06174313 -0.24614453 0.039793324 0.14946592
81 0.033538174 -0.0999163 -0.18307437 0.12709811 -0.11781015 -0.26776624 -0.09106219 -0.16289447 0.17786847 -0.020927597 -0.3104519 0.059906363 0.46441245 0.2915559 0.248547 -0.2917096 -0.20332098 -0.12963407 0.1731089 -0.31230906 0.47708997 -0.047236174 0.08425869 0.29047358 -0.09136729 -0.07264264 -0.107354954 -0.053296916 -0.091126345 0.20323925 -0.27470353 0.22180474 -0.25729787 0.031195119 -0.07479937 -0.05557549 -0.34049392 0.31787485 -0.44926658 0.41759187 -0.018067906 0.07772915 0.20623209 0.17897783 0.6105264 0.08419349 0.14474535 0.113266736 -0.10310355 -0.42601976 0.0069174743 0.2964327 -0.0764206 -0.42394182 0.3139316 -0.0797092 0.14470957 0.17222352 0.076091014 0.20311101 0.03992023 -0.07291945 0.3260513 0.08550374
62 0.09960797 0.22002731 -0.21305586 -0.20493841 0.0645617 -0.4430478 0.4028057 -0.38502303 -0.013653785 0.056389652 -0.11209248 0.19744486 0.2350381 -0.2015069 -0.08697541 0.08001407 0.17645814 -0.18977837 0.13866904 -0.18189327 -0.22156529 -0.1718911 -0.03943949 0.37249097 0.15011574 0.067328766 -0.11216603 -0.35545015 0.24256687 0.5796167 -0.13282642 -0.23844248 -0.077985935 -0.32767 -0.079127945 -0.23260768 0.3402723 0.3805409 0.1592672 0.07682996 -0.41080272 0.25239843 0.23121184 -0.14370589 0.01760505 -0.0043645035 0.0010864113 0.22764023 -0.23359601 -0.15857072 -0.3763682 -0.39024398 0.004299916 0.23574893 0.040894367 -0.11734631 -0.10939282 0.26436642 0.03492762 0.4799266 -0.18574288 -0.29285955 -0.4147206 -0.37453926
2 -0.3326049 -0.11225991 -0.014917008 0.14846268 -0.03727038 0.12715979 -0.12159912 -0.08047493 0.5632319 -0.34952813 -0.3424265 0.061670475 0.5073858 -0.10122752 0.08979344 -0.02147762 -0.33807987 0.19114684 0.16582741 -0.00094720244 0.10885324 -0.08270146 -0.39672643 0.22371422 -0.44250253 0.017716639 -0.27515444 -0.03522256 -0.30790344 0.2533697 -0.27557322 0.077157356 -0.31154266 -0.114723 0.18772691 0.079346426 0.07103843 0.20968802 -0.14396997 -0.056899298 0.3175478 -0.19589376 0.19244535 -0.16885048 0.23980184 -0.044029173 -0.18620689 0.11009526 -0.21440777 -0.2173608 -0.22816156 0.3195504 0.010856551 -0.10556118 0.41215456 0.038971588 0.03229276 0.18179403 0.09666262 0.2574566 -0.37750575 -0.39305243 0.2328732 -0.014756214
65 0.29041812 0.19778582 -0.20593639 -0.15447088 -0.11836964 -0.54787207 0.46000797 -0.4635219 0.017120825 -0.18084508 -0.084477425 0.12242312 0.06303806 -0.22583348 0.026317501 0.111215465 -0.09717706 0.049104355 -0.006655284 -0.22495598 -0.23782016 -0.13509622 -0.0044606966 0.27907 0.36379263 -0.07176672 -0.06934091 -0.1792974 0.22222924 0.43260947 -0.0649416 -0.24203873 0.06338582 -0.24090813 -0.026091643 -0.34675038 0.15889208 0.5103555 0.2993811 -0.30587927 -0.37663445 0.26945245 0.27356875 0.11573819 0.09989924 0.06470114 0.30687183 0.31920785 -0.38836044 0.13115916 -0.5047355 -0.22948836 -0.12793182 0.40633008 0.038829837 -0.08599861 0.036106583 0.1237248 0.1740267 0.3399151 -0.06303842 -0.14418297 -0.03039133 -0.16623938
77 0.05043655 -0.42657882 0.24465498 0.2847823 -0.15377471 0.022683078 -0.012549266 0.27255052 0.20458913 -0.118279085 0.21578956 0.12206511 0.35254022 0.25843838 -0.21253702 -0.10828317 0.14088897 0.015046717 0.5738639 0.04543139 0.30681354 -0.39960617 -0.310485 0.31136116 -0.12964918 -0.036026847 -0.13979048 -0.025145851 -0.2746649 0.441436 -0.49267307 0.45466548 0.23798464 -0.37443754 -0.2794295 -0.010251173 -0.42121127 0.22214976 -0.26802832 0.18398096 0.35239726 0.11492017 0.6336595 -0.004074077 0.55266017 -0.260624 -0.1261972 -0.1281901 -0.26464733 -0.01520417 -0.09080503 -0.4681221 -0.2512499 0.032390796 -0.038082343 0.16843411 0.58920866 0.11811552 0.056581087 -0.11549784 -0.2274798 0.2472914 -0.15875676 0.016034914
47 -0.16746715 -0.20605883 -0.05019992 0.19828446 -0.01297451 0.123571284 0.032613024 -0.0041305837 0.72208655 -0.3080974 -0.28210148 0.09817985 0.4410457 -0.24752778 0.06600443 0.1772755 -0.16638249 0.13178869 0.16157423 0.10522902 0.045009475 -0.18235174 -0.36504105 0.10611547 -0.30240324 0.08820752 -0.15936434 -0.01109791 -0.4391195 0.13537365 -0.22999611 0.22843361 -0.1736752 -0.14763343 0.16763206 0.084250554 0.22089732 0.16514754 -0.18247326 -0.27753174 0.45347688 -0.3867625 0.33155733 -0.15538302 0.0593845 -0.09617122 -0.12248904 0.1589703 -0.016929446 -0.12873761 -0.37612167 -0.035167105 -0.0829677 0.2683781 0.41565132 -0.011619557 0.21090174 0.027596833 0.11365417 0.037974633 -0.19956101 -0.23274612 0.2091505 0.05841817
83 0.23622972 -0.34807757 0.02249352 0.39900768 0.034812722 -0.24878629 0.18131013 0.1297399 0.1536175 -0.11648768 -0.06430065 0.56098807 0.40949586 -0.07797384 -0.24105796 -0.29555663 -0.110816605 -0.13701345 0.031981014 -0.7283932 0.28090215 0.07246379 0.02626045 -0.02633998 0.20390812 -0.3363419 0.119472675 -0.23155537 0.098243535 0.35366333 -0.14675032 0.24288821 0.0067513087 -0.15878786 0.25819647 -0.11992672 -0.1070314 -0.13035484 -0.1741397 0.25467274 0.12627886 -0.5638385 0.30499965 0.48542577 0.35414276 -0.14997934 0.044305418 0.38382566 0.0048719253 -0.53969747 0.07671106 0.07824266 -0.20406336 -0.10678963 0.10171386 -0.16499291 0.48597062 0.102298476 0.25311932 0.1362881 -0.04236993 0.13775069 0.07154776 0.22229926
34 0.015270301 0.12427046 -0.076936096 -0.2868244 0.49267936 0.05266943 0.30486035 -0.016771171 -0.0086377915 -0.30165398 -0.2171281 -0.14947319 0.25894463 -0.17880191 0.39376286 -0.10058057 0.7263221 0.07636156 0.01819304 0.10931455 0.42906386 -0.21120687 0.1716889 0.32744697 -0.2297304 -0.19573131 -0.44950277 0.032543402 -0.1705616 0.3763093 -0.039431363 0.22023918 -0.28960353 -0.21501255 0.2898331 -0.3409909 0.41408482 -0.06367159 0.12878917 0.14943938 0.10932497 0.026361622 -0.070938386 0.040803473 0.05459584 -0.47460473 -0.00082619453 0.15573585 -0.035573695 0.21931222 -0.21251254 -0.13015099 0.6716469 0.09074093 0.37783176 -0.21049306 0.45688552 -0.55530846 0.24487104 0.30658755 0.052652393 -0.377233 0.13216327 -0.6101968
61 -0.10599974 0.19056153 -0.05255267 -0.09333047 0.2867675 0.0042205085 0.2133747 0.00820262 0.11938243 -0.17746997 -0.022351775 -0.17134534 0.23352186 -0.3534674 0.2377321 -0.20318617 0.5471667 -0.00723642 -0.029088886 0.1760012 0.40954727 -0.12815359 0.013207046 0.20323145 -0.2554741 -0.035576276 -0.39315027 -0.015394874 -0.15126286 0.4460172 0.10021794 0.10958379 -0.09542546 -0.17448097 0.31259003 -0.25872865 0.38422674 -0.12767552 0.1570631 -0.066488154 0.0703288 0.09841398 -0.050759085 -0.06572176 -0.026622523 -0.567354 0.06279044 0.2670458 -0.0012735159 0.08476559 -0.17490469 -0.031443246 0.3664794 0.06990284 0.5429551 -0.1404154 0.29925197 -0.27123344 0.29496512 0.26066378 -0.14983934 -0.4245145 -0.30670872 -0.40745792
3 -0.18961169 0.001354055 0.054297403 0.0152024105 -0.06041492 -0.18519376 -0.32453695 -0.24041456 0.047461607 -0.16642334 -0.11144679 0.06271365 0.2199714 0.10542886 0.15753873 -0.16619954 -0.26499924 0.13585329 0.07820863 -0.43708786 0.33536673 0.15586184 -0.2615101 0.51627123 -0.027908437 -0.10538234 -0.24402924 -0.18612438 -0.20714994 0.26969337 -0.4270563 0.33233812 -0.2684769 -0.016649604 -0.019789452 -0.3336451 -0.24884972 0.35831395 -0.32959926 0.27202144 0.056564122 0.043978803 0.16765809 0.24153717 0.45972508 0.19065133 -0.18462743 0.27027747 -0.28862923 -0.11765902 0.11356454 0.42407978 0.22071698 -0.33171886 0.19045219 0.001723669 0.23611946 0.16469954 0.28724548 0.31046322 -0.156448 -0.24849784 0.3541028 0.07833351
74 -0.22722733 -0.10779206 -0.083442375 0.25726098 -0.07026745 -0.117649704 -0.23464371 -0.08892431 0.25457484 -0.10781376 -0.25498405 0.19256264 0.24657597 0.1677482 0.1421092 -0.32356653 -0.11320875 -0.090155415 0.11920392 -0.3543533 0.43049496 0.06212212 -0.054545768 0.41797167 -0.22500849 -0.11665063 -0.020040097 -0.24751526 -0.3076675 0.27981195 -0.2702406 0.32632348 -0.21611539 -0.00663343 -0.18702058 -0.21716364 -0.43453923 0.33160055 -0.4156327 0.36816147 0.16305399 0.06532478 0.16280027 0.07197652 0.36494616 -0.04138967 -0.122436665 0.15501341 -0.16256921 -0.30695277 0.13518342 0.33815867 0.07687703 -0.4179573 0.21786514 0.04828755 0.30016664 0.089652106 0.20917243 0.11314865 -0.12132659 -0.30700773 0.28725448 0.0847239
39 -0.054967217 -0.062499102 -0.15338135 0.10089572 0.16617697 0.16225079 0.15811089 0.04889561 0.64895 -0.3042152 -0.36418742 -0.0482446 0.7383419 -0.076076984 0.19195102 -0.100352466 -0.21653976 -0.03226154 0.23617832 0.2214932 0.025828555 -0.25203916 -0.21299425 0.059924573 -0.38859582 -0.16489811 -0.27179375 0.07807391 -0.15220486 0.4745817 -0.11160819 0.080100834 -0.1424878 -0.03148899 0.18631253 0.17562795 0.23357642 0.3420414 -0.13805217 -0.2236738 0.56801695 -0.46078193 0.105973326 -0.31735894 0.09639116 -0.113391265 -0.17996037 0.12081521 0.021166094 0.038874593 -0.31413022 0.24677901 0.06103856 0.22510247 0.33476758 -0.06274563 0.043166183 0.033934575 0.0773011 0.24666622 -0.37163225 -0.39812192 0.17202707 -0.16193591
110 0.07510939 -0.40359682 0.13274343 0.4662164 0.18640271 0.019316075 0.254721 0.09932549 0.29129234 -0.31013075 -0.13616274 0.6085863 0.24523412 -0.17961796 -0.25778845 -0.13283573 -0.072901435 -0.10948754 -0.007856926 -0.52298737 0.020985484 0.0762662 -0.055959545 -0.11091956 0.058906123 -0.22936319 0.20293659 -0.43641388 0.008850421 0.33581707 -0.10964586 0.047308 -0.024522604 -0.3117479 0.25368285 -0.14105153 -0.031990565 -0.19624387 -0.09990685 0.1557629 0.16954044 -0.54990387 0.13972324 0.37308258 0.2945475 -0.22156629 -0.14464325 0.31407484 0.038285427 -0.54981047 0.038709167 -0.0041821525 -0.24628198 0.06425564 0.13290021 -0.08814756 0.33038425 0.08150355 0.28594345 0.14526877 -0.07350561 -0.047729686 -0.07318332 0.17759669
40 -0.11962768 -0.12829879 -0.018376905 0.37608996 -0.24019457 -0.110889226 -0.040220518 -0.09494295 0.36354387 0.010623939 -0.1766133 -0.03176565 0.27750868 0.3415337 0.09577557 -0.4140667 0.0102120945 -0.024342554 0.37107715 -0.098615855 0.4976557 -0.009690095 -0.031255256 0.46797508 -0.3289135 -0.11782072 -0.31998217 -0.15162942 -0.19198745 0.26146713 -0.3929459 0.25335446 0.11279589 0.16147445 -0.3057255 -0.06565531 -0.67787397 0.38278422 -0.35907406 0.41839662 -0.009129118 0.39574665 0.27763563 -0.052225303 0.5824263 -0.2852097 -0.15840602 0.09525048 -0.29573432 -0.15303308 0.13924679 0.32663703 -0.21394326 -0.40432718 0.24597745 0.08699179 0.29631603 0.35990775 0.059246026 -0.0130378995 -0.10586307 -0.30802068 0.21925302 0.054793544
4 0.18606539 -0.14091536 -0.11729236 0.07609527 -0.10795902 -0.28980127 0.22008778 -0.2560148 0.11947353 -0.2635524 -0.08436064 0.00025209272 0.23476163 0.48524708 0.2793805 -0.08933537 -0.39487362 0.1913982 0.09114367 -0.20458747 0.22216265 -0.47121322 -0.07094676 -0.26473445 0.12263126 0.19782579 -0.14995171 0.0046372786 -0.1422605 0.06401177 -0.16205111 0.027259849 -0.00730766 -0.17067832 0.041556258 -0.059106473 -0.22609934 0.2472213 -0.4393075 -0.12887546 -0.24258435 0.33749884 0.3571077 0.7454904 0.67265326 -0.1733437 0.36601484 0.040906783 -0.1587622 -0.20163877 -0.24127512 -0.05824698 -0.29340926 -0.013413496 0.14756091 -0.24794155 -0.007040207 -0.002789554 0.3681927 -0.061763547 -0.1113481 0.30484393 0.009009644 0.010747434
18 0.092153445 0.1667973 -0.060796328 -0.12875843 0.44295344 0.08850698 0.45323554 -0.0813881 0.11629734 -0.30626264 -0.19851181 -0.13205864 0.3527951 -0.26543352 0.27292156 -0.1329199 0.66668576 0.012331235 0.16365904 0.2224542 0.27802488 -0.25180957 0.33598173 0.26622084 -0.18994804 -0.2584149 -0.54490227 0.13345937 -0.13732019 0.15609735 -0.010838712 0.07335661 -0.23368344 -0.03957215 0.13405672 -0.30664572 0.5993487 0.024424285 0.12611571 0.18761541 0.2317013 0.0338932 -0.055057347 -0.12020345 0.31159562 -0.52022535 0.05620193 0.1581493 0.08742511 0.14557412 -0.17027481 -0.27356598 0.36293527 0.089294195 0.4760397 -0.046344697 0.37190393 -0.38846016 0.26421157 0.27433622 0.111602135 -0.42652112 0.047175117 -0.4641895
49 0.11451543 -0.49440375 0.0754448 0.39977303 0.11313399 -0.07477743 0.22191302 0.20855708 0.30424574 -0.34468594 -0.29214674 0.6212352 0.45988056 -0.13552639 -0.27828172 -0.2177291 0.025039678 -0.09078085 0.095483236 -0.5683719 0.1671217 0.09467427 0.12758982 -0.006850656 -0.011294301 -0.31529325 0.2701323 -0.20353559 -0.008875553 0.23884542 -0.116390504 0.09938303 -0.042552494 -0.2218582 0.18466741 -0.106626235 -0.11745603 -0.13245831 -0.00011879777 0.26849753 0.36549342 -0.56045246 0.2091371 0.31005967 0.22056219 -0.29671457 -0.013769857 0.26165468 0.00013064257 -0.49497154 -0.10479174 0.027581332 -0.2459345 -0.12128559 0.10077898 0.059886787 0.4908274 0.021422215 0.16502579 0.11059736 -0.043556325 -0.04402219 0.19660501 0.13742943
53 0.15087064 -0.3811416 0.09248205 0.47580543 0.107227206 -0.10573403 0.24558909 0.027163126 0.36847258 -0.28092438 -0.25365114 0.68593884 0.29495457 -0.20542611 -0.33793432 -0.18797219 0.08694845 -0.17519595 0.030965533 -0.45768026 0.038512703 0.20898218 0.2096859 -0.016750786 0.06355313 -0.17029779 0.46132934 -0.49899042 0.07072016 0.33530873 -0.07605066 -0.07418198 0.088292725 -0.24596444 0.14366108 -0.23620056 -0.30291903 -0.14247726 0.05621508 0.2803614 0.08089634 -0.48277372 0.14331318 0.28697908 0.18746641 -0.29985264 -0.07426098 0.35066485 0.060993377 -0.44663182 -0.10423726 -0.07363398 -0.34610027 0.026950795 -0.0061981124 0.10894888 0.46055493 0.09842101 0.17432256 0.077237606 -0.13413645 -0.077379316 0.066752635 0.20882869
8 0.14712194 -0.4857285 0.19161049 0.3974556 -0.06002636 0.029800069 0.15203786 0.09799327 0.20029415 -0.16202822 0.28231516 -0.015451865 0.2918477 0.30016837 -0.15314582 -0.22152892 -0.019796757 0.055350903 0.4965967 0.09596226 0.2892813 -0.53691435 -0.12805483 0.016622823 -0.043536134 -0.017169246 -0.26037925 -0.06817726 -0.2330502 0.2701753 -0.2813297 0.1806767 0.4339164 -0.19036017 -0.22659045 -0.048933785 -0.5031834 0.35106358 -0.30847153 -0.1645583 0.22443317 0.27013758 0.5541516 0.14326967 0.70467055 -0.34861258 -0.04393467 -0.04853836 -0.22616582 0.13077809 -0.19070104 -0.44461215 -0.45161474 0.27014777 0.02336162 0.18594941 0.45494515 0.0366769 0.256918 -0.16366617 -0.22787865 0.22839338 -0.31021917 0.22557808
31 0.005490115 0.028345658 -0.12110065 -0.08217627 0.5089413 0.13209796 0.3318769 -0.0097122975 0.24608967 -0.26922685 -0.28692448 -0.043131433 0.26649454 -0.22341467 0.22284217 -0.18354459 0.55083 -0.00038505477 0.091663584 0.112397075 0.32727465 -0.30077538 0.18918249 0.11740233 -0.3468916 -0.14428146 -0.49999866 -0.064983934 -0.23178452 0.1813922 0.07684949 0.11813417 -0.31253925 -0.1668861 0.215643 -0.3028885 0.5294769 -0.10713696 -0.0025685125 0.043887317 0.1968942 -0.097264946 -0.12593234 -0.00018852355 0.07001936 -0.4946748 -0.14702824 0.20527515 0.09051245 0.08565457 -0.15638807 -0.12995915 0.54791826 0.079723045 0.4120224 -0.15645663 0.32961333 -0.51617634 0.34593308 0.3467349 -0.03378235 -0.42241904 0.06764513 -0.3881353
23 0.16858146 -0.3712891 0.020917416 0.059628394 -0.066900246 -0.027340263 0.2833009 -0.0719067 0.17767648 -0.48258397 -0.072824426 0.090335675 0.19601192 0.4777348 0.22280434 -0.030229477 -0.4157236 0.34451687 0.19289106 -0.091059856 0.09010824 -0.45949835 -0.18804048 -0.31151664 0.011427494 0.05069946 -0.22177668 -0.1608716 -0.23615602 0.18238991 -0.18184416 -0.047172725 0.24413417 -0.22216691 0.077179916 -0.030107383 -0.522306 0.2591154 -0.3806308 -0.26163754 -0.19811234 0.43628958 0.3803956 0.68257844 0.5098843 -0.18292233 0.14180492 0.12045137 -0.41904214 0.050576124 -0.3179584 -0.09991663 -0.18123999 0.18037419 0.08116535 -0.035846766 0.18428898 0.039573837 0.4184499 -0.11565542 -0.22704771 0.25368032 0.00718796 -0.06167545
27 0.013373746 0.111550465 -0.13997369 -0.21358585 -0.0152628375 -0.3926726 0.10071039 -0.39363363 -0.10318908 0.061410196 -0.17697184 -0.0027322606 0.16156878 -0.34780106 -0.08548769 -0.10526316 0.29398903 -0.09454811 0.02138554 -0.13113761 -0.015313315 0.08871068 -0.12213886 0.46079376 0.25087404 0.105470106 -0.23864087 -0.26475763 0.12356254 0.34901038 -0.06174222 -0.28672138 0.02560465 -0.27631184 -0.02043727 -0.37255394 0.16020203 0.4408572 0.37333426 -0.088881545 -0.46759027 0.24957375 0.14122447 0.041935273 0.028242847 -0.06563901 0.19075014 0.34396482 -0.37499997 0.09699668 -0.45907274 -0.21688919 -0.03982596 0.28213257 0.13244507 0.16236068 0.0739027 0.084896155 0.09180815 0.60963976 -0.17632627 -0.44105616 -0.15174463 -0.07690377
37 0.27707082 0.14102755 -0.158734 0.15228437 0.22834833 0.24027774 0.1151059 -0.62412155 0.23042013 -0.013280355 -0.6245752 0.23074839 0.3161854 -0.007884968 -0.14517972 -0.074156284 0.5692687 -0.38426661 0.17002359 0.009550648 -0.28747582 0.029568506 -0.43779373 -0.013369307 0.23263085 0.34845984 -0.0717465 -0.30316985 0.1699097 0.1488838 -0.09766345 -0.70904374 -0.1453345 -0.26665166 -0.096884385 -0.15589029 0.1835934 0.15433058 0.08200016 0.4650099 -0.49331862 -0.22757988 0.074773096 0.045149457 0.21724132 -0.3119453 0.066098936 0.10951839 -0.17551742 0.0018177809 -0.07280989 -0.4853759 -0.096902914 0.107254416 -0.19388248 -0.015303669 0.06379235 -0.17093304 -0.087245665 0.53709745 -0.557083 -0.06515644 -0.05546311 -0.19189622
108 0.11237198 -0.33961046 0.19997917 0.28780347 -0.08278047 0.14307566 0.14329636 0.15050483 0.24348898 -0.2986108 0.3470464 -0.0059876437 0.30197528 0.14448145 -0.08918482 -0.11694826 -0.12085324 0.17231058 0.496916 0.20235117 0.25291374 -0.53952205 -0.16583934 -0.055078305 0.0013392678 -0.09162341 -0.37714076 -0.016276965 -0.23140965 0.31977877 -0.24440409 0.20128888 0.36177325 -0.27615368 -0.076635964 -0.04637679 -0.26923734 0.23996834 -0.33248347 -0.19655451 0.18567224 0.20090315 0.58983487 0.19818461 0.6078614 -0.27155954 0.04144329 0.003022517 -0.24157774 0.12110609 -0.2516225 -0.4946067 -0.36853623 0.3021012 0.10226732 0.19033442 0.43338734 0.018307138 0.36202398 -0.1317562 -0.235423 0.25532275 -0.3302228 0.13678993
19 0.3804987 0.07630279 -0.19028866 0.11043383 0.45395344 0.020267876 0.40802854 -0.35944474 0.42720976 -0.00034139783 -0.48098388 -0.13291976 0.1284214 0.12903003 0.144175 -0.24644254 0.6830012 -0.22367708 0.033553567 0.03330122 0.037839856 -0.29606554 0.04399207 0.09903945 -0.046008956 0.09361676 -0.25476414 -0.078250095 -0.16554408 0.08659601 0.07605968 0.028867798 -0.09419077 -0.17498146 -0.09990654 -0.14457133 0.04403025 0.38049224 -0.03623419 0.17916894 -0.048730407 -0.15175404 0.049219925 -0.17736958 0.16782744 -0.33572653 -0.07000801 -0.025766518 0.11191178 0.4536331 -0.18747309 -0.30380207 0.26395896 0.41231066 -0.04159145 -0.36568868 0.34448442 -0.5750608 -0.124433115 0.22914955 -0.12664801 0.09145243 0.32428226 -0.16824886
80 0.33681795 0.25188574 -0.2502312 0.031686287 0.32834515 -0.039818995 0.33354282 -0.46129754 0.26818848 -0.17534086 -0.31137836 0.24256521 0.31520095 0.35595208 0.1841756 0.18239719 0.2671368 -0.10689665 -0.017595064 0.082814395 -0.015903236 -0.17069474 0.14976922 0.0007585839 0.059951447 0.20189244 0.19284599 -0.26317722 0.16827512 0.51593053 -0.1975261 -0.033154786 -0.10873186 -0.041130293 -0.025474949 -0.117842376 -0.07268718 0.27443582 -0.1435435 0.34259945 0.016678015 -0.03573765 0.1170602 -0.08414177 0.17409238 -0.27987617 -0.065349706 -0.016241256 0.1736456 0.043402184 0.05390533 -0.20670447 0.2809126 -0.011497662 -0.17828138 -0.37836865 0.15424395 -0.2602581 -0.047103565 0.032677893 -0.3656533 0.2854943 0.122516245 -0.42068693
76 0.20346901 0.29799157 -0.17777172 0.087434076 -0.09754264 -0.48997745 0.1254664 -0.44436088 -0.12691854 0.02970958 0.14228977 0.0036547638 0.16069171 -0.40386322 -0.062364664 -0.073571205 0.107635126 -0.20572545 -0.0019157698 -0.13966878 -0.033148203 -0.0600105 -0.11360822 0.4154399 0.47076848 -0.003094144 -0.07175747 -0.13421357 0.270259 0.7674619 -0.06653129 -0.14925912 0.17553386 -0.17462169 0.05105062 -0.282216 0.2047455 0.48995727 0.4256769 -0.21053585 -0.29337096 0.14838973 0.26565713 -0.15549128 0.08181461 0.036640856 0.36158237 0.4130805 -0.2896373 -0.035295613 -0.32476503 -0.158574 -0.2639805 0.31754148 0.17323463 -0.04925323 0.11300661 0.1202747 0.07473159 0.43311745 -0.23628059 -0.22682093 -0.36731413 -0.05098334
60 -0.2263298 0.042885475 0.0010709158 0.25839743 0.088703044 0.22451977 -0.29325974 -0.24082807 0.42628556 -0.3677393 -0.20758338 -0.1757595 0.40111312 -0.3420948 0.17267561 -0.068879075 -0.1492445 0.006501032 0.07794668 0.112755604 0.1973498 -0.070285566 -0.3927695 0.21501565 -0.057191867 0.057279404 -0.26793116 0.18578322 -0.3763396 0.24864179 -0.113702096 0.015582615 -0.38396832 -0.14976564 0.22248659 0.027254194 0.40382728 0.23946238 -0.008156954 -0.2494609 0.40170556 -0.41574895 0.1782322 -0.24309501 0.22106418 -0.076216005 0.1639266 0.12699892 -0.11451088 -0.17353176 -0.29164943 0.25101042 -0.15398614 0.1511166 0.5381855 0.028337762 0.08080311 -0.09651948 0.049657438 0.37478444 -0.3452519 -0.4177689 0.11439454 0.14276122
21 0.115494825 -0.34784016 0.19047956 0.31391528 -0.08890752 0.0034891001 0.09894935 0.23442657 0.3485869 -0.26094857 0.27117786 0.08530781 0.44856554 0.053842288 -0.1995271 -0.082036555 -0.022339657 0.008279368 0.5896306 0.404493 0.22921221 -0.49219152 -0.08478948 0.17781456 -0.14792575 0.036010288 -0.17924394 0.0014114097 -0.09783524 0.43090075 -0.36999398 0.32768854 0.28114447 -0.23101303 -0.2639964 -0.08272492 -0.2150949 0.13781497 -0.16472323 0.012356343 0.22926915 0.044597175 0.529992 0.03920264 0.51709956 -0.33294976 -0.11368973 -0.049783003 -0.08869787 -0.07179876 -0.30335292 -0.3990673 -0.47420502 0.1866521 0.0038643412 0.22165118 0.3411144 0.19571988 0.09276868 -0.11230298 -0.24344224 0.08587368 -0.26929283 0.00071302813
30 0.18779156 0.016494822 -0.29129246 0.29331267 0.52824765 -0.007321656 0.21731204 -0.36360312 0.22712585 0.04471718 -0.3942685 -0.076705985 -0.084842905 0.23181294 0.079707526 -0.12927431 0.6033254 -0.15567693 -0.10409024 -0.16833034 0.22679125 -0.29955637 -0.24160603 0.05503483 -0.03364685 0.3235436 -0.12257804 -0.041376963 -0.24920854 0.23263197 0.05268735 0.2210357 -0.2408611 -0.2315003 -0.013669674 -0.13089149 0.060941078 0.42173946 0.041340828 0.033600077 0.17159763 -0.13956851 0.19673546 0.002846353 0.00876814 -0.44497088 -0.06302788 -0.14281023 0.15167068 0.27675307 0.032413203 -0.2207105 0.3565442 0.17272504 -0.14404102 -0.5070341 0.32866144 -0.806968 0.033628922 0.08183678 -0.2710188 0.16134639 0.1664409 -0.13375422
64 -0.13779122 -0.19795173 -0.08136814 0.27655044 -0.030898428 0.1749213 0.11528772 -0.23665437 0.71851206 -0.38967204 -0.41962537 -0.02158037 0.26496595 -0.030653914 0.062857255 0.12996607 -0.32868144 0.22710036 0.23192993 0.22881824 -0.04915079 -0.16213171 -0.24675687 0.121797614 -0.28842944 0.09493356 -0.11808273 -0.061159708 -0.3347858 0.19194244 -0.2185968 -0.08868937 -0.18773568 -0.20066011 0.05813871 0.15397498 -0.07879009 0.5078056 -0.050782043 -0.4929099 0.38482293 -0.11627517 0.21420702 -0.19826387 0.20173942 -0.115467474 -0.1440696 0.016404482 -0.124889895 -0.003302305 -0.45757216 0.15594412 -0.34622332 0.3228141 0.3226122 0.11272295 -0.057735275 0.036083546 0.02551135 0.13413613 -0.2273098 -0.35102156 0.29822665 0.19422011
69 0.19184871 -0.039079625 -0.19974443 0.3829984 0.22106756 -0.20953844 0.28929737 -0.13300179 -0.23091733 -0.2079588 0.026820816 0.4010217 0.053042427 0.12650228 -0.2829803 -0.021980131 -0.2745971 -0.018993288 0.06678587 -0.49116233 0.01104152 -0.2701245 0.08828944 -0.19877999 0.36978826 -0.31632462 -0.07811042 -0.2972022 0.11295892 0.41745412 0.034336764 -0.17812923 -0.021616217 -0.13314249 0.030064847 -0.25335377 0.16579524 0.3073172 -0.16853116 0.008366657 0.028440699 0.10582716 0.3108944 0.54586375 0.26424357 -0.07289263 0.1978624 0.19519383 -0.08956463 -0.20859773 0.15877165 -0.16540991 -0.09564477 -0.21830755 -0.1261343 -0.2183469 0.23085734 -0.32895434 0.6599548 0.14087543 -0.16971533 0.19089451 -0.16546942 0.098585054
109 0.051516425 0.05807191 -0.128644 0.13945365 0.24438392 0.27842453 0.07930135 -0.6696901 0.28700295 0.016920269 -0.64309865 0.16766824 0.03965621 0.09324375 -0.121618465 -0.009959521 0.6211058 -0.24044806 0.14092278 -0.13372235 -0.17700341 0.095299564 -0.4715793 0.12362461 0.110992625 0.40328103 -0.07199529 -0.2950066 -0.099292524 -0.04613988 -0.08452302 -0.5728996 -0.28924707 -0.33162242 -0.1989051 -0.19682954 0.024305338 0.37298483 0.08640166 0.31856853 -0.3358911 0.017483622 0.14097483 -0.07261998 0.15425389 -0.3639787 -0.017554812 -0.018751683 -0.24569276 0.074865304 -0.08507712 -0.42887977 0.04424486 0.14083052 -0.1938426 0.03705287 0.17078468 -0.30322406 -0.05562332 0.46999335 -0.49719402 -0.12218839 0.0771609 -0.09360214
10 -0.21638761 -0.07293629 -0.2498939 0.27589837 -0.10976487 -0.12217824 -0.22013636 -0.0599983 0.22014076 -0.015636474 -0.27147168 0.0875668 0.42765397 0.11219026 0.08565961 -0.41534367 -0.16372214 -0.18211465 0.20548673 -0.4441972 0.54310197 0.11341318 -0.17607953 0.36457047 -0.102023505 -0.18215401 -0.21212508 0.03850754 -0.12732458 0.41514552 -0.21185718 0.2626803 -0.33046293 0.10375611 0.007566051 0.007127428 -0.28060555 0.47635067 -0.37093344 0.2733752 0.2178917 0.078786254 0.21324179 0.01367192 0.30948043 0.057866067 0.17753334 0.19045977 -0.30845776 -0.41289124 0.10092518 0.58718985 -0.009273459 -0.52488184 0.30519682 -0.03923074 0.28516048 0.029134903 0.114766754 0.28545284 -0.17198431 -0.2685361 0.28357658 0.13945854
86 0.34672964 0.32340598 -0.21112338 0.48273903 0.062202778 -0.33787042 0.28979838 -0.36087018 0.0005237247 -0.40076655 -0.11473531 0.27792487 0.05764225 -0.057041418 0.11362263 -0.016550183 0.15091462 -0.14565337 -0.30227146 -0.33813477 0.14707077 0.025463142 0.25268814 0.09361342 0.21419491 -0.06612095 0.7204392 -0.09713014 0.2521407 0.79168534 0.031003317 -0.15740551 0.020623965 -0.20222947 0.25894648 -0.12911385 -0.13306448 0.22027686 0.4248058 0.29448578 -0.011683613 -0.12446171 0.21415974 -0.019425228 0.21047884 -0.3081068 0.56858975 0.1237969 0.053108614 -0.14406466 0.054451898 -0.032781746 -0.25578162 -0.08946575 0.16069342 -0.34106064 0.25963667 -0.09715146 0.0699818 -0.112789825 -0.08695573 0.074071504 -0.12726758 -0.24291565
87 0.1831588 0.0973919 -0.25982785 0.07255374 0.05476599 -0.6863946 0.4285518 -0.33158502 -0.1075373 0.013766221 0.1487838 0.20784663 0.066447265 -0.21011858 -0.07020866 -0.024439849 -0.14702325 -0.087174036 -0.022520013 -0.19882561 -0.1136015 -0.18964306 0.23166366 0.3243878 0.25293714 -0.14854863 -0.048932396 -0.45674488 0.3501941 0.8597124 -0.04200327 -0.10685443 0.19410524 -0.07988399 0.016144192 -0.33334273 0.04772248 0.48766807 0.18529004 -0.30662274 -0.25814158 0.28098923 0.09766543 0.11656693 0.119186334 0.040353414 0.003974719 0.44260213 -0.13673955 -0.077468984 -0.28844145 -0.0136670815 -0.12819181 0.2504824 0.053415846 -0.1632503 -0.025985615 0.13635114 0.26890573 0.29445046 -0.10452349 -0.26463163 -0.30506468 -0.05033434
72 -0.39289856 -0.049508054 -0.06272904 0.12217378 -0.24675564 -0.24972127 -0.22808298 -0.13047709 0.21604748 0.011490607 -0.20875098 -0.054596048 0.27057725 0.13194218 0.32493928 -0.26952076 -0.16328712 0.037103467 0.06478197 -0.33051783 0.63246834 0.10009659 -0.2772234 0.49568212 -0.39602134 0.08024241 -0.29767305 -0.20745553 -0.27259865 0.23180906 -0.31471866 0.18974183 -0.24366845 0.04195887 -0.0057280934 -0.0346336 -0.35464016 0.057295606 -0.42106122 0.3015868 -0.15980805 0.17923146 0.13377358 0.20728184 0.44808316 -0.2284621 -0.066934854 0.3212734 -0.24112457 -0.43588585 0.057430465 0.5300424 0.0962917 -0.4597979 0.45119125 -0.13276458 0.18013677 0.28338176 0.23959246 0.13947938 -0.14193162 -0.4032397 0.15832248 0.019700931
91 0.26000157 0.14514299 -0.26201913 0.42544308 0.12192575 -0.41357833 0.30767018 -0.46342006 0.04702229 -0.18900754 -0.20720553 0.07006598 -0.08100512 0.12725629 0.17295296 0.025244424 0.117635675 -0.06616407 -0.36453626 -0.208163 0.15644754 -0.10152621 0.2087753 0.07097115 0.057961803 0.16121833 0.5065643 -0.1500469 0.04479355 0.60218227 0.10119993 -0.14080396 0.051409557 -0.16070867 0.15981917 -0.051069625 -0.21663211 0.43002504 0.3255569 0.011520633 -0.042414546 0.07644012 0.18223627 0.041779414 0.24672344 -0.41397387 0.4229638 -0.010688305 0.117041826 0.11723557 -0.09173857 -0.036469154 -0.1322849 0.06336479 0.15153131 -0.36450765 0.15401387 -0.24991862 0.052841324 -0.15866995 -0.09710106 0.017620517 -0.04684019 -0.13839239
44 0.20297955 0.2388776 -0.29551128 0.46434075 0.25258037 -0.35317966 0.23265366 -0.46372616 0.1271261 -0.06859635 -0.25392538 0.04561378 -0.18935005 -0.046814594 0.10087282 -0.0876383 0.4604304 -0.26364198 -0.32707956 -0.27389777 0.19242656 -0.065987065 0.018699197 0.23937479 -0.016775323 0.22597975 0.49190354 -0.18716045 -0.104313664 0.60618716 0.21833353 -0.018290708 -0.06984662 -0.29682198 0.07222686 -0.07366966 -0.11522292 0.43009 0.44705263 0.19134356 -0.10345957 0.06711629 0.24274653 -0.30179372 -0.037644763 -0.44610393 0.40721032 -0.06344725 0.09576455 0.075037524 -0.0998458 -0.16546223 0.007753582 0.071975395 0.08444133 -0.37069196 0.2703182 -0.42629233 -0.08530844 -0.03747178 -0.18784206 -0.021487586 -0.0099476455 -0.21819037
32 -0.13142417 -0.1435985 -0.008167144 0.28338954 -0.036153417 0.052994467 0.0008611962 -0.072592825 0.62065953 -0.20094676 -0.14482743 -0.0034969226 0.47373742 -0.2784697 0.051249485 0.045365065 -0.19002324 0.05022386 0.10174435 0.041641384 0.106270336 -0.044695888 -0.47666904 0.058094777 -0.22805502 0.015003593 -0.20724617 -0.039546005 -0.21257727 0.37508762 -0.16016313 0.0648673 -0.09616651 -0.12850413 0.28231773 0.13507114 0.25299057 -0.00033563742 -0.077474095 -0.28506398 0.39511868 -0.53535604 0.3163294 -0.15981445 0.070315436 -0.23316367 -0.088329054 0.21405856 -0.028520085 -0.16678998 -0.26985678 0.1354166 -0.13236938 0.21362886 0.37959346 -0.13540408 0.16904609 0.08354382 0.10799565 0.12375186 -0.34182855 -0.23633079 0.039354827 0.09202259
45 0.028422117 0.08836253 -0.13214906 0.0848276 0.21924905 0.21496458 0.04956349 -0.5889005 0.2577023 -0.046654303 -0.6013807 0.14135407 0.23316865 0.058988813 0.016705714 -0.13014644 0.5424518 -0.36994916 0.06654512 -0.00536066 -0.08865529 0.09516704 -0.4853003 0.016824344 0.08299291 0.5041514 0.007520797 -0.26271448 0.09033028 0.20670882 0.007098128 -0.6183709 -0.13373804 -0.34445035 -0.08593953 -0.1531337 -0.066742666 0.23205446 0.1228306 0.3318413 -0.52692795 -0.023923106 0.058583967 0.05720674 0.0635446 -0.43781376 0.07838458 0.037736785 -0.19071887 -0.092589006 -0.21726657 -0.32980567 -0.09720388 0.14487654 -0.13198282 0.024724413 0.002072371 -0.14220226 -0.110058226 0.47290933 -0.6080368 -0.23284167 -0.2265109 -0.24857987
79 0.30117857 0.1774644 -0.23181812 0.051171657 0.53014594 -0.1145512 0.38952368 -0.48174912 0.24278104 0.17114356 -0.26882088 -0.16392994 0.014869185 0.13117297 0.1485997 -0.148647 0.6841428 -0.123921886 -0.083167404 -0.18767251 0.27721992 -0.2971033 -0.07783099 0.09294377 0.0022547867 0.30174235 -0.41454202 -0.031324077 -0.17719938 -0.0030300901 0.060203668 0.22001179 -0.28352883 -0.14193526 0.034350924 -0.21665852 0.34133437 0.2264824 -0.072145 0.07161993 -0.02753563 -0.1497284 0.18309513 0.01271017 0.23658994 -0.49389982 -0.078924276 -0.044665333 0.23517741 0.2996104 -0.016430017 -0.33544138 0.43792096 0.3399569 0.051881913 -0.59279066 0.24944401 -0.5437543 0.032035902 0.1721677 -0.092602044 0.15515372 0.04924177 -0.21877098
70 0.040919047 0.104722165 -0.12983766 -0.09098028 0.1679371 -0.30985692 0.22231314 -0.4508878 -0.2398772 0.03148967 -0.042022057 0.14062935 0.115290016 -0.24039602 -0.1952338 0.01622788 0.083715945 -0.036339026 0.076164246 -0.35883784 -0.0827119 -0.20005107 -0.09871172 0.24829915 0.2901915 0.06294224 -0.38347992 -0.16271342 0.23839861 0.3980021 -0.0363687 -0.30643642 -0.0673136 -0.2624112 0.1516878 -0.20859973 0.51383495 0.40290514 0.280483 -0.20743105 -0.29640383 0.2346581 0.19969694 0.08536918 0.15762818 -0.05189515 0.055618897 0.28765762 -0.26753032 -0.11758808 -0.31666017 -0.27165055 -0.03570663 0.14775689 0.15383495 -0.10187161 -0.11439264 0.08802567 0.1651241 0.5851062 -0.26151866 -0.36061567 -0.5230982 -0.12638746
94 0.26533237 0.10614492 -0.24984562 0.14877637 0.44339502 -0.16982557 0.26337802 -0.40750054 0.4167555 0.18372814 -0.29443228 -0.18940888 0.04837155 0.16601735 0.21878175 -0.083320096 0.6813615 -0.17134656 -0.05869995 0.046778228 0.25428897 -0.34204534 -0.118465245 0.26413983 -0.12640475 0.44918293 -0.21565491 -0.11313651 -0.28427047 0.17496714 -0.10146075 0.42286882 -0.2565026 -0.11877509 -0.11454499 -0.17982005 0.13116565 0.27773568 -0.075603314 0.1514662 0.085541256 -0.17950113 0.15050663 -0.19037855 0.25944763 -0.4386215 -0.19172372 -0.049068555 0.32007405 0.2887691 -0.0153316045 -0.22895402 0.42286846 0.33675146 0.0105889635 -0.61029404 0.30431995 -0.53478754 -0.11772329 0.07428075 -0.07676411 0.18996231 0.23259719 -0.19850715
73 0.019878987 -0.43921903 0.29847908 0.5572397 0.007985686 -0.07424146 0.16011597 0.106356226 0.19386809 -0.15120038 0.10640023 0.43987 0.2175689 -0.031629633 -0.36203548 -0.13919853 -0.024137702 0.047552437 0.22021629 -0.3398516 0.29983926 -0.006520488 0.056636058 0.1477701 -0.05180098 -0.15086977 0.0018169868 -0.42592263 -0.021763062 0.2172233 -0.34925148 0.16547957 0.12047252 -0.22739175 0.03988597 -0.16263539 -0.21543705 -0.25777024 -0.15083581 0.26830012 0.1598123 -0.34121466 0.29587358 0.3280986 0.64238346 -0.45431277 -0.29091433 0.25592524 0.089777626 -0.50996804 0.09562306 -0.09737006 -0.40658092 -0.02318281 0.122937895 -0.007274201 0.41195145 0.22003073 0.25932908 0.027578905 -0.047210377 0.047284443 -0.10413163 0.31741744
11 -0.05343811 -0.006566182 -0.21916461 0.26358145 0.076356895 -0.12733944 -0.104179956 -0.3407033 -0.34353283 -0.20202516 0.12763105 0.15965952 0.08076137 0.23623276 0.0358892 -0.06338396 -0.32785183 0.1317019 0.051045984 -0.58931905 0.30981898 -0.22950755 -0.13583931 -0.049369264 0.3279617 -0.15503842 -0.2556834 0.016859042 -0.10265056 0.26880583 -0.16911876 -0.030171247 -0.20073038 0.089559585 0.07750989 -0.24640472 0.012797631 0.5666882 -0.3649225 -0.122107655 0.12879822 0.38389215 0.36075172 0.5579608 0.5240473 0.05038697 0.32201824 0.18675202 -0.31279334 -0.17742793 0.2542354 0.05225783 0.026781775 -0.4177439 0.057302207 -0.08947922 0.26438212 -0.40548345 0.69029856 0.060000256 -0.21271177 0.08754918 -0.09992561 0.1949568
16 0.2918764 -0.21033007 -0.05819796 -0.18241493 -0.062412936 -0.333607 0.48438334 -0.018617235 0.27546522 -0.22454466 -0.17922425 -0.0051528807 0.35814312 0.25386587 0.30764663 -0.17505045 -0.19143255 0.15869394 0.1023955 0.02200654 0.13175306 -0.30795115 0.08276525 -0.09829221 -0.08508642 -0.026584238 -0.3509939 -0.19133687 0.07160602 0.09597848 -0.13284813 0.011836148 0.21071415 -0.082726546 0.05380404 -0.09949338 -0.28822625 0.04682369 -0.30756456 -0.09932504 -0.40243432 0.18717217 0.121073544 0.61161643 0.44814923 -0.23944244 0.027584722 0.26818073 -0.15350345 0.021221124 -0.38562262 0.035588376 -0.08506464 0.23747717 0.14150274 -0.19252652 0.07849356 0.1905154 0.2489971 0.04515099 0.027823595 0.07987428 0.1277274 -0.15819038
25 0.011919088 0.06642302 -0.0976674 0.20443714 0.25095242 0.36057776 0.05033513 -0.49005994 0.27155602 -0.16603865 -0.5441936 0.42790374 0.21504763 -0.008983122 -0.17959526 -0.041568197 0.2597629 -0.3527643 0.12783495 -0.13985918 -0.17773908 0.12015103 -0.49559167 -0.14741436 0.053844817 0.34131542 0.09688007 -0.5021089 0.036875844 0.18719345 0.049285095 -0.6917112 -0.19483218 -0.3635135 -0.038280413 -0.12908384 0.015387216 0.12139534 -0.043386646 0.33655262 -0.39560035 -0.07449307 0.10082758 0.098682605 0.06882685 -0.34158155 -0.07084385 0.101204105 -0.18685877 -0.25075537 -0.053411137 -0.35902476 -0.1379206 -0.02491022 -0.13655579 0.072747305 -0.022700604 -0.074602894 0.16352837 0.44730788 -0.6816203 -0.19009152 -0.30039087 -0.15033069
48 0.22068407 0.29262292 -0.23314966 0.5268127 0.094040595 -0.2553882 0.14900523 -0.28253087 0.051948983 -0.22585392 -0.050777107 0.1848582 0.04713195 -0.20033213 0.06640954 -0.099976584 0.14581749 -0.23084517 -0.27383727 -0.20753434 0.36597037 0.10680109 0.24255404 0.123072736 0.06265636 0.0184383 0.5326797 -0.2509726 0.06606252 0.80256665 0.2100577 -0.05548551 0.1336349 -0.124910735 0.26136294 -0.07879477 -0.2573209 0.19820629 0.4507628 0.16901378 -0.12526679 0.030792665 0.26209697 -0.15330395 0.0030119442 -0.44126716 0.4812089 0.19275127 0.10246523 -0.17418048 -0.0021226655 0.031661045 -0.23764847 -0.07831158 0.2810983 -0.21331029 0.2567182 -0.14794044 0.1578043 -0.1277017 -0.15235911 -0.10992349 -0.19618806 -0.15259457
114 0.15857284 -0.3452894 0.22277778 0.496156 0.046272982 -0.07865767 0.23786563 -0.062331643 0.37647843 -0.24301088 -0.08615222 0.37173384 0.23145922 -0.23443177 -0.19275582 -0.11849211 -0.10863555 0.025103573 -0.0012470576 -0.3904215 0.110627554 0.21283387 0.025402466 0.043076385 0.17764498 -0.24090621 0.0858585 -0.3525736 -0.02705774 0.17285481 -0.20732747 0.066752605 0.09999164 -0.12847106 0.204796 -0.229208 -0.14912492 -0.21096364 -0.04978013 0.018693067 0.20058289 -0.5879504 0.18489194 0.38374233 0.39909658 -0.31238922 -0.20381516 0.45937926 0.11623406 -0.3006187 -0.067477316 0.08511196 -0.40001848 0.19718333 0.1706756 -0.081750445 0.46726254 0.08296258 0.25960255 0.09824583 -0.05015523 -0.028540062 0.21484537 0.42605108
111 0.008414203 -0.2922271 0.1990459 0.25604087 -0.15823963 0.017877894 0.07827394 0.02409155 0.30888876 -0.15371087 0.23597 0.0473774 0.4067464 0.13491343 -0.12165725 0.05407818 -0.10107446 0.18897265 0.46201283 0.033874694 0.18938799 -0.4165279 -0.29480302 0.0955354 -0.017026894 0.031649545 -0.28422284 0.063894786 -0.26528868 0.14940125 -0.4400208 0.2676319 0.17676912 -0.24057256 -0.07652485 -0.010465946 -0.041903395 0.13906895 -0.28933278 -0.1373267 0.33778474 -0.06799205 0.68239003 0.1481369 0.63794076 -0.2902155 -0.07768683 -0.021980943 -0.11418728 -0.04444219 -0.22758575 -0.47527316 -0.38451752 0.24681526 0.11820679 0.07411185 0.3436956 0.16271564 0.18912 -0.14575322 -0.2604665 0.18840322 -0.19815889 0.16267008
106 -0.25940183 -0.022574654 -0.09300371 0.3357711 0.109956235 0.17003894 -0.11212186 -0.35804772 0.5228427 -0.26548362 -0.2580824 0.0033083288 0.39767027 -0.21564284 0.085061386 0.016789718 -0.22962816 -0.019160232 -0.006033099 0.02232248 0.12168317 -0.079630345 -0.3975916 0.040362466 -0.22173911 0.28105858 -0.058184594 0.034757927 -0.12245925 0.3287693 -0.025443222 -0.08318329 -0.2008227 -0.073868126 0.3747086 0.13901544 0.26542056 0.30907357 0.10895725 -0.3198952 0.25321308 -0.3391449 0.18993421 -0.3012768 0.11201619 -0.2384729 0.023960518 0.122750945 -0.013777923 -0.26859716 -0.31357032 0.2636408 -0.20055239 0.22945036 0.45598686 -0.08069758 -0.13852094 0.15305777 -0.07331648 0.27462375 -0.48729506 -0.44363722 -0.24754266 0.0016034172
82 0.12307696 0.0085875485 -0.083800726 0.34356552 0.14319974 -0.28460982 -0.047718126 -0.18776663 0.36857218 0.10410351 0.059032768 -0.22621691 0.29467902 0.31179747 0.15978932 -0.018637722 0.08597894 -0.050924644 0.11675784 0.2424853 0.28380677 -0.23948324 -0.37092504 0.2818918 -0.26607385 0.28424478 -0.17963983 -0.10315356 -0.0800271 0.5689504 -0.41695175 0.38025144 -0.10542336 0.08426759 -0.11686579 -0.01042268 -0.06756702 0.15776564 -0.3710307 0.17548174 0.16941206 -0.34765318 0.22123419 0.008848477 0.46248713 -0.30903003 -0.25762638 -0.08081129 0.19031602 0.124504 0.16188669 0.20219359 0.17701346 0.016488153 -0.035317574 -0.41988802 0.1883687 -0.066193484 -0.04930437 -0.10509528 -0.2547108 0.13214296 0.15630373 -0.09779046
33 0.25139263 0.1287305 -0.26512954 0.12646736 0.21323024 0.15254879 0.16962549 -0.6061941 0.45207796 0.04182379 -0.638488 0.18370461 0.2365211 0.17050633 -0.008090096 -0.13422315 0.4805668 -0.35776323 0.17156921 -0.06656571 -0.11668272 0.0053302883 -0.52006495 -0.19521658 0.10547659 0.53953034 -0.09277605 -0.3922666 -0.10532535 -0.046640605 0.04927761 -0.62031984 -0.16307172 -0.24721393 -0.25320464 -0.18293437 -0.015401836 0.1031641 -0.14738187 0.40248638 -0.6921247 -0.004745049 0.24710459 0.26508468 0.03780671 -0.530826 0.120864 0.025893308 -0.18383911 -0.10027962 -0.13727245 -0.45534125 -0.07442599 0.068196625 -0.259563 -0.075808175 0.04562084 -0.18981618 0.08008014 0.27956796 -0.5706537 0.024915311 -0.0036882642 -0.22206432
46 0.11832191 -0.47364008 0.22600004 0.462348 0.073375106 0.022751488 0.2159808 0.16398278 0.35521913 -0.1151084 0.003764787 0.3803752 0.38820735 -0.24923177 -0.37513408 -0.17100576 0.046684027 -0.0021846462 0.23717727 -0.28884107 0.202962 0.019028863 0.08277846 0.036513202 0.06129984 -0.18421547 -0.022142239 -0.3283784 -0.10898343 0.17016864 -0.20155695 0.10446913 0.12058838 -0.27519962 0.22174227 -0.02093701 0.0055374727 -0.21574184 -0.030418457 0.020775078 0.24668384 -0.49772668 0.28260154 0.17152403 0.3514322 -0.38164127 -0.15793242 0.34271443 0.10752942 -0.47731295 -0.16896878 -0.113559976 -0.4661024 0.22484669 0.26764894 0.042229727 0.40411106 0.17050187 0.16437499 0.147006 -0.006794538 0.03110952 -0.07179459 0.37880126
78 -0.03177722 -0.29598287 0.22961025 0.30805 -0.043856904 0.12734142 -0.05518073 0.068746604 0.03872682 -0.24040896 0.3942063 -0.02449182 0.21412429 0.25049177 -0.13615659 -0.07488062 -0.07326052 0.13713449 0.44816905 0.05733936 0.29659826 -0.52426493 -0.37698445 0.038061906 0.03744708 0.0026817557 -0.34504142 0.008344549 -0.2562398 0.33492264 -0.32711577 0.24941063 0.24738608 -0.28250894 -0.12587507 -0.12071815 -0.18832739 0.3255988 -0.36096406 -0.13397808 0.33660895 0.2551252 0.58496857 0.20083345 0.65295243 -0.25860623 0.011771587 -0.071628295 -0.24584739 0.07579568 -0.03630694 -0.47346985 -0.25967848 0.091818094 0.048229467 0.13539273 0.4417454 -0.056809783 0.4456408 -0.10407113 -0.36973011 0.26555425 -0.4436764 0.11118674
101 0.38130668 0.04405879 -0.17139286 0.34721333 0.34289068 -0.23466364 0.3299818 -0.3323683 0.43000165 0.38189003 -0.22365719 -0.20174804 -0.06943979 0.050626077 -0.05989424 -0.23476022 0.7579411 -0.2541285 0.0827773 -0.16453041 0.10703176 -0.09696036 -0.17100549 0.23767199 0.0624962 0.11333399 -0.34382415 -0.17602001 -0.33423343 0.04861328 -0.015270796 0.16023763 0.024283402 -0.04980163 -0.29011473 -0.23404656 0.01639011 0.30280906 -0.038323842 0.08357556 -0.0008263142 -0.19376944 0.25956932 -0.06840116 0.09396855 -0.4828922 -0.1193246 0.01787623 0.10935928 0.44870734 0.003760073 -0.28832132 0.1505735 0.351599 -0.17170586 -0.36179468 0.5020799 -0.54147416 -0.01531904 0.015072958 -0.034899127 0.10258116 0.3467775 0.14660618
93 0.3694943 -0.005222043 -0.14165463 0.07543225 -0.10593366 -0.32149267 0.38208646 -0.16663504 0.40178454 -0.2613154 -0.096776426 -0.05959569 0.15472758 0.44977343 0.44645852 -0.15765668 -0.20704183 0.083699845 0.017784039 0.1407685 0.19643998 -0.4767554 0.06525328 -0.13637468 -0.05406311 0.26839682 0.012982982 -0.19341004 -0.16153285 0.2504181 -0.08944178 0.18707906 0.15390407 -0.21764988 -0.12737355 -0.13700454 -0.49320275 0.09019075 -0.39384544 0.03796127 -0.42619863 0.2410828 0.2533588 0.4553679 0.5245547 -0.28512996 0.28100932 0.009516648 0.0027345442 -0.05265249 -0.2454638 -0.09579823 -0.15124416 0.28343192 0.149243 -0.3662598 0.031456795 0.14357929 0.1885068 -0.22128808 -0.019343756 0.42061606 0.112146206 -0.23032573
89 0.05884043 0.061260372 -0.15637161 0.10865008 0.27120042 0.3390466 0.07539231 -0.3721064 0.4356831 -0.07140189 -0.6553307 0.31616756 0.28647396 -0.11748522 -0.121463925 -0.14731507 0.5819934 -0.4082665 0.12591727 -0.018139238 -0.029255284 0.07346677 -0.36635184 -0.1538338 0.027374554 0.42147183 -0.07018771 -0.39077032 -0.07840776 -0.0048796157 0.1255185 -0.53347963 -0.20046254 -0.27704722 -0.14591034 -0.20557901 0.13378042 -0.02015019 -0.043868452 0.37526244 -0.36762902 -0.1696622 0.06750581 0.10869863 -0.08573863 -0.5232929 -0.026369419 0.19745748 -0.050302316 -0.15857588 -0.11388972 -0.43695474 0.023978446 -0.027527224 -0.13521412 0.0044163633 0.18541358 -0.3172241 0.210511 0.41254607 -0.5800716 -0.14151694 -0.090634875 -0.15977791
92 -0.024827491 0.09511036 -0.13255548 0.3644267 0.21540004 -0.13163565 0.104017265 -0.20875041 0.22176424 -0.47903377 -0.20676444 0.15424806 -0.0811888 -0.25510684 0.16376351 -0.07521428 0.18342863 -0.12369848 -0.3383252 0.06775689 0.2905075 -0.084079996 0.21721093 0.23538251 -0.16756539 0.18130662 0.61303335 -0.1949923 -0.12487669 0.6698703 0.19260184 0.11954526 -0.038208283 -0.36994362 0.21219249 -0.14589904 -0.21942335 0.3013765 0.45874178 -0.0046136216 0.061923064 0.13905989 0.057168987 -0.30885994 -0.12666796 -0.33302268 0.38036066 0.0062108217 0.11209113 -0.08030681 -0.30091515 -0.011736244 -0.09962039 0.09587939 0.34485835 -0.12177695 0.25274798 -0.26728445 -0.017193178 0.0005424354 -0.21214631 -0.19578288 -0.03320677 -0.2620284
43 0.07488044 0.03595822 0.12151755 -0.44261616 0.4138339 0.054379936 0.27505377 -0.118006274 -0.13241395 -0.45823693 -0.22961172 0.008254495 0.29175407 -0.23865822 0.24612735 -0.090688996 0.55222565 0.14833626 0.03485487 0.030337362 0.20009714 -0.29072356 0.26176623 0.34617698 -0.012170892 -0.14269865 -0.45310086 0.04364496 -0.027833391 0.101158015 -0.092781775 0.16900767 -0.18759972 -0.2968618 0.1781228 -0.5481233 0.5298783 0.13290589 0.16687661 0.24957095 -0.034469277 0.058742594 -0.092207186 0.046245143 0.3230582 -0.16938043 -0.027760599 0.18107787 -0.043098856 0.19788767 -0.3346783 -0.37449417 0.539841 0.19410488 0.37020567 0.017063782 0.24804264 -0.28799385 0.24460468 0.59502625 0.07668535 -0.2598535 0.11330206 -0.5407917
56 -0.019566432 0.122469835 -0.1419982 -0.11488482 -0.0037740415 -0.5358622 0.120211735 -0.36523125 -0.14242923 -0.07073871 -0.07984011 0.11418098 0.116180904 -0.26216656 -0.069495164 0.17688961 -0.031756327 0.02887741 -0.10362935 -0.11328461 -0.04916027 -0.05547503 -0.07676379 0.4666184 0.17854077 0.2538329 0.14291897 -0.3139028 0.100279786 0.7659476 -0.17666115 -0.13143793 -0.007217387 -0.50870776 0.20431761 -0.21400297 0.06832813 0.44024912 0.4801836 -0.25344005 -0.3476891 0.2652554 0.23612154 -0.01345734 -0.013849384 0.008485278 0.18032357 0.21879978 -0.22006829 -0.14133847 -0.5295422 -0.119897336 -0.15128082 0.31513047 0.18762574 -0.06699132 -0.10743099 0.22451118 -0.011235542 0.41359922 -0.20538989 -0.3011647 -0.33522773 -0.18616779
41 0.2735608 -0.24826372 0.097321704 0.075135306 -0.26825085 -0.33567935 0.2637056 -0.1553013 0.35976836 -0.34772608 -0.09689939 0.074972756 0.11873625 0.36612475 0.27497154 -0.051553614 -0.24715503 0.28089488 0.1500515 -0.109456815 0.16255252 -0.26793227 -0.08918691 -0.014925428 -0.013448521 0.17244348 -0.035270102 -0.21359006 -0.26787236 0.017647494 -0.2940254 0.14383012 0.18263702 -0.30900648 -0.088304885 -0.16018854 -0.60409325 -0.015399451 -0.28381273 0.05290941 -0.4386292 0.30464983 0.45521104 0.5960174 0.5637986 -0.2760383 0.20674507 0.097639695 -0.2916703 -0.14991646 -0.35760495 -0.123746835 -0.31583205 0.17001697 0.06981787 -0.12324897 0.24075809 0.20263433 0.14011952 -0.21671191 -0.028842725 0.3619324 0.2458433 -0.025060466
38 0.06703894 0.14256045 -0.0036472832 -0.16475138 0.2904901 -0.087794855 0.23053749 0.024097981 0.06613463 -0.5994886 -0.058061987 -0.09662552 0.3039148 -0.15107317 0.3549252 0.084197015 -0.169683 0.30911598 0.03533759 0.15263715 0.06975251 -0.37464035 0.014220969 0.14200297 -0.304776 -0.37582266 -0.39175177 0.020359032 -0.092086 0.40798676 -0.11052274 -0.011941123 -0.27627537 -0.14648448 0.3093163 -0.23725079 0.53619903 -0.041000634 -0.124559194 -0.025093636 0.110921025 -0.06752216 -0.07499954 0.3094971 0.39324 -0.093557894 0.0047870516 0.19531424 -0.06432423 0.149366 -0.15061314 0.03631965 0.3880675 -0.05381195 0.4008215 -0.13962358 0.13741392 -0.16728656 0.53528893 0.2580908 -0.08365628 -0.29891175 0.15000024 -0.38289142
13 -0.12919617 0.0055787903 -0.00519578 0.21638227 0.17701201 0.21279325 -0.16902405 -0.24357677 0.55707324 -0.33422744 -0.37277168 0.06726738 0.5203069 -0.27978325 0.02166449 0.11344942 -0.24787366 0.01328589 0.032030977 0.18563975 -0.009725435 0.06829395 -0.4047654 0.0990471 -0.21321198 0.20625526 -0.037528116 -0.23981513 -0.18734074 0.35571256 -0.17026198 -0.13473779 -0.24834083 -0.14666583 0.30372497 0.06578849 0.25696412 0.18103908 -0.059736934 -0.03936034 0.14522813 -0.50030136 0.13247271 -0.1790616 0.077651255 -0.057676915 -0.22722606 0.22205222 0.1039019 -0.13114214 -0.25859323 0.18262902 -0.09306959 0.14552636 0.3606903 -0.03450915 -0.07260427 0.12227801 0.118395306 0.34360296 -0.46364057 -0.3388714 0.11745574 0.019832853
107 -0.0076241167 -0.042959396 -0.18496926 0.27415562 -0.26362264 -0.25662693 -0.25501397 -0.023014626 0.20483004 0.051629238 -0.1891477 0.09747669 0.41737267 0.0072859456 0.0775969 -0.6054118 0.07906828 -0.38391978 0.13568324 -0.32475007 0.7123026 0.16168861 0.046889994 0.3876545 -0.036259267 -0.11855191 0.050938696 -0.099501066 -0.062580995 0.41191548 -0.072433695 0.24166133 -0.05168138 0.03769178 -0.109937005 -0.16221496 -0.56518203 0.30880877 -0.2710926 0.4877486 -0.06594991 0.15980986 0.21267526 0.00044358772 0.2939395 -0.07112252 0.36778858 0.2670922 -0.19109108 -0.33445996 0.07395359 0.3329689 -0.13395244 -0.5284366 0.31031805 0.06717781 0.4923619 0.10703979 0.16388269 0.15843302 -0.09134709 -0.14270233 0.17238134 0.114563726
105 0.11862485 0.085413136 -0.13979444 0.04377943 0.2411136 0.10141383 0.029740725 -0.5356782 0.23689587 -0.0037937057 -0.5549918 0.2646881 0.20486811 0.09045376 -0.039604556 -0.08283883 0.49273852 -0.36936456 0.027347932 -0.099294804 -0.06725741 0.055840228 -0.4698346 0.01018868 0.13880053 0.6337495 0.06406632 -0.43613082 0.04244594 0.13364455 -0.05199247 -0.42593113 -0.17347741 -0.42938542 -0.10486149 -0.20472507 -0.009576649 0.12612489 0.004837537 0.42318317 -0.65550363 -0.058033086 0.115946844 0.16494766 0.1186508 -0.3446451 0.055107944 0.067861006 -0.12793815 -0.28502545 -0.17670417 -0.41258845 -0.05170548 0.156923 -0.096600905 -0.09550565 -0.068840735 -0.013786048 -0.09068417 0.52112985 -0.5527281 -0.028150285 -0.21848874 -0.25854933
20 0.12458976 0.13608032 -0.036167774 -0.1294702 -0.13324155 -0.52929556 0.23963742 -0.16435379 -0.092563614 0.10689816 0.20031594 0.013200205 0.13572104 -0.34587473 -0.14421175 -0.09257455 0.19449227 -0.086498044 0.030782292 -0.08972997 0.007208401 -0.19982797 0.09577294 0.47967744 0.26689187 -0.109851524 -0.16720128 -0.3162549 0.14778565 0.6526088 -0.12346635 0.04051064 0.30924085 -0.30341163 -0.0023406171 -0.33376813 0.13063197 0.42661706 0.17722054 -0.15066135 -0.23137198 0.2621859 0.21567647 -0.1929007 0.06176758 0.07628358 0.115820184 0.39920494 -0.17318216 0.09313004 -0.34056252 -0.3557092 -0.04943719 0.3810618 0.27292827 -0.0465821 0.2208083 0.19787839 0.19745982 0.3850806 -0.05361851 -0.09086687 -0.3342599 -0.06429709
17 0.12534913 0.18657164 0.08134746 -0.26525 0.0016397607 -0.5416614 0.34142473 -0.38889232 -0.15670946 -0.05940434 -0.028147442 -0.08034449 0.0068109143 -0.20677905 0.1704792 0.08756682 0.0708812 0.106921 -0.076535374 -0.13131386 -0.16834651 -0.10877126 0.020127576 0.51002973 0.23257738 -0.013946926 -0.29769143 -0.2801941 0.10923815 0.4255229 -0.25893047 -0.08036244 0.10266336 -0.32852232 0.043152895 -0.4265437 0.21442907 0.20431611 0.2198559 -0.059766106 -0.4723079 0.20580363 0.046923377 0.20265907 0.36041856 0.0062446715 -0.09651607 0.41614065 -0.13607198 0.07828593 -0.38607457 -0.19959578 0.0004639253 0.36042118 0.26142675 -0.21476245 -0.0752762 0.27387798 0.1778475 0.47173867 0.018293537 -0.27648696 -0.11275629 -0.16928346
100 -0.3078092 -0.025773106 -0.013288197 0.26475105 0.0117047 0.2546772 -0.23100202 -0.03594963 0.60096884 -0.39534843 -0.28665185 0.010941436 0.44026518 -0.21957104 0.16454016 -0.054960366 -0.16417333 0.0504665 0.03482968 0.11443186 0.24825777 -0.05958473 -0.44319543 0.103052236 -0.41266873 0.07998878 -0.11369756 -0.078069285 -0.38131937 0.33224264 -0.07376009 0.06459548 -0.1658696 -0.14560595 0.18000367 0.054140862 0.14536513 0.12969732 -0.12923418 -0.12078702 0.40173295 -0.3487424 0.1842362 -0.23983815 -0.012222341 -0.24226432 -0.10553664 0.1719045 -0.029765578 -0.10679874 -0.1853909 0.22188863 0.039404936 0.0010351817 0.50853175 0.01290053 0.124512866 0.024879148 0.27992782 0.1779471 -0.461789 -0.41331655 0.06259234 -0.085448414
95 0.13686731 0.22479853 -0.12021132 -0.09925265 0.0043846397 -0.5271836 0.2698029 -0.4954989 -0.18189318 0.15135638 -0.021377208 0.22913931 0.060986433 -0.25911823 -0.1605377 0.020871168 0.074154824 -0.10820238 -0.03924872 -0.51723015 -0.12549736 -0.0038836955 -0.13535745 0.31561014 0.40863773 0.0514739 -0.17630562 -0.31892294 0.27610242 0.4087156 -0.06247501 -0.24045664 -0.043973688 -0.3236632 0.082008205 -0.29887787 0.43960902 0.36062974 0.23691644 -0.026590042 -0.4521802 0.10175226 0.25971055 0.11105456 0.19067048 -0.0026130178 0.12373634 0.3889393 -0.20145285 -0.19061917 -0.2632121 -0.31474268 -0.055982266 0.2179962 0.15812801 -0.2023502 -0.05101751 0.28593108 0.18975195 0.5756262 -0.17819463 -0.19632897 -0.44624817 -0.08970093
54 -0.16039053 -0.01967131 0.003211797 -0.115829445 0.40381598 0.06290815 0.2809304 -0.080296494 0.3068832 -0.3329888 -0.25368086 -0.16391443 0.096196756 -0.26979572 0.34821388 -0.052805353 0.40163672 0.08268413 -0.10465231 0.056612395 0.36622676 -0.23432559 -0.009067341 0.1350473 -0.42765188 0.05425184 -0.46931192 -0.14443897 -0.356958 0.07508707 0.08805573 0.14574522 -0.32963863 -0.2980153 0.28270206 -0.29379618 0.39168113 -0.10626192 -0.040730126 -0.1605797 0.1438614 -0.020430064 -0.0701478 -0.0037405086 0.08493499 -0.4402935 -0.11479469 0.21401623 0.07943556 0.0148163065 -0.27158096 -0.08122558 0.51153713 0.25595918 0.56114686 -0.19945239 0.25798884 -0.47281313 0.42848742 0.26880965 -0.051596344 -0.4094464 0.026662344 -0.27153942
57 0.24042374 0.28352314 -0.30927584 0.29137644 0.16004014 -0.2411551 0.24019265 -0.46007827 0.0131554715 -0.3480826 -0.1736041 0.18027562 0.07761589 -0.058195323 0.20932744 -0.1815366 0.29275644 -0.18613972 -0.19251552 -0.101156875 0.33250847 -0.06911693 0.37062088 0.22830294 0.033537768 0.12111061 0.48673773 0.01956755 0.18792322 0.5235321 0.28940082 -0.099562734 0.02073032 -0.15143569 0.087320246 -0.2235079 -0.15445986 0.4534425 0.5501707 0.1479267 -0.2056025 0.11993876 0.2102012 -0.18891145 0.15565807 -0.473565 0.6465672 -0.06268598 0.033776976 -0.043982357 -0.2863733 -0.18202218 -0.14218402 0.16703151 0.15483259 -0.03063254 0.12657149 -0.13317278 -0.15234825 0.045620184 -0.17847422 -0.16936572 -0.22728246 -0.38620496
12 0.089792915 0.28678018 0.17742473 -0.34683275 0.31434307 0.13108724 0.30627492 -0.32978857 0.02762301 -0.4655793 -0.04294486 -0.20009458 0.3945475 -0.18113773 0.39902136 -0.10969711 0.2370844 0.13910738 0.019761778 0.06884798 0.050930813 -0.21459019 0.091892116 0.23027168 -0.022951106 -0.27263546 -0.58301 0.1205577 0.13133745 0.22990851 -0.14357506 0.019197283 -0.15383177 -0.13338666 0.25555763 -0.34897736 0.5378041 0.2011618 0.023508387 0.20339306 -0.0037962922 -0.054420885 -0.13770688 -0.16020867 0.57329035 -0.04800441 -0.056750495 0.19162717 -0.082515694 0.21010865 -0.13635407 -0.15665479 0.4018914 0.24311765 0.5099525 -0.04757456 0.04559079 0.0102964565 0.22587007 0.5757353 -0.089830644 -0.31600618 -0.02775741 -0.4555884
71 -0.20926477 0.13385732 -0.11172913 -0.247461 0.19744144 0.108758405 0.27916476 0.22199078 0.2570009 -0.30199385 -0.2532505 -0.03957364 0.4786349 -0.20066944 0.32611197 -0.065735266 0.282287 0.13943523 0.14550465 0.08075368 0.34073585 -0.3124926 0.19319628 0.24881867 -0.5270911 -0.24898179 -0.51947415 -0.0016618626 -0.31152222 0.23798427 -0.034867976 0.14120777 -0.29663807 -0.2582594 0.25670066 -0.067354314 0.49066016 -0.05553307 -0.15638569 0.06769586 0.17490137 0.1528666 0.056658603 -0.108291 0.048062585 -0.30653483 0.028675234 0.20439838 -0.005164792 -0.13675703 -0.27271196 -0.057530195 0.4933464 -0.11244275 0.7304076 -0.124435715 0.21114151 -0.16483866 0.39597288 0.27580497 -0.039844792 -0.44928285 0.030449627 -0.47702968
24 0.075742126 -0.049938314 -0.17083432 0.3123356 0.2500698 -0.13366912 -0.11328905 -0.22447674 -0.3001269 -0.1998318 -0.01202196 0.38463914 0.24969223 0.11422364 -0.21688797 0.06195325 -0.18812922 -0.033063322 -0.013413869 -0.6398802 0.15502006 -0.036619827 -0.23992209 -0.16889977 0.42530587 0.026961366 0.16360216 -0.20500307 0.01913019 0.4710696 -0.15168507 -0.04238363 -0.115026966 -0.0834787 0.27324104 -0.1652048 0.08334674 0.3519371 -0.058122166 0.02911654 0.15505894 0.028336579 0.38624203 0.42342618 0.10130308 0.011009948 0.2820889 0.22202621 -0.22617015 -0.37425902 0.16888884 -0.03157771 -0.061886877 -0.2995581 -0.07477657 -0.1445267 0.22582425 -0.30598077 0.477387 0.14978063 -0.38645044 0.2418486 -0.17690189 0.062395636
58 0.42569393 -0.12027751 0.06790935 0.2751076 0.028744303 -0.25931728 0.31847212 -0.42565602 0.2559226 -0.19464 -0.2684038 0.03547522 0.19813402 -0.20848455 -0.0682479 -0.09103662 0.1353273 0.07860379 0.037220947 -0.21597776 -0.17516033 0.07900691 0.0866687 0.29434493 0.3063227 -0.3938542 -0.22372687 0.040163804 0.17989872 0.012110386 -0.31252223 -0.061588682 0.006615972 0.08161219 0.0037618561 -0.14687806 0.09160181 0.3162017 0.25920162 0.09390051 0.16766474 -0.43921497 0.06560611 -0.03310629 0.5584861 0.0139800925 -0.078116484 0.3556999 -0.101341076 0.21231624 -0.14081113 0.082732856 -0.2871186 0.21218184 0.036037244 -0.037658755 0.38981545 -0.15255924 -0.14507319 0.32979888 0.09125136 -0.09377548 0.706146 0.330618
52 -0.20129406 0.044849873 0.07819951 0.44428155 -0.22842328 -0.11292875 -0.36559474 -0.31775862 0.20370546 -0.16615862 -0.160025 0.10646918 0.052029368 0.019602265 0.12823337 -0.25708833 -0.045180727 0.01814707 0.015408981 -0.3352238 0.5644519 0.2767208 -0.096290246 0.49572393 -0.1772153 0.070266604 0.19925378 -0.30229157 -0.33948386 0.19001019 -0.26707393 0.13527426 -0.22571273 -0.18144894 -0.065092154 -0.2710366 -0.5566471 0.13873154 -0.08342997 0.5027662 -0.09585762 0.12186074 0.22747816 0.024384188 0.510151 -0.2696015 0.17345822 0.086054586 -0.16955967 -0.39340505 0.13951391 0.28045383 -0.16221912 -0.43481824 0.3087024 0.10607046 0.34171206 0.0550835 0.18850179 0.029612508 -0.15923558 -0.16939788 0.30340528 0.20904574
102 -0.36026073 0.03919326 -0.030817753 0.30627614 -0.13557304 -0.017381923 -0.41947076 -0.22795574 0.2009929 -0.012410634 -0.2837916 0.034287117 0.22984743 0.057262193 0.09003552 -0.30832693 0.035982292 -0.084178485 0.20028576 -0.31718194 0.5500055 0.23585102 -0.3616665 0.4858777 -0.27798128 0.064625025 -0.23888269 -0.24202533 -0.35330835 0.2633644 -0.30257112 0.12718827 -0.24545391 -0.041803986 -0.09885511 -0.07866826 -0.36894467 0.23373638 -0.25458872 0.5193932 -0.12173686 0.24651851 0.2623746 -0.07978075 0.2777662 -0.15686503 -0.01898208 0.1522527 -0.32034326 -0.47041336 0.20148708 0.34428728 -0.030890198 -0.65082985 0.3398149 0.10200978 0.20153242 0.13889825 0.14410672 0.22462004 -0.2659431 -0.41503975 0.15564184 0.0543431
112 0.1533293 0.38200146 -0.2507757 0.40341786 -0.07343819 -0.23972999 0.07905423 -0.5449459 0.10138774 -0.38932058 -0.2280138 0.039501537 0.043803554 -0.09383722 0.18271963 -0.0011455349 0.13203822 -0.02830926 -0.19410689 -0.10826058 0.21796697 0.15321736 0.17098807 0.3205161 0.1217893 0.021469034 0.47397184 0.08014693 0.030935157 0.6392515 -0.0061557214 -0.21342653 -0.030711433 -0.040220384 0.101357885 -0.075021274 -0.29226944 0.5497504 0.54005367 0.103919946 -0.033538457 0.18593152 0.3250121 -0.24740028 0.17872937 -0.29568666 0.6439378 0.0494411 -0.18057209 0.08405337 -0.13057664 0.10807301 -0.28657356 -0.13850647 0.22768928 0.0012643684 0.25939834 -0.115559794 -0.0557303 -0.12128456 -0.12904489 -0.25137028 0.13716866 -0.17541768
14 -0.039183676 0.11001634 -0.060584515 -0.17465885 0.31260344 0.13748385 0.18056954 -0.010057202 0.24445333 -0.46842706 -0.14938246 -0.18324898 0.48211282 -0.29545903 0.33868363 -0.07878745 0.07498831 0.18160489 0.13938554 0.42791843 0.19242407 -0.40136814 0.051403817 0.09082263 -0.3355674 -0.15432665 -0.68313205 0.01986067 -0.15132089 0.29559234 -0.0021218902 -0.089602545 -0.11563208 0.049109265 0.24698213 -0.22515748 0.5679424 -0.0117850965 -0.068992905 -0.19359818 0.046757173 0.025074912 -0.0946698 0.12740779 0.18976437 -0.36519328 -0.09737146 0.3862844 -0.056276884 0.2434553 -0.31690103 0.051564943 0.38910455 0.071871795 0.51493394 -0.0545206 0.14144102 -0.2160492 0.48459977 0.34242505 -0.2135282 -0.5461267 0.007422055 -0.38646877
63 0.011577173 0.3085697 -0.034680538 0.020296246 -0.11548976 -0.07043984 -0.06598466 -0.7871709 0.07935726 -0.17209536 -0.29083335 -0.09662446 0.00816264 -0.2811742 0.28705108 0.10534339 0.3106623 0.10463091 -0.092886835 -0.3014052 0.008998364 0.3614694 -0.22456916 0.46714032 0.45695564 0.06150029 0.0042743594 0.18013924 -0.22004317 -0.008298527 -0.1637915 -0.16800642 -0.25835928 -0.17848304 0.09719317 -0.32409385 0.1318153 0.3615893 0.39067715 -0.018581422 -0.012623857 -0.21454857 0.31412 -0.071343936 0.3559796 -0.08190491 0.38380116 0.12498917 -0.26822376 0.120810986 -0.29802802 -0.21077426 -0.17026146 0.3063993 0.20012519 0.15640476 0.22127257 -0.044141512 -0.10774197 0.24858251 -0.0105280345 -0.32782772 0.29704103 0.099753544
26 0.020374555 0.14234884 0.08340576 -0.31268314 0.30212957 -0.0564785 0.22133069 -0.22419979 -0.16218472 -0.43329787 -0.078121215 -0.15139468 0.3926709 -0.20193237 0.3326344 0.034460075 0.24146825 0.2986233 0.0879286 0.1395074 0.3547493 -0.2339713 0.31166998 0.39604267 -0.110396005 -0.045635276 -0.54928684 0.25511 0.03054799 0.09659558 -0.26609075 0.1839498 -0.29784963 -0.084954195 0.24432805 -0.29593533 0.5524729 0.11176184 0.2655334 0.13599978 -0.008756815 0.18602714 -0.010065695 0.10640572 0.61607105 -0.29971895 0.079837136 0.13235345 0.0077672615 -0.016834682 -0.28310013 -0.0800203 0.23028176 -0.039080154 0.55532455 -0.013012095 0.033380218 -0.045769937 0.14262062 0.40619797 0.14489226 -0.45775276 0.015523895 -0.4749097
96 0.07966921 0.19470118 -0.11707798 0.025065228 -0.1531819 -0.6544034 0.35309312 -0.415683 -0.09894117 -0.057545558 0.17924932 0.11961617 -0.027924916 -0.28072163 -0.0025562458 0.045746136 0.09708594 -0.009702 -0.026047569 -0.24039218 -0.064478755 -0.15405528 0.040219136 0.5635645 0.1388204 -0.035968103 0.05049878 -0.24708708 0.2640829 0.7669249 -0.0943209 -0.09194273 0.14462435 -0.3672874 0.0074292514 -0.2599866 0.081983104 0.40416092 0.52599484 -0.19083102 -0.3323207 0.30351374 0.33830634 -0.21913198 0.090511166 -0.13251917 0.22819655 0.24107133 -0.30342102 -0.08150237 -0.42714438 -0.24368224 -0.11896194 0.38531017 0.13233227 -0.08830725 0.042019576 0.27428576 -0.05893269 0.2540526 -0.13633464 -0.32613268 -0.42563775 -0.26319987
75 0.08161506 0.14159714 -0.22517325 0.45522347 -0.039433442 -0.3939649 0.23275769 -0.36087286 -0.03553243 -0.17023662 -0.17228387 0.121358976 0.05711063 -0.042275544 0.049435448 -0.12015301 0.13861716 -0.23381805 -0.16692358 -0.34672976 0.20921029 -0.0054694414 0.2502294 0.3186051 0.036815647 0.03258677 0.5212739 -0.009630359 0.19162354 0.7763442 0.111770295 -0.20939004 0.06831627 -0.19481255 0.08675653 0.065972656 -0.32033455 0.5546608 0.51964504 0.17422906 -0.06459375 0.25349873 0.2495627 -0.2941375 0.16825257 -0.2879745 0.5579817 0.016893838 -0.109983124 -0.13626905 -0.22405526 0.082686 -0.35186315 -0.10892227 0.21870255 -0.1512017 0.12791014 -0.022705331 -0.14533417 0.03320577 -0.16559477 -0.22220433 -0.19486682 -0.13895942
99 -0.14459921 0.08398347 -0.11094808 -0.07481224 0.31934333 0.18248121 0.2520354 -0.019100413 0.29939294 -0.29405224 -0.35176924 0.02032286 0.41539985 -0.29339787 0.21825522 -0.028076865 0.43329364 0.063594125 0.188483 0.24217783 0.18988171 -0.16114809 0.036396187 0.11995036 -0.40437904 -0.12385827 -0.5341112 -0.14157702 -0.21916467 0.13844474 -0.044397566 -0.19902663 -0.2820674 -0.09661287 0.15631029 -0.18654427 0.6160684 -0.18678798 -0.026304988 0.07999417 0.090172745 0.001116453 -0.09514643 0.0074747186 0.011018062 -0.56107855 -0.05671399 0.273424 -0.0666261 -0.09073324 -0.19803543 -0.119218126 0.37958 -0.10799311 0.47437388 0.026776914 0.18957643 -0.3451279 0.39304835 0.3381515 -0.14409617 -0.57475626 0.08284582 -0.40807992
90 -0.13140625 -0.2649254 -0.054338183 0.13826191 -0.022297384 -0.15280797 0.0052305316 -0.09044601 -0.16212255 -0.2667958 0.044467922 0.27221417 -0.04280073 0.347466 -0.085669816 0.016942754 -0.22057852 0.19581032 0.16676043 -0.5363456 0.25570244 -0.28975862 -0.28732613 -0.06696397 0.17425099 -0.036716387 -0.13722853 -0.05842684 -0.22014138 0.21175784 -0.20725061 0.1130478 -0.19505742 -0.3184456 -0.00050857477 -0.2542691 -0.15033069 0.32016057 -0.33555067 -0.14720914 0.13405526 0.45096835 0.49243638 0.70796794 0.36452514 -0.112984516 0.23543973 -0.028680531 -0.4230388 -0.2558829 0.013180476 -0.17688301 -0.042405464 -0.28484264 -0.089967296 -0.048810054 0.3492727 -0.27578712 0.5549212 -0.05871863 -0.18336138 0.14692767 -0.19194174 0.028720504
113 0.2228692 0.25606593 -0.20746574 -0.08340071 -0.04568508 -0.63590014 0.34779426 -0.32828027 -0.21361144 0.040988997 0.14311327 0.106099844 0.2651358 -0.18949763 -0.15760854 0.12387719 -0.12288534 0.03691154 0.21942747 -0.2813326 -0.24524109 -0.26186398 0.14639363 0.44513205 0.37079751 -0.2963575 -0.20213944 -0.24164583 0.21413578 0.6460174 -0.25547108 -0.15924978 0.033215597 -0.22811921 -0.103837304 -0.2530023 0.4090068 0.49914205 0.12938906 -0.07580818 -0.15048175 0.17195253 0.32975057 -0.01148362 0.27690393 0.22109994 0.1179637 0.27401873 -0.25549042 -0.07386652 -0.2898785 -0.30232692 -0.17152193 0.173632 0.021255305 -0.054529298 -0.03684987 0.17825216 0.21939729 0.40620902 -0.02985415 -0.16117883 -0.15979145 -0.03375341
50 0.055821262 -0.16028056 -0.09730467 0.43406308 0.30199584 -0.07176296 0.044354904 -0.082302354 -0.16029738 0.01817179 0.24955021 0.062379822 0.020872679 0.3152208 -0.2311078 -0.002703642 -0.06521687 -0.010803615 0.1256261 -0.53387994 0.03163528 -0.41618574 -0.32953513 -0.17227641 0.28486755 -0.20483838 -0.2699711 -0.036749892 -0.33729538 0.36403814 -0.08551803 0.054209568 -0.025435187 -0.14072432 -0.07173558 -0.105383046 0.21717145 0.6523493 -0.4465995 -0.23016466 0.4333113 0.13076526 0.55864674 0.35164785 0.3889238 -0.00782835 0.14015603 -0.117652304 -0.16960722 0.20567843 0.24321377 -0.36938593 0.07493036 -0.033630453 -0.06436041 -0.20016685 0.40587586 -0.4854003 0.65806603 -0.04634467 -0.26375604 0.25884724 -0.2692376 0.25420186
103 -0.10123495 0.0031529514 -0.15944229 0.02463444 0.092090204 0.13212849 -0.05868416 -0.45091558 0.1399168 -0.06396447 -0.66704893 0.37586915 0.24510187 0.0951138 -0.12784627 -0.05674702 0.3052093 -0.1910718 0.19654751 -0.23569518 -0.15491314 0.019234078 -0.45574456 0.039181672 -0.009975949 0.42947406 0.029065805 -0.36826482 -0.13177003 0.0073807905 -0.059069786 -0.6131632 -0.21043187 -0.44417834 -0.19888054 -0.1672617 0.033095397 0.18800332 0.029751094 0.4613418 -0.5542518 0.12838843 0.21355373 0.17629823 0.0074183624 -0.33610892 0.067750596 0.025126215 -0.32951567 -0.295699 -0.24172103 -0.40600207 -0.028301043 -0.15342134 -0.1472461 0.14349258 -0.051108297 -0.0026894286 0.029698601 0.5038624 -0.5883992 -0.25448832 -0.12203919 -0.24771972
28 -0.09683821 -0.19513556 0.011508172 0.02924481 0.13288029 -0.19944106 0.20087758 -0.04555864 -0.31999665 -0.27666953 0.13934952 0.20467433 -0.13172817 0.2480562 0.004305329 0.08523577 -0.27297834 0.2222694 -0.042039767 -0.68977684 0.044470247 -0.31821194 -0.3567234 -0.08481843 0.16014263 -0.2771509 -0.3051444 -0.089217864 -0.016313171 0.46138418 -0.10494017 0.049151093 -0.06359499 -0.30120224 0.23503624 -0.18952575 0.07297691 0.45229793 -0.27990237 -0.24241093 0.19290064 0.2960772 0.34687448 0.5968757 0.34547535 0.1205715 0.0077446983 0.13817862 -0.37846747 0.02670224 0.07238355 -0.1446794 0.24877295 -0.09266109 0.055315435 -0.24791457 0.25770327 -0.17646524 0.70194036 0.08596289 -0.1980423 0.02803884 -0.39088818 -0.06229675
85 -0.018365245 0.18196929 0.1195913 -0.20490636 0.32092142 0.15547797 0.34043646 -0.18827353 0.1538044 -0.5441228 -0.17800047 -0.097694464 0.12587492 -0.09373453 0.4096019 0.06907024 0.22177385 0.20147347 -0.16338436 0.11908377 0.17313984 -0.29167238 -0.06935571 0.12908192 -0.34003603 -0.024370002 -0.39943057 -0.038879607 0.027060697 0.23577549 -0.029127661 0.0041600503 -0.1543695 -0.18268149 0.307967 -0.29057947 0.41341677 -0.04334325 -0.018641055 0.08575353 0.09405542 -0.029677754 -0.1460852 0.0221941 0.45869824 -0.361136 -0.17511891 0.18269517 0.039751768 0.25868744 -0.09936335 -0.108415835 0.48956978 0.12708086 0.54092574 -0.311879 0.1135908 -0.05094663 0.42568398 0.27301213 -0.15630668 -0.25693128 -0.1316669 -0.5589357
36 0.23151161 0.4441481 0.32114178 -0.070402645 0.20785047 0.058291152 0.35511658 -0.5049722 0.028359253 -0.22059755 -0.10266173 -0.18572813 0.13206221 -0.2789833 0.16353542 0.13844791 0.494034 0.14068484 0.07793309 -0.030153321 -0.15384851 0.049620695 0.100637525 0.51485646 0.15127914 -0.23537774 -0.2816149 0.005423493 0.0050823065 0.115806475 -0.30715543 -0.1948281 -0.075423464 -0.23616768 0.021239055 -0.2561263 0.47302827 0.01734313 0.24770102 0.44412223 0.027571892 -0.22950362 0.010091725 -0.2541171 0.658499 -0.27005008 -0.21365248 0.19550228 0.12721613 0.2736257 -0.108517826 -0.40316576 -0.05634604 0.15876012 0.35035446 -0.1095165 0.18580154 0.0778158 0.04249786 0.36264846 -0.01906975 -0.24176742 0.092716105 -0.13360064
59 0.1743408 0.20156337 -0.050399553 0.052842736 -0.13952848 -0.2376297 0.17075083 -0.56922805 0.08228509 -0.15935439 -0.13902578 -0.023343168 0.10859674 -0.38739023 0.03455179 0.04453403 0.10388509 -0.0021114107 -0.005845357 -0.2191509 -0.26368994 0.13159746 0.025422437 0.5153826 0.49262312 -0.27154902 -0.060763124 0.11603454 0.103844695 0.27139455 -0.2313035 -0.24758402 -0.13235559 -0.099182755 0.027141457 -0.29738536 0.18437459 0.627707 0.27250314 -0.09676133 0.10315649 -0.13781881 0.12302235 -0.25310344 0.4401122 0.29127994 0.3003614 0.36780044 -0.26765102 0.2891028 -0.29315984 -0.1009314 -0.13635394 0.33512926 0.14505391 0.06571528 0.3813305 -0.1283236 -0.013865221 0.44586807 -0.02241003 -0.15998754 0.37282312 0.29153734
97 0.18299206 0.18064167 -0.07874125 0.30851114 -0.03857228 -0.2288725 0.06300307 -0.5682065 0.037240293 -0.34766892 -0.15654607 0.0070354217 -0.19116738 -0.0626884 0.118371785 -0.09187664 -0.066812195 0.00534381 -0.1097233 -0.3823902 0.095852435 0.1823368 0.20336254 0.3730398 0.40712973 -0.32287434 0.16403282 -0.01742984 -0.009521239 0.31362185 -0.095221 -0.052512117 -0.22954303 -0.118538395 -0.02870101 -0.31670424 -0.30137277 0.7267734 0.09621117 0.058848713 0.20579343 0.19720986 0.06237484 0.025425872 0.56215626 0.22180477 0.46802536 0.119641684 -0.23112035 0.11273104 -0.015235571 0.18632959 -0.27437162 -0.14433184 0.17226787 0.057877585 0.3876606 -0.35045117 0.17923127 0.17728017 0.046514858 -0.065850906 0.48687875 0.36415666
42 0.10168792 0.21935304 0.042311642 -0.113985814 0.435457 0.01498246 0.31750602 -0.57837975 -0.070528515 -0.39641932 -0.2925393 -0.2694159 -0.028359136 -0.009136705 0.39318687 0.074107505 0.53300214 0.3402942 -0.30280146 0.018752933 0.34447977 0.01877319 0.34999698 0.29072818 -0.09789172 0.06640969 -0.24086253 0.04870242 -0.0978614 0.09845184 -0.11421324 -0.043403506 -0.30337116 -0.20220017 0.37564272 -0.20357443 0.1182912 0.2851067 0.40059784 0.1345671 -0.04950202 0.22713374 -0.04916886 0.058189273 0.5405125 -0.5442616 0.109603144 0.022241632 0.112379625 0.39794827 -0.12124228 -0.009595394 0.32805786 0.07815133 0.50673014 -0.22052349 0.2200787 -0.43107322 0.07995842 0.17617735 0.11497462 -0.30434614 0.22165167 -0.32164782
