115 10
6 -0.12660491 -0.4355286 0.37065604 0.19614953 0.16476108 -0.09557395 0.27598143 0.09755127 0.00053110905 -0.032599922
7 -0.13789645 -0.4130749 0.3660633 0.17726113 0.1627104 -0.22978938 0.33215916 0.19010872 -0.098377585 -0.040287558
20 -0.31523684 -0.43599454 0.37642127 0.14677559 0.09476853 -0.050352164 0.36957586 0.22836716 -0.09084613 -0.004205527
73 -0.33991918 -0.41064888 0.2673852 0.15855685 0.21184313 -0.13713582 0.40571478 0.040937643 -0.083011955 0.04318135
40 -0.07993236 -0.44889984 0.22117509 0.24773194 0.07397069 -0.16717766 0.27861187 0.07238812 -0.09107303 -0.0066898526
98 -0.0946388 -0.455377 0.32070023 0.25501615 0.11021385 -0.14204864 0.23797572 0.15126924 -0.05787682 -0.050351232
3 -0.11302818 -0.48220378 0.34371123 0.309839 0.09177364 -0.095703535 0.23750983 0.16548738 -0.025684446 -0.06776702
38 -0.22224976 -0.56830335 0.44099936 0.39514723 0.22105037 -0.024116136 0.38829517 -0.0052135997 -0.05286695 -0.0062798695
32 -0.20412225 -0.48602325 0.3147506 0.15010418 0.15186708 -0.05223024 0.36268014 0.09329519 -0.016983587 0.0022305204
14 -0.18106583 -0.43903187 0.37527636 0.27089164 0.24237655 -0.04338415 0.30458668 -0.0043978137 -0.06441901 0.026477948
113 -0.29702246 -0.3886066 0.34100938 0.16150136 0.066601604 -0.12059201 0.23109312 0.22389889 -0.0415397 -0.032895263
48 -0.19966063 -0.61183167 0.53083605 0.305981 0.1600784 -0.09326378 0.40978128 0.0869944 -0.040840037 -0.05327058
35 -0.31884047 -0.63256115 0.45339265 0.2603124 0.3102479 0.010983222 0.5248248 0.15203296 -0.05768727 -0.03377494
76 -0.21343264 -0.38597593 0.41525337 0.16749008 0.08555604 -0.049374904 0.23022455 0.16494858 0.0068358374 -0.0652891
30 -0.27855256 -0.577734 0.38935003 0.23766151 0.2508649 0.017404698 0.37698182 0.1784612 -8.794805e-05 -0.0021720545
39 -0.1504277 -0.39031482 0.29541722 0.20381363 0.18258077 -0.060364183 0.18421224 0.0116243055 -0.02569395 -0.019697681
2 -0.10349581 -0.48600683 0.30550817 0.2630244 0.12407925 -0.07304065 0.17093137 0.10516508 -0.020195663 -0.0034447035
70 -0.27539182 -0.35336453 0.33248177 0.16735871 0.08877594 -0.0787954 0.22142273 0.16646673 -0.068861775 -0.07453184
77 -0.091102235 -0.41412646 0.362825 0.19198497 0.12240801 -0.2163044 0.29747498 0.14291821 -0.16079587 -0.09413291
53 -0.3418983 -0.55497825 0.4146602 0.25092545 0.21679632 -0.082130596 0.40634584 0.056257274 -0.12508424 -0.020274438
79 -0.24266507 -0.529326 0.35171315 0.19674377 0.2468896 0.03254615 0.40638286 0.17487906 -0.03236802 0.00984593
31 -0.11932721 -0.47833866 0.27211714 0.21616776 0.2156317 -0.046517663 0.29385087 0.0449628 -0.01213953 0.0062457398
100 -0.03151341 -0.38085455 0.21976046 0.07807201 0.15860865 -0.051800497 0.20736505 0.061055902 0.033742372 -0.027119655
75 -0.13917114 -0.45739985 0.44218603 0.261211 0.06798593 -0.028115472 0.27757755 0.09144657 -0.08323193 0.061217476
87 -0.20394364 -0.40572694 0.37119728 0.14680974 0.07774973 -0.15343702 0.16356727 0.21346453 -0.104901575 -0.115939096
80 -0.25801557 -0.5010487 0.41448668 0.26054907 0.2532958 -0.02399553 0.39614874 0.19351925 0.004526631 -0.06784663
67 -0.2276651 -0.46618 0.34302744 0.21838325 0.15599075 -0.15038683 0.35297644 0.07393184 -0.06270497 0.039762255
45 -0.37313062 -0.36441737 0.3975326 0.1674076 0.09433378 -0.14860055 0.265014 0.29905298 -0.002022468 -0.0024231097
21 -0.07756885 -0.36263373 0.39650387 0.19844411 0.05303982 -0.15901686 0.23469505 0.13750716 -0.120569035 -0.08306277
88 -0.30340526 -0.40930712 0.25310874 0.27070996 0.15315868 -0.050767973 0.3399566 0.031226061 -0.074336365 0.035149675
33 -0.452798 -0.39681536 0.45346555 0.24070431 0.17600754 -0.15177211 0.3078959 0.33492312 -0.03564229 -0.07415624
101 -0.2564314 -0.62084025 0.43202028 0.2748747 0.28167212 -0.023013141 0.5257087 0.2340609 0.033156376 -0.004890278
94 -0.23811695 -0.55014515 0.421419 0.25036582 0.3064726 -0.026781725 0.47641057 0.18206544 -0.048104737 -0.019649908
9 -0.23563972 -0.4227751 0.36193228 0.27285 0.045330632 -0.2608396 0.17703833 0.17980509 -0.14354129 -0.034680095
4 -0.23035328 -0.42301476 0.43297553 0.31077492 0.066380754 -0.28257143 0.15627827 0.26233277 -0.120654285 -0.047366817
5 -0.13715982 -0.37831223 0.26891527 0.30555388 0.109965675 -0.15405945 0.2168706 0.21139018 -0.025166295 -0.06470825
12 -0.1460701 -0.3480695 0.25592637 0.24511221 0.10721107 -0.032151543 0.16091219 0.019938402 -0.040670376 -0.031701326
65 -0.18656929 -0.3714309 0.3840988 0.1201663 0.11782146 -0.039578106 0.2045981 0.15494001 0.016202899 -0.017986989
62 -0.32143512 -0.43033925 0.38028133 0.14292482 0.17267774 -0.019765325 0.26832828 0.20614143 -0.05145984 0.024763174
49 -0.24287237 -0.46094406 0.32387498 0.23830844 0.17808042 -0.124850824 0.28086054 0.016440576 -0.03216193 -0.016319456
16 -0.2430533 -0.40186974 0.3221859 0.2369993 0.12843595 -0.102113895 0.17541488 0.13754147 -0.100226685 0.0066100676
74 -0.08206755 -0.43513674 0.1929843 0.230236 0.031966925 -0.1034658 0.18679282 0.079268605 0.041904032 -0.028484313
1 -0.3526905 -0.42226312 0.44207594 0.22570233 0.15897913 -0.106445454 0.3289832 0.18142045 0.022308722 -0.037534736
63 -0.15575081 -0.40396738 0.40702993 0.24925561 0.10100503 -0.14046308 0.22468674 0.066955686 -0.062286824 -0.075504676
106 -0.1025196 -0.42538676 0.41153112 0.16859889 0.09402048 -0.09996044 0.18016092 0.08892833 -0.047328327 -0.07640272
61 -0.18902072 -0.45130897 0.38888308 0.2036984 0.15325643 -0.040473137 0.37384188 0.08391663 -0.05144318 0.044994116
110 -0.28057852 -0.48882744 0.36386812 0.27490768 0.19450566 -0.03429971 0.4383732 0.040425032 -0.11605024 0.0464526
69 -0.21905302 -0.4147275 0.4143735 0.27641508 0.09413378 -0.092363685 0.2754507 0.12943146 -0.1247386 -0.07949571
17 -0.26814872 -0.3792035 0.34995574 0.15932523 0.10795083 -0.052257188 0.24184948 0.16836382 -0.07821502 -0.06449894
102 -0.052338995 -0.33076808 0.23327906 0.13755089 0.07287963 -0.1058066 0.19554459 0.14633673 0.004987684 -0.04499307
109 -0.39065287 -0.32368454 0.35974714 0.1265373 0.16126382 -0.04776273 0.27512997 0.27443933 0.061917856 -0.039740406
66 -0.14869303 -0.42326567 0.4938366 0.18354438 0.0586565 -0.05295909 0.31027138 0.15910089 -0.10498381 0.012251625
46 -0.35649812 -0.5225603 0.34795243 0.23632514 0.21726139 -0.093132235 0.44016185 0.099801235 -0.057541456 -0.029801715
83 -0.29257846 -0.48505053 0.34199244 0.24005829 0.16580987 -0.06123434 0.44154322 0.09252471 -0.1241493 0.08344953
107 -0.1377009 -0.40607014 0.22725552 0.18360814 0.05606239 -0.04627076 0.23988475 0.0813443 -0.009489521 0.048291873
72 -0.11256491 -0.43660468 0.2553489 0.21100843 0.12069655 -0.05999596 0.2509971 0.09539578 -0.0077151232 -0.036848176
54 -0.16769752 -0.43044186 0.25781584 0.18479325 0.2772209 -0.025780864 0.31485936 -0.0028800482 -0.012165275 -0.039067473
85 -0.12809443 -0.42225438 0.27350363 0.17746149 0.22294408 -0.03840267 0.1743175 0.012400543 -0.0062153237 -0.051698796
34 -0.21637498 -0.47947988 0.37324792 0.2831778 0.20040978 -0.01736712 0.40152073 0.047207024 -0.062672004 -0.033712443
68 -0.19134215 -0.42289695 0.4291284 0.15984868 0.08792571 -0.22412701 0.29781812 0.1945672 -0.13113552 -0.05255997
55 -0.22865272 -0.4347984 0.2959217 0.2028097 0.18294847 0.0040534446 0.37692517 0.08817304 -0.025157586 -0.080887094
82 -0.1944074 -0.41296256 0.32056358 0.15223674 0.19905795 -0.063049056 0.2905093 0.14845745 -0.008953968 -0.08292329
64 -0.17315713 -0.3533958 0.3317452 0.09585475 0.122681 -0.06865103 0.18374406 0.15760677 0.041520458 -0.05877863
15 -0.21795048 -0.50083095 0.33289966 0.17896119 0.16698994 -0.111887015 0.28126213 0.08261075 0.00664477 -0.06464437
44 -0.24804169 -0.5006266 0.45553213 0.24766056 0.19713415 -0.032991204 0.35902816 0.14437579 -0.048902262 -0.068193376
92 -0.18643653 -0.58161145 0.53942055 0.29233897 0.14589928 -0.07398091 0.36745107 0.08151007 -0.054205555 0.03691946
8 -0.1541479 -0.4435122 0.42026702 0.21918193 0.043095592 -0.22809124 0.23084646 0.15007663 -0.14963654 -0.12433005
112 -0.10966732 -0.4312442 0.38924944 0.25559255 0.03991495 -0.059621945 0.30946684 0.09202172 -0.04025495 0.025629776
50 -0.24007767 -0.47357 0.40549162 0.30300167 0.17286795 -0.14751628 0.28304464 0.09808395 -0.17490211 -0.06957891
81 -0.14214897 -0.43193197 0.25227198 0.20474042 0.10926486 -0.14757621 0.23479366 0.13671222 0.009836707 -0.0324694
29 -0.34845868 -0.5014178 0.35951817 0.12923211 0.26076537 0.05385996 0.49920574 0.15915029 0.06871285 -0.06739479
51 -0.20589498 -0.42901093 0.41362932 0.1562924 0.062393352 -0.19339015 0.3054845 0.14521654 -0.13615377 -0.060279336
27 -0.24182945 -0.33128208 0.4175066 0.19648114 0.082339115 -0.10385147 0.25586426 0.16060561 0.015161953 -0.07874318
71 -0.19794701 -0.39820778 0.25283885 0.23076434 0.212215 -0.0394588 0.22798294 -0.02378813 -0.009613547 -0.016871313
18 -0.15955493 -0.34553778 0.27823886 0.18464155 0.23284647 -0.06365198 0.30565313 0.052060485 -0.049489032 0.023903258
78 -0.16073675 -0.43371457 0.43507048 0.18738754 0.1405869 -0.21765527 0.25443766 0.16001713 -0.18152606 -0.10130714
41 -0.2138547 -0.42555514 0.28122264 0.28784236 0.06669268 -0.2621013 0.21816264 0.14709854 -0.096847996 -0.07909577
52 -0.08743064 -0.40347505 0.1975493 0.22117628 0.09662361 -0.12939727 0.2115716 0.0776307 -0.05624001 0.016032713
114 -0.33244458 -0.4086391 0.30245838 0.20425422 0.15526436 -0.1370561 0.4236563 0.03541867 -0.021837365 0.009424968
28 -0.11523018 -0.35469878 0.38379693 0.2591914 0.070061296 -0.13081506 0.18174237 0.096988365 -0.1327271 -0.0055725384
57 -0.13794556 -0.48831815 0.48682645 0.2518412 0.080959454 -0.028749831 0.26836637 0.13013445 0.020676423 -0.007670522
13 -0.1269506 -0.38993764 0.2936353 0.17172186 0.14077616 -0.05061488 0.17669982 0.12317731 0.008900759 0.015227789
26 -0.14016742 -0.39876315 0.35555297 0.19278839 0.18085752 -0.06686767 0.2713627 -0.0057828776 0.015727354 -0.06423682
23 -0.2635519 -0.43160814 0.4148934 0.37006447 0.04503945 -0.19434062 0.22755761 0.25663453 -0.16945404 -0.120895386
43 -0.1995523 -0.3824235 0.24930401 0.17223194 0.2026217 0.01502748 0.30111828 0.09603122 -0.0026451612 -0.06582998
86 -0.08117923 -0.46222585 0.37577322 0.21459135 0.15297137 -0.049762182 0.33986682 0.11653819 -0.0337508 0.0168305
59 -0.06741729 -0.2490451 0.25156265 0.13941996 0.05042374 -0.08580824 0.08224646 0.1242325 -0.06429086 -0.07932504
108 -0.19845352 -0.4920339 0.40732378 0.23694764 0.11733374 -0.19269533 0.3362148 0.22585742 -0.096341394 0.02055854
24 -0.33150223 -0.53190815 0.4221504 0.3451885 0.13719885 -0.08925899 0.2932994 0.14934239 -0.032778636 -0.087427765
47 -0.14745104 -0.45184487 0.31144407 0.1490119 0.17270719 -0.10929042 0.28573108 0.054233555 -0.05524069 -0.00082827895
0 -0.28040177 -0.42520073 0.3621297 0.29820186 0.044564243 -0.21734554 0.27801785 0.17611948 -0.058956936 -0.07362295
91 -0.12609437 -0.49255204 0.4534916 0.21647677 0.15167457 -0.07509205 0.259824 0.095186345 -0.074072614 0.005660837
60 -0.13225727 -0.38837484 0.22767879 0.10265852 0.16634779 -0.043969605 0.23160443 0.083489716 0.0032004907 -0.052776832
58 -0.1998984 -0.37637362 0.27450693 0.24631679 0.11608777 -0.14572124 0.19060266 0.13190909 -0.041593064 0.0059632966
97 -0.089960136 -0.38745698 0.301079 0.22736812 0.056731656 -0.053830195 0.17379473 0.0995971 -0.034202926 0.021844078
25 -0.34195316 -0.38421422 0.4906884 0.2625153 0.13748604 -0.13326767 0.22705626 0.25869387 0.00019049611 -0.09187509
96 -0.1420948 -0.28773966 0.3016719 0.042884275 0.062413957 -0.048015367 0.2242852 0.14744414 -0.011280017 0.006586725
11 -0.12617122 -0.4840613 0.41899803 0.2946694 0.054745503 -0.19699712 0.21271144 0.13035783 -0.10589178 -0.04306233
90 -0.18727773 -0.4455699 0.4657182 0.33802736 0.10226101 -0.10450574 0.2168123 0.12926865 -0.0887093 -0.064713866
19 -0.2001974 -0.45377102 0.34391272 0.16373624 0.2238377 0.02457123 0.40840098 0.16718403 0.019744439 0.05223462
93 -0.268722 -0.40417334 0.30703276 0.32197753 0.091701515 -0.1357856 0.24650182 0.21871744 -0.10290048 -0.017665131
104 -0.22544602 -0.44099325 0.36556208 0.29558662 0.0963884 -0.18093391 0.26020896 0.122959286 -0.091391996 -0.027057521
10 -0.15484628 -0.4188336 0.18061914 0.25404158 0.05268415 -0.14021537 0.21310863 0.14180066 -0.03927136 -0.0010657972
103 -0.37078884 -0.39741156 0.3892249 0.1512751 0.09924883 -0.07065744 0.23091213 0.23022193 -0.023216669 -0.05309137
111 -0.16157489 -0.33709386 0.36942628 0.2140369 0.12394208 -0.13784112 0.2178558 0.14009412 -0.09721517 0.00026617915
84 -0.12544511 -0.45006207 0.22313918 0.23659976 0.06530011 -0.094149604 0.23181565 0.17832425 0.0166506 -0.052281596
56 -0.29980594 -0.3855867 0.41730878 0.09780541 0.10321223 -0.08969609 0.30547714 0.15796985 -0.017627483 -0.050208632
105 -0.34931123 -0.39109477 0.41586286 0.22210842 0.16871236 -0.06413526 0.21871139 0.30694535 0.06364962 -0.07077733
89 -0.38359186 -0.40103987 0.36318195 0.17562619 0.12162102 -0.15180178 0.28423154 0.22933146 -0.056275606 -0.017407052
99 -0.16145226 -0.38141116 0.2718988 0.22142202 0.20216833 -0.017206289 0.26930523 -0.005587396 -0.0755144 -0.03807919
22 -0.18810254 -0.3879616 0.2924343 0.14343765 0.037728205 -0.1208274 0.16670151 0.09805541 -0.09777639 -0.057783503
37 -0.35321864 -0.37374136 0.35121468 0.11313448 0.19941 -0.08047227 0.2853801 0.22796316 0.020055268 -0.023994008
36 -0.19395915 -0.3440621 0.29761153 0.24435371 0.1179698 -0.040519074 0.13638203 0.10860688 -0.06526035 -0.00031497495
95 -0.2467067 -0.41435608 0.3628512 0.12807615 0.13798071 -0.08757486 0.24462111 0.1855149 -0.046443436 -0.035198417
42 -0.13848694 -0.45296872 0.44051528 0.26888314 0.11339603 -0.060348906 0.29117092 0.058706317 -0.015228239 0.026511084
