115 20
66 0.6215367 -0.095862105 0.0060415426 -0.71298736 0.6731032 -0.22721672 -0.16650942 0.093105026 -0.4322527 -0.114259265 -0.08652702 0.37539077 -0.48399332 -0.65970415 -0.5193013 -0.637013 -0.52822554 -0.20850039 -0.52475315 -0.18605097
112 0.4943913 -0.07053304 -0.04139054 -0.39762923 0.5186497 -0.2408493 -0.120718114 0.29746032 -0.3975048 0.09317411 0.04888829 0.49359775 -0.39596304 -0.5326496 -0.47793502 -0.61635965 -0.46765766 0.008905374 -0.42867744 -0.43104637
92 0.5183271 -0.0489236 -0.13472207 -0.4425575 0.43971196 -0.13927464 -0.18043886 0.11653293 -0.4020086 0.13879618 -0.026545605 0.28015098 -0.3570885 -0.5937991 -0.32154235 -0.3500147 -0.47605518 0.36706027 -0.66609526 -0.42282358
3 0.14391817 -0.08170385 -0.6120664 1.0689943 0.25314143 0.25914124 -0.310519 0.4319758 -0.3889145 0.02585784 -0.110826366 0.8263526 -0.69395757 -0.07899851 -0.4253355 -0.2982935 -0.2754978 0.15919052 -0.1284843 -0.92709047
38 0.6589324 0.32130656 -1.2912707 0.06337724 0.332837 0.765181 -0.42134818 -0.122358315 -0.6230243 -0.10575145 -0.5493608 -0.32003257 -0.04323458 -0.21255334 0.015954357 0.56605697 -0.33865866 0.54387814 -0.7883324 -0.16815592
74 0.13281699 -0.100206695 -0.6421753 1.0820223 0.17621282 0.27832654 -0.2195614 0.42992806 -0.2360164 0.04724396 -0.0039867596 0.76543623 -0.6062095 -0.121538445 -0.3433114 -0.2754174 -0.10571954 0.22927232 -0.0917861 -1.1664623
51 0.6646565 -0.0484251 -1.348194 0.41762125 0.66558737 -0.07612633 -0.29634595 -0.3645506 0.29594073 -0.24767649 -0.07608836 0.36869106 -0.36351293 -0.16087571 -0.743069 0.43355808 0.604274 -0.85303587 0.56658316 -0.8631433
1 0.68445927 0.41982275 0.452185 -0.7888795 0.14900574 0.435364 -0.04317856 0.53977376 0.25806633 -0.0252697 0.35280302 0.30780455 -0.35699406 -0.7295377 -0.14951569 -0.6801328 0.13018186 -0.076265246 -1.3416971 -0.8534611
104 0.6891588 -0.31549996 -0.41103995 -0.14581455 0.6289294 0.018122958 -0.45570287 0.71506524 0.22363694 -0.3206348 0.09415641 -0.34266266 -0.1014321 0.1279688 -0.20415036 -0.42241627 0.2783898 -0.38625398 0.19681408 -0.92771655
84 0.118799716 -0.3948555 -0.4819074 1.0398405 0.47054145 0.15477988 -0.26507035 0.557904 -0.23067753 -0.19283889 -0.109676324 0.63633287 -0.6902773 -0.09759292 -0.3392596 -0.65610915 -0.23178242 0.096471496 0.023596976 -1.1709824
82 0.48511696 0.28840914 -0.50027084 0.42156217 0.21598572 0.13601118 -0.43044144 0.14915653 0.23002543 0.2435385 -0.0002114191 0.46626234 -0.791649 -0.2370655 -0.4098726 0.16840729 0.2246036 -0.16098592 0.014151975 -0.5195025
57 0.6559028 0.039624438 0.15257919 -0.81610686 0.57317954 -0.23825389 -0.08292256 0.10367781 -0.42524686 0.07734024 -0.035559494 0.52059346 -0.39891896 -0.8560413 -0.6280082 -0.63506854 -0.46306217 -0.041586477 -0.72645545 -0.27303573
80 0.6483069 0.41024503 -0.032743666 -0.18724827 0.29555035 0.2047016 -0.25079075 0.3063635 0.24325772 0.08221848 0.08168605 0.2501856 -0.6202637 -0.45497954 -0.11071172 -0.1870228 0.17276463 -0.02258555 -0.6084821 -0.41045123
58 0.20588477 -0.055388626 -0.65891135 -0.11412807 0.32639074 -0.07565034 -0.11403309 0.4487277 -0.24948688 0.22351108 0.14626442 0.08860715 -0.1748064 -0.15735918 -0.13179137 -0.27799493 -0.3411917 0.3661482 -0.5610197 -0.5777313
16 0.7167777 -0.17191839 -0.54984564 -0.06582315 0.5367025 0.13470683 -0.49106494 0.75115156 0.11555316 -0.31245705 0.12977399 -0.38573492 0.006168564 0.22748794 -0.17220217 -0.17799366 0.3073156 -0.30688217 0.16174841 -0.7764579
73 0.20831393 -0.43035036 -0.9253976 0.51958066 0.51284033 -0.10873879 0.22404689 0.25355488 0.21954536 -0.22180936 0.023013469 0.1731396 -0.03720884 -0.076809876 -0.0373696 -0.43397325 0.22011961 0.16467555 0.18607344 -1.5600661
45 0.59536576 0.4270391 0.3906453 -0.906431 0.12866582 0.39049992 0.007685927 0.45472795 0.20108685 -0.0016688793 0.36707708 0.2558288 -0.32599762 -0.72994405 -0.119540885 -0.6886466 0.058414973 -0.056371998 -1.3884082 -0.8927835
49 0.24163775 -0.47067717 -0.6592144 0.29353034 0.5534469 -0.18427414 0.31865656 0.26625264 0.116666354 -0.16471766 -0.030477842 0.19496925 0.055865705 -0.27215993 -0.010260128 -0.6235459 0.066307165 0.32142988 0.04656609 -1.4835844
2 0.018059792 -0.21736844 -0.9257053 0.46948802 0.10494137 0.30228332 -0.29261026 0.105606385 -0.4032519 0.24981421 0.015068974 0.15274957 -0.2862975 -0.25947964 -0.21520755 0.26294333 -0.38846618 1.0416133 -0.8539775 -0.98667455
0 0.81490326 0.05481791 -0.1257423 -0.21453401 0.5276717 0.18949144 -0.5658817 0.58341825 0.34878832 -0.34597448 0.17225558 -0.15612638 -0.3220822 -0.0416451 -0.31909734 -0.17493333 0.49844137 -0.62413067 0.0062003294 -0.62441564
69 0.5878782 -0.6360962 -0.28459767 -0.2922438 1.0579193 0.014788856 -0.32720876 0.4216742 0.14921217 -0.95517033 -0.3044447 -0.4344073 -0.36718538 -0.10941825 -0.18482357 -0.6938214 -0.062482975 -0.6506763 0.08583182 -0.77351654
91 0.78301793 -0.03795709 0.03767235 -0.36268157 0.62540865 -0.13789064 -0.3706253 0.3750646 -0.005003169 -0.035677616 -0.14190029 0.21318628 -0.64406747 -0.49198252 -0.4276634 -0.45817068 -0.105774656 -0.2063388 -0.11394785 -0.26749808
30 0.82775337 0.56926954 -0.111874156 -0.20464417 0.3906321 0.4444283 -0.6274531 0.16090623 0.36087996 0.06445643 -0.00046720574 0.3262169 -1.105233 -0.51885426 -0.221108 0.06827509 0.20086098 -0.3424432 -0.6356626 -0.04260642
5 0.17204578 -0.3730993 -0.37798297 1.057879 0.42530778 0.25246578 -0.41859666 0.60571057 -0.28619924 -0.20747906 -0.11369379 0.6996735 -0.76941127 -0.09923841 -0.4417018 -0.52491856 -0.29171553 0.08118174 -0.016117614 -1.0215085
37 0.66872436 0.44235393 0.373162 -0.8829835 0.16723044 0.2936387 0.029743733 0.42440036 0.24944653 -0.039433356 0.32904476 0.19548371 -0.24321832 -0.6674434 -0.19386376 -0.58734655 0.15322882 -0.12780564 -1.2498564 -0.7812812
67 0.3551039 -0.52702147 -0.8567739 0.22325169 0.6465645 -0.07873595 0.17119424 0.45216024 0.37859288 -0.33393666 0.1564622 -0.12749614 0.18047707 0.0127017945 0.037627004 -0.45951036 0.3922029 0.119211376 0.15906331 -1.63838
8 0.8016962 -0.30412424 -1.5099269 0.12623407 0.8841358 -0.20829636 -0.30679452 -0.3085635 0.33792272 -0.44066724 -0.10070787 0.0008062602 -0.08382289 -0.12323257 -0.7738783 0.42779893 0.7147851 -0.89080864 0.79129577 -1.0012997
114 0.24783587 -0.46559763 -0.798786 0.14519823 0.5177776 -0.14343348 0.26931196 0.5756689 0.19112481 -0.093122154 0.15567736 -0.048277248 0.22194554 -0.041325253 0.20410568 -0.61222905 0.09135855 0.44246206 -0.13108647 -1.6134942
62 0.8889867 0.27767292 -0.27193195 -1.6757207 0.5338377 0.056637146 -0.19282307 0.25122687 -0.15881154 -0.10144727 0.21554878 -0.47910294 0.13347447 -0.43532687 -0.17711511 -0.5760361 -0.17389788 -0.34781575 -1.0927858 -0.5707413
93 0.88006175 -0.16002777 -0.4393621 0.024206635 0.6586923 0.08116261 -0.616313 0.63638955 0.3573483 -0.32476518 0.05743863 -0.17583491 -0.4114127 0.013211633 -0.36431497 -0.14083044 0.42531443 -0.5354019 0.3903036 -0.7032159
101 0.80670714 0.6471281 -0.35156402 -0.13664618 0.23166469 0.31476393 -0.4798463 0.11215809 0.43471745 0.25395352 0.1347863 0.33632845 -0.89170915 -0.3737406 -0.13124794 0.22832152 0.42154887 -0.28215888 -0.4536755 -0.12033095
40 0.21589415 0.10236321 -0.8867802 1.1418997 0.16016379 0.10349983 -0.33167952 0.26047286 -0.20158301 0.14277723 0.12297067 0.889238 -0.6102358 -0.010373371 -0.6767091 0.045068283 0.15143602 -0.10582747 0.20489438 -1.0307475
43 0.79943866 0.46679035 -1.1465812 -0.29208845 0.40348738 0.605937 -0.30200437 -0.2226727 -0.67809993 0.019516386 -0.5756919 -0.25264958 -0.17815238 -0.48245037 -0.10638714 0.4671813 -0.40479356 0.45755517 -1.0108376 0.056986414
70 0.92431164 0.2150991 -0.3335692 -1.4271957 0.62267363 0.06256613 -0.30193827 0.29768595 -0.22279304 -0.23320332 0.014926932 -0.5032993 0.026104152 -0.31090274 -0.23056662 -0.5080121 -0.19583517 -0.56095684 -0.742655 -0.3025504
76 0.7406705 0.080877796 -0.40272617 -1.5235077 0.62398034 -0.22432202 -0.18441218 0.15350422 -0.37809265 -0.13179122 0.21890552 -0.37064594 0.15392992 -0.41183466 -0.39603868 -0.5239931 -0.344434 -0.3880142 -0.89623386 -0.4282574
9 0.8083481 -0.14920993 -0.8759575 -0.020356232 0.6051657 0.09371273 -0.6175877 0.3734022 0.43259022 -0.28612027 0.14814088 -0.3358202 -0.09126891 0.11624798 -0.39621878 0.25995055 0.6493878 -0.46849233 0.4047691 -0.86544585
77 0.567726 -0.17469603 -1.3644993 0.43272614 0.70296216 -0.27107066 -0.011530723 -0.33837292 0.2805093 -0.133027 -0.0527974 0.46502584 -0.18940943 -0.2696825 -0.6787443 0.24603774 0.54510134 -0.5370477 0.6519889 -1.1684339
25 0.36483112 0.07533617 0.36813575 -0.5109973 0.1412703 0.34686866 0.18008864 0.46769685 0.26485655 -0.2270836 0.35706457 0.29145548 -0.18672056 -0.60670507 -0.0815449 -0.7648784 0.118560925 0.07588317 -1.1995187 -1.2173215
20 0.7646219 0.19118698 -0.70826256 -1.174313 0.62710154 -0.17209305 -0.20611876 -0.098282725 -0.20257 -0.10461486 0.055214234 -0.43600357 0.124892846 -0.30770397 -0.38405842 -0.11208768 -0.091987185 -0.514716 -0.49434707 -0.25530177
19 0.91016793 0.780719 -0.28364033 -0.34878123 0.30077517 0.4351051 -0.4542944 0.0056027053 0.26302254 0.22721894 0.0017530727 0.2661088 -0.92287034 -0.59411013 -0.11707169 0.18630512 0.24717334 -0.16983832 -0.72747165 -0.00886081
81 0.2652602 -0.16511403 -0.42375356 1.1007422 0.31677592 0.15644482 -0.3194802 0.6270778 -0.13822591 0.06922825 0.010763387 0.80477494 -0.6894545 -0.095893584 -0.43365198 -0.4196531 -0.031647854 0.17039001 0.0693113 -1.1966218
17 0.9186711 0.119506806 -0.7311702 -1.4512256 0.66316247 -0.09542503 -0.22820893 0.43256116 -0.14392991 -0.10172386 0.1750055 -0.7947948 0.39563128 -0.12707166 -0.070093155 -0.382356 -0.07050279 -0.32677314 -0.5719876 -0.5556808
7 0.62726545 -0.17619312 -1.4953549 0.19906825 0.6871905 -0.28082108 -0.08112316 -0.3548112 0.35394272 -0.18348227 0.041892964 0.26657614 -0.053112473 -0.22812839 -0.67022556 0.3786001 0.6890285 -0.6325174 0.60880196 -1.189692
78 0.7595909 -0.25378737 -1.3095143 0.07260204 0.9710586 -0.22582118 -0.19728218 -0.4498479 0.32996327 -0.52375 -0.18517148 0.17198046 -0.2632352 -0.2854625 -0.80711895 0.29410914 0.58210486 -0.9730771 0.5896127 -0.8805209
65 0.8397834 0.11535811 -0.4785772 -1.3735845 0.63430804 -0.11568133 -0.3465099 0.32702646 -0.22453263 -0.15712559 0.10671769 -0.564055 0.114928365 -0.17769596 -0.25842664 -0.42054006 -0.15677954 -0.4530429 -0.56858355 -0.37398657
29 0.9643939 0.6885887 -0.17852607 -0.07507964 0.33083335 0.4308407 -0.68411255 0.19353454 0.22185516 0.27611184 -0.09419836 0.30250874 -1.1311728 -0.49028853 -0.15946727 0.18691953 0.15254785 -0.08357248 -0.5266268 0.10163513
26 0.79689306 0.5194863 -1.1569667 -0.30911112 0.24665883 0.5839844 -0.17042555 -0.29086286 -0.7530625 0.1570569 -0.49988288 -0.06707989 0.042461235 -0.48200044 -0.09177509 0.42552972 -0.37246746 0.5143963 -1.0630879 -0.131312
83 0.3778284 -0.570886 -0.5290338 0.31441522 0.68421227 -0.120588705 0.019599851 0.6824114 0.33811945 -0.36904505 0.07557075 0.14038566 -0.17967077 -0.061575774 -0.0070723146 -0.8470519 0.17538632 -0.061754297 0.23372802 -1.5828036
44 0.83674103 0.30198538 0.2210291 -0.71084636 0.4410943 0.050760224 -0.32529125 0.30853778 -0.177281 0.123685665 0.019396046 0.3903544 -0.70027864 -0.6361173 -0.36295897 -0.53729635 -0.24503632 -0.17972936 -0.7461975 -0.13370426
11 0.3329148 -0.59071356 -0.09751575 0.43780085 0.781844 0.11635148 -0.49107626 0.5892613 0.011546383 -0.67748237 -0.31219295 0.13423954 -0.800148 -0.13891008 -0.39985144 -0.6222912 -0.26606023 -0.3879498 0.026485596 -0.64544505
50 0.46350232 -0.42119002 -0.4693738 0.25970143 0.89193887 0.11318813 -0.39786234 0.08789459 0.1478442 -0.7511967 -0.38008192 0.051037453 -0.6397875 -0.17621118 -0.39520386 -0.17115907 0.054875035 -0.6190953 0.16421367 -0.4305969
24 0.42027056 -0.6480831 -0.114063144 0.055156637 0.9114945 -0.011393292 -0.3015103 0.32153818 -0.019570397 -0.76987135 -0.34088123 0.098183624 -0.53796846 -0.25087932 -0.45481002 -0.6833966 -0.23782209 -0.5505123 0.09386306 -0.64445204
90 0.54924107 -0.5578005 -0.2993934 0.2174112 0.94798654 0.1588713 -0.5811161 0.52462685 0.2720633 -0.8431814 -0.22351103 -0.11029452 -0.63995725 -0.043938097 -0.31989834 -0.46557242 0.06942561 -0.6307723 0.20564376 -0.72596693
4 0.8687778 -0.13888259 -0.42756343 0.029829502 0.7052297 0.035632905 -0.7313429 0.8625962 0.44073415 -0.34613064 0.17084308 -0.28933275 -0.33663368 0.17330486 -0.37765273 -0.19654773 0.5097861 -0.61626405 0.38477015 -0.8292379
88 0.22293241 -0.2601935 -0.50212365 0.25813577 0.34810564 -0.01839752 0.18984714 0.48167145 0.18187316 -0.08791104 0.19496448 0.26333848 -0.10787746 -0.13063955 0.012762743 -0.62426203 0.14916253 0.21256973 -0.13878407 -1.4108164
113 0.8056825 0.13513072 -0.63304365 -1.5438653 0.7368839 -0.22450037 -0.27126974 0.13696182 -0.14673916 -0.22329326 0.17657089 -0.56752306 0.15197468 -0.27777869 -0.459885 -0.34454426 -0.12083658 -0.75993603 -0.62942755 -0.3633278
60 -0.07442197 -0.27661416 -0.99013263 0.4965046 0.17793028 0.3584249 -0.32615146 0.046910368 -0.40275174 0.2011225 0.0057251747 0.14525011 -0.30889103 -0.23890597 -0.2595441 0.34915787 -0.43117967 1.1035061 -0.8779642 -0.94626206
14 0.5627265 0.3949062 -1.2332157 0.100408554 0.21835533 0.68238455 -0.27895716 -0.15523726 -0.6103994 0.17656806 -0.4221244 -0.031603765 -0.20016786 -0.40081757 -0.041408367 0.5441067 -0.41362283 0.8164704 -1.0198051 -0.30418918
31 0.68262637 0.56096345 -1.1595339 0.03345292 0.16183527 0.68126434 -0.25460973 -0.3350428 -0.6468691 0.21396635 -0.43010956 0.0667053 -0.23997231 -0.5469846 -0.07284307 0.56119365 -0.3465143 0.6886649 -1.0557007 -0.23191711
35 0.9504825 0.65321356 -0.2495248 -0.42683673 0.36110035 0.34016284 -0.6463577 0.1489995 0.053103518 0.2731087 -0.02507167 0.23517388 -0.88930833 -0.5315862 -0.2763394 0.12617329 0.050285753 -0.22300966 -0.6223032 0.16827689
27 0.83949506 0.29927227 -0.4624207 -1.4939474 0.5404615 0.011691438 -0.22097713 0.2526642 -0.39558214 -0.06550252 0.071045645 -0.45845345 0.187862 -0.36616442 -0.24443296 -0.4007154 -0.30727956 -0.26973346 -0.94919914 -0.36896834
111 0.6122176 -0.15942359 -1.3650067 0.23632376 0.74339545 -0.2353103 -0.17737013 -0.3793476 0.25682786 -0.2192331 -0.06374355 0.23966746 -0.1665288 -0.22108279 -0.7772785 0.3779112 0.56855386 -0.6681898 0.59779495 -0.9841175
48 0.59071064 -0.11042806 -0.021374388 -0.5962629 0.581933 -0.30453372 -0.08682794 0.29149032 -0.48879007 0.0172516 0.021599216 0.32374346 -0.21924335 -0.47875774 -0.4948031 -0.72214055 -0.4703036 -0.007820124 -0.42334324 -0.43425637
18 0.7219842 0.6067699 -1.0788584 -0.12738149 0.2415295 0.7269824 -0.34978092 -0.23684894 -0.71659017 0.25922284 -0.5214503 -0.010028891 -0.32590568 -0.6177774 -0.053683303 0.46936023 -0.45337763 0.7002271 -1.2721876 -0.006283095
46 0.24044214 -0.44905478 -0.9529363 0.28121555 0.51121056 -0.028196668 0.2802629 0.1243286 0.30697855 -0.21454519 0.0056818463 0.028540956 0.095888905 -0.14904386 0.10681387 -0.40351304 0.28102452 0.2635986 0.054920904 -1.601991
95 0.9803863 0.18911391 -0.36532554 -1.6628562 0.6721242 -0.09393023 -0.3117859 0.39249533 -0.115036204 -0.21259205 0.18565324 -0.6543652 0.09469494 -0.27383265 -0.18990941 -0.5553864 -0.120503366 -0.53708774 -0.7875752 -0.46389976
21 0.67399263 -0.10065968 -1.4943072 0.006700618 0.7564142 -0.22469264 -0.12733673 -0.48957473 0.2688872 -0.2051918 -0.1120211 0.08053894 -0.006086816 -0.19883993 -0.69687027 0.5200995 0.6258349 -0.66798145 0.5318312 -0.9125011
47 0.09256321 -0.27063152 -1.2116532 0.5449832 0.19205065 0.33634514 -0.16317952 -0.13058169 -0.15399396 0.1549927 -0.13086174 0.028509669 -0.10746474 -0.24874224 -0.17637977 0.53519595 -0.07491912 0.9391619 -0.5000233 -1.1353544
105 0.68091846 0.40929198 0.5238181 -0.9995276 0.1437569 0.1966502 -0.0012225001 0.68303597 0.30605644 0.08884597 0.500518 0.2697852 -0.35718322 -0.69606733 -0.22845262 -0.8653399 0.102532 -0.21465303 -1.3058363 -1.0286139
61 0.6125282 0.41228962 -1.103999 -0.20780845 0.22467093 0.5836557 -0.25013188 -0.30252388 -0.74278706 0.145013 -0.4250697 -0.072708175 -0.032170217 -0.459639 -0.11088315 0.42233267 -0.4212452 0.65967697 -0.9945051 -0.20477666
87 0.8899173 -0.028370788 -0.3941075 -1.3290349 0.75140506 -0.15366808 -0.41444778 0.34856975 -0.2415555 -0.26957142 0.124477856 -0.45477784 0.07228118 -0.15333374 -0.4511494 -0.5384929 -0.11070931 -0.7355183 -0.38930985 -0.40471345
22 0.75266975 -0.052429132 -1.4236215 0.26928836 0.7319261 -0.16764645 -0.32038102 -0.27478334 0.34732246 -0.16175538 0.056568984 0.2620552 -0.26820242 -0.16457495 -0.79014635 0.42831287 0.7089791 -0.7808056 0.63071716 -1.0532715
68 0.6335943 -0.29029164 -1.4047081 0.14166524 0.7905456 -0.20474267 -0.15339598 -0.3303856 0.4137921 -0.33572516 -0.04978062 0.107805245 -0.09301897 -0.172387 -0.6226272 0.31489202 0.58905864 -0.6720234 0.595651 -1.0480721
53 0.20116867 -0.38226762 -0.4406394 0.083379485 0.44840336 -0.12843615 0.30766457 0.4531877 0.21382809 -0.13747354 0.1283593 0.210657 -0.014303611 -0.25653264 0.053383462 -0.7795948 0.084759615 0.13389912 -0.1552204 -1.4945046
12 0.63737905 0.3994763 -1.1731437 -0.09873626 0.2919422 0.60065943 -0.3049692 -0.15299267 -0.68722945 0.06751979 -0.4824503 -0.10751319 -0.114925645 -0.36133534 -0.06976616 0.3889197 -0.43462887 0.4637765 -0.95227706 -0.15041938
55 0.9089667 0.8552585 -0.4063256 -0.2756715 0.17579207 0.5084987 -0.57145953 0.14618261 0.1309902 0.38561466 0.08516872 0.1793367 -0.8561086 -0.46864185 -0.11351381 0.27701786 0.15591107 -0.033095695 -0.8323742 -0.025690522
23 0.94302404 -0.29866302 -0.6681526 0.12279428 0.87420297 0.0043027042 -0.6791255 0.70077527 0.39005354 -0.5221603 0.05486965 -0.28042307 -0.35152447 0.14150578 -0.4439405 -0.18544753 0.6186258 -0.7517391 0.5933912 -0.9445678
108 0.84145653 -0.29046756 -1.5415238 0.19081862 0.9185988 -0.22216424 -0.3269548 -0.28319967 0.41731867 -0.41259366 -0.050502997 0.08286834 -0.100399464 -0.10583089 -0.84575206 0.43901414 0.7700134 -0.9250205 0.8177169 -1.1218251
98 0.1810672 0.0065307706 -0.32471558 0.8826026 0.18581474 0.05393428 -0.27092037 0.5165615 -0.29442275 0.17955431 0.099144526 1.080751 -0.8197937 -0.26410362 -0.63138837 -0.5316817 -0.19494365 -0.055333074 -0.02524755 -0.9988385
33 0.60713995 0.3375992 0.4323602 -0.54469144 0.16419238 0.35653874 -0.20272912 0.66641784 0.498132 -0.063004315 0.45051953 0.32980138 -0.6064676 -0.53734225 -0.22225592 -0.6516898 0.27530152 -0.3682063 -0.98037726 -0.8874963
110 0.18596481 -0.53467065 -0.5941409 0.24107994 0.5062079 -0.029223459 0.2259778 0.4639018 0.28512254 -0.23829322 0.041304186 -0.043927193 0.00057872303 -0.18257748 0.15317741 -0.5915728 0.08737832 0.45532787 -0.14267436 -1.5701721
52 0.2811978 -0.12665702 -0.30692554 0.87623733 0.3376246 0.08704038 -0.2262489 0.5260536 -0.35719523 0.07236575 -0.06895951 0.89162636 -0.70497257 -0.23326463 -0.54582965 -0.59165466 -0.2216931 0.054987613 -0.009650472 -0.9670147
75 0.6120081 0.07154772 -0.10921672 -0.70176244 0.4305399 -0.26011062 -0.11266201 0.06555474 -0.46087694 0.22790177 -0.055064138 0.49254745 -0.35462615 -0.7305728 -0.62401724 -0.48088375 -0.47924915 -0.014136262 -0.5745766 -0.2513941
96 0.93614984 0.16610932 -0.47460008 -1.6619483 0.6916456 -0.1918066 -0.29463536 0.16405512 -0.29175514 -0.052321557 0.04530703 -0.47317854 -0.017473811 -0.48736942 -0.392131 -0.4711016 -0.30851734 -0.50626653 -0.7586769 -0.30339548
34 0.7675832 0.51927346 -1.1069963 -0.14055073 0.2637645 0.7470233 -0.34312257 -0.27309343 -0.6423365 0.12666856 -0.5385181 -0.13239296 -0.25012407 -0.5313795 0.0022527971 0.47710082 -0.38238853 0.72210073 -1.072616 -0.060924996
106 0.07849641 -0.12677053 -0.625006 -0.029238762 0.11236264 0.18016963 -0.19216053 0.088923804 -0.18641168 0.2623601 0.12712657 0.10159177 -0.121909805 -0.37674263 -0.2552184 0.20468424 -0.26146957 0.8037069 -0.84302735 -0.9250409
41 0.78925693 -0.08739829 -0.6780533 0.25202158 0.5652159 0.19566084 -0.5793872 0.7304239 0.3573549 -0.28583807 0.07663032 -0.13742346 -0.30212608 0.22221473 -0.23815654 -0.07090016 0.47719607 -0.5560565 0.39930832 -0.8968961
85 0.8104496 0.5897784 -1.1881837 -0.075148016 0.2559982 0.7478468 -0.2984149 -0.19181433 -0.76068825 0.10448715 -0.58946854 -0.079194665 -0.14724171 -0.45382947 -0.021005003 0.53941834 -0.40807307 0.6584106 -1.1173679 -0.06772551
71 0.5100416 0.30617023 -1.1699225 0.37241498 0.17351753 0.7044287 -0.3347898 -0.08905138 -0.80079436 0.18368393 -0.4770348 0.11965594 -0.22880131 -0.37938976 -0.06083913 0.3958864 -0.5180281 0.9312124 -0.93653095 -0.4316194
6 0.1815726 -0.12370458 -1.0430596 0.26199386 0.2030259 0.27276352 -0.21664156 0.04867432 -0.1500947 0.19660142 -0.037055146 -0.08729584 -0.068212874 -0.1998776 -0.07971301 0.4227024 -0.113213144 0.89037955 -0.61099255 -0.91001284
72 0.22526146 0.090047106 -0.5919872 1.010007 0.08389054 0.39038938 -0.43157834 0.4871092 -0.34781048 0.1813187 0.00087549735 0.6984177 -0.63772386 -0.01573524 -0.39205757 -0.1651598 -0.18150683 0.30817327 -0.23719493 -0.9324226
99 0.72254384 0.65688735 -1.112853 -0.113828406 0.09337147 0.86152846 -0.2659815 -0.23756056 -0.7227903 0.2629227 -0.4674809 -0.020155989 -0.13477965 -0.5869671 0.034292255 0.50243765 -0.41499212 0.80229634 -1.3636 -0.23276244
36 0.578092 0.33108574 -0.73322946 -0.5867274 0.2981916 0.19773301 -0.20863856 0.093383715 -0.26163596 0.22739337 -0.039994244 -0.106114544 -0.14535478 -0.40902388 -0.047233786 0.0722369 -0.27784798 0.27047935 -0.85639465 -0.22859181
64 0.12036074 -0.20254184 -0.95050526 0.18141735 0.21684703 0.1423768 -0.22985941 -0.030181527 -0.11503821 0.16914044 0.06187914 0.044422112 -0.13805945 -0.23021758 -0.33591202 0.4277912 -0.036068086 0.55957615 -0.39648107 -0.9004917
56 0.8330565 0.105152346 -0.3540331 -1.4362335 0.54554594 -0.14168635 -0.28651136 0.25017965 -0.40964884 -0.0208383 0.17434023 -0.37058666 0.087641865 -0.33196694 -0.4076486 -0.49420503 -0.36943817 -0.28999248 -0.8038052 -0.43956095
59 0.3005589 -0.11197218 -0.41182742 -0.5288446 0.49454957 -0.012841427 -0.27569103 0.3351787 -0.3492428 0.028716901 -0.06377524 -0.119787686 -0.31241557 -0.3236331 -0.24566132 -0.26378515 -0.5337138 0.20986314 -0.7959423 -0.3103375
79 0.9684868 0.7907902 -0.19857833 -0.32218534 0.22127062 0.5747727 -0.5959402 0.2008815 0.22675107 0.27482402 -0.0017818429 0.23233375 -0.9964237 -0.48817787 -0.027140304 0.14101611 0.17294708 -0.069607824 -0.8844802 -0.0013794547
86 0.62416136 -0.032356594 0.056776576 -0.6277641 0.52211404 -0.14375472 -0.08553186 0.13794911 -0.41511685 0.0060653826 -0.08856044 0.42352456 -0.37266383 -0.68078464 -0.4572849 -0.6058985 -0.4683502 0.0097359 -0.6166402 -0.32934004
28 0.6390178 -0.3803946 -0.57493997 -0.15533766 0.8941833 0.17908525 -0.50580996 0.215817 0.050616413 -0.7097879 -0.40152842 -0.3909745 -0.3561183 -0.063739575 -0.26456773 -0.2014789 0.00072777254 -0.5806683 0.09701568 -0.3530291
102 0.06796571 -0.0120156435 -0.34610695 0.9705461 0.06668181 0.28814238 -0.19775318 0.49075148 -0.16744906 0.14342232 0.14005733 0.9420984 -0.7321629 -0.25741065 -0.45363158 -0.380189 -0.13644597 0.21176666 -0.38692898 -1.2620953
109 0.599494 0.5143392 0.29944894 -0.6396643 0.0942922 0.3197366 -0.072195485 0.5396655 0.269141 0.144475 0.3733601 0.39679176 -0.5267791 -0.622609 -0.17644764 -0.5298431 0.17901705 -0.08714342 -1.1772785 -0.79066193
15 0.12127923 -0.31006175 -0.81320876 0.18470852 0.2153863 0.25538087 -0.16441678 0.12813908 -0.14203274 0.22239636 -0.12779358 -0.049700517 -0.10441629 -0.32543924 -0.070392124 0.26922765 -0.26042295 0.9858132 -0.6579003 -0.9387048
63 0.4695786 0.081102304 -0.32580557 -0.81155485 0.4014588 -0.093866356 -0.110347636 0.32790226 -0.31739414 0.14310977 0.15347277 -0.0018241087 -0.15575114 -0.40061653 -0.25101206 -0.3685212 -0.3763531 0.14820358 -0.8422451 -0.38120165
13 0.02781997 -0.21340838 -0.80993825 0.36998585 0.08644451 0.3295467 -0.15362613 0.1648563 -0.1394765 0.22836792 0.07763141 0.17303623 -0.1668779 -0.33765244 -0.13181323 0.220771 -0.1818936 1.0178992 -0.81659937 -1.1957141
54 0.76979446 0.5671964 -1.1056234 -0.10854661 0.22052553 0.7238447 -0.3546573 -0.19638549 -0.6138155 0.14109984 -0.4331066 -0.1124216 -0.24663682 -0.4104199 0.03201 0.43381038 -0.31137636 0.5886651 -0.9844439 -0.07845952
39 0.25310126 0.023119658 -0.9443391 0.34190774 0.14985871 0.3879007 -0.28775182 -0.19503878 -0.32324663 0.21804112 -0.17699091 0.19481412 -0.3523967 -0.4103994 -0.24014658 0.530471 -0.21544246 0.85039204 -0.7498522 -0.6978455
94 0.98185056 0.80669874 -0.28028378 -0.144867 0.2685054 0.48884887 -0.70007384 0.120523244 0.2509282 0.2888374 -0.024396349 0.30071428 -1.1167667 -0.48742935 -0.118683256 0.23698115 0.20673265 -0.2407109 -0.610401 0.13909723
103 0.46066612 0.318028 0.34633955 -0.73258257 0.09757681 0.29613128 0.0946552 0.51191884 0.23684148 -0.044392 0.4297224 0.36670783 -0.22266227 -0.57578975 -0.21450128 -0.74123925 0.13142958 -0.112788886 -1.1701689 -1.0854516
107 0.15548785 -0.11386362 -0.29569712 1.0298508 0.22501728 0.22561377 -0.2500275 0.70922166 -0.28029108 0.10642495 0.03990016 0.8837769 -0.7894005 -0.18587708 -0.3513212 -0.5989289 -0.28810677 0.29083163 -0.2427321 -1.122287
89 0.54853743 0.42794546 0.18135954 -0.65688 0.12917078 0.40596443 -0.0029290954 0.4340803 0.3295028 -0.008943601 0.354057 0.21523498 -0.30812725 -0.5219406 0.037165787 -0.56945765 0.21632344 -0.035395056 -1.1279266 -0.84731215
100 0.09866505 -0.04652616 -0.98123163 0.54442364 0.009713767 0.43676415 -0.3345308 0.02165201 -0.24875297 0.399703 -0.035324976 0.21973665 -0.40265435 -0.34412798 -0.34538865 0.59341604 -0.22513774 1.0935165 -0.85869217 -0.96177346
10 0.08525477 -0.1121109 -0.30793625 0.98518974 0.16807884 0.28250635 -0.3937658 0.6839277 -0.2748153 0.07093463 0.10950117 0.7416373 -0.8046636 -0.084949225 -0.4019537 -0.45354152 -0.20836583 0.28270292 -0.24750562 -1.0830612
32 0.053014107 -0.18859088 -1.0161281 0.1646954 0.19793293 0.13838492 -0.112169765 -0.17890728 -0.14249367 0.25209585 0.037093323 0.06818057 -0.08269854 -0.35317028 -0.2418349 0.4378248 -0.09550122 0.7869174 -0.6364301 -0.9601572
97 0.19374125 -0.18374978 -0.062434852 0.17527032 0.4139653 -0.024301363 -0.205575 0.6059081 -0.22544618 0.018955244 0.1241667 0.5135697 -0.5908729 -0.33096504 -0.38434124 -0.6575568 -0.41886237 0.17815205 -0.47443128 -0.71052134
42 0.8320356 0.56081146 -0.7045881 -0.28600922 0.29332694 0.51059055 -0.2793196 -0.18980312 -0.5172371 0.20774361 -0.4239191 0.22008537 -0.38799822 -0.65693873 -0.21826388 0.26367533 -0.35377097 0.38461986 -0.93617 0.05010866
