115 30
66 -0.082564 0.4303818 0.46745515 0.08004871 0.22606564 -0.12260018 0.42003635 0.5185378 0.5253066 0.0040632873 0.12038444 -0.41243997 0.14519411 -0.9181331 -0.3441984 0.4190523 0.39596894 -0.22669558 0.1617046 0.15924223 -0.504117 0.4441761 0.20329474 -0.15327609 0.452196 -0.045255747 -0.30359742 0.071738325 -0.4443983 -0.32281122
112 -0.2868468 0.25691715 0.35794958 -0.084817335 0.20034426 0.023494588 0.3197412 0.33821106 0.41173893 0.015297743 0.20548715 -0.46479937 0.25930154 -0.7339594 -0.1599043 0.13893619 0.5212556 -0.295383 0.18130875 0.25448176 -0.53176606 0.34073997 0.15717861 -0.06509569 0.3457649 -0.049395062 -0.4444903 0.13214862 -0.3832765 -0.2823455
92 -0.07226052 0.39610568 0.26883215 -0.0814425 0.16198559 0.10605125 0.3719057 0.48648733 0.48402464 -0.023753796 0.41209352 -0.35164776 0.40028918 -0.5353518 -0.14196873 0.11318903 0.4385205 -0.28779417 0.11325162 0.14850885 -0.42601386 0.34837073 0.17722875 0.011402614 0.36318907 0.1284069 -0.5438928 0.22019787 -0.23633927 -0.18102622
3 -0.2508879 -0.16048364 0.004280739 -0.3188478 0.1910798 0.25259632 0.3921942 0.34510922 -0.20523971 0.6437298 0.29913196 -0.53834903 0.33787066 0.059932724 0.0956179 -0.78726524 0.70966893 -0.14846985 0.28928232 -0.0124281915 -0.77641106 -0.2784506 0.39090213 -0.34322122 -0.29891613 -0.027529756 -0.36146495 -0.100676455 -0.53126657 -0.2407223
38 0.8416257 0.31549487 -0.17318971 0.26606834 0.23539542 -0.0040433714 0.41309163 0.9839573 0.4262394 0.12768532 0.5859742 0.013533871 0.6861342 0.42774394 -0.13805395 -0.28714532 -0.380908 0.11692097 0.14430645 -0.5162767 -0.45157558 0.054071534 0.7453196 -0.027404722 -0.18806139 0.38625878 -0.6119795 0.18761227 -0.2986154 0.018500833
74 -0.27805963 -0.147195 -0.023552705 -0.4890987 0.22263178 0.28949007 0.28113586 0.33303282 -0.30103225 0.64776254 0.26644674 -0.5091784 0.4296269 0.06355461 0.21970554 -0.8770288 0.6881229 -0.18967107 0.35647565 -0.016772449 -0.6290029 -0.31084633 0.29192933 -0.21861912 -0.36283845 0.01888623 -0.42964858 -0.13691872 -0.54656774 -0.09826375
51 0.48918974 -0.38576457 0.35743865 0.00048134974 0.7045787 0.23301643 -0.030905917 0.35168505 -0.6630236 0.31370214 -0.64874053 0.04480086 0.5649229 -0.03518916 0.075390786 -0.38163164 -0.12747072 0.17187765 1.1727189 -0.40616035 -0.67163616 0.08700654 0.18049842 -0.1790181 -0.3596923 -0.18703085 -0.24540429 -0.4785142 -1.0949316 0.10903234
1 -0.38380438 0.80326873 0.59783804 -0.40162334 -0.006975952 -0.5879503 0.14236134 0.8811491 0.37529942 0.28738037 -0.030981211 -0.87881094 0.91164047 -0.8894364 0.1502476 -0.04581018 0.29766366 -0.49725443 0.05353869 0.3926005 0.46816713 0.11833621 0.078853734 0.53804487 0.056269687 0.034529988 -0.21343546 -0.0301221 -0.025230642 -0.24751659
104 -0.13612305 0.025453914 0.031072574 -0.34196126 0.2631953 -0.20541497 -0.17294201 0.6210235 -0.25906622 -0.12479226 -0.5223935 -0.42474106 0.010111552 -0.58610374 0.42380008 0.049986105 0.08707667 -0.09204335 0.4875349 -0.11536264 -0.19036552 0.17903353 0.034625303 -0.23087734 -0.26075098 -0.03714965 -0.50775933 -0.24361938 -0.8596066 0.16029085
84 -0.35639146 -0.1348291 -0.011941428 -0.53768235 0.18305284 0.24099667 0.19091314 0.44507614 -0.24326538 0.6176342 0.22413072 -0.59822106 -0.04464725 -0.16301347 0.23993064 -0.7215272 0.8289159 -0.23298836 0.33899415 -0.042271875 -0.7391872 -0.19163474 0.28759146 -0.5039362 -0.23835146 -0.004623237 -0.39775753 -0.22048855 -0.7394477 -0.123079516
82 -0.100643106 -0.0123976385 0.25309998 0.024386156 0.29747057 0.13523988 0.27391067 0.38576347 -0.29728624 0.39199913 -0.0065403334 -0.29409564 0.4746112 0.11878888 0.16628972 -0.19828139 0.34320503 -0.24819526 0.87275153 -0.0750399 -0.315364 0.018571856 0.19973981 -0.13229279 -0.26045588 -0.21839072 -0.06880556 0.04938836 -0.35404354 -0.10400874
57 -0.17559896 0.47682065 0.5444919 0.0069391797 0.24267288 -0.09092921 0.48267165 0.4738663 0.59867096 0.058443625 0.15899992 -0.4861554 0.4094242 -0.95536417 -0.3769057 0.3919957 0.5020992 -0.31392333 0.1149016 0.32247257 -0.4344621 0.47787878 0.13316262 0.117228635 0.52008176 0.001981345 -0.37666884 0.18865882 -0.2964341 -0.39417225
80 -0.23703974 0.42965826 0.3658158 -0.08367791 0.15627174 -0.18481584 0.1794258 0.6764202 0.16320366 0.28124303 0.10420447 -0.48642382 0.37710765 -0.26127073 0.09205418 0.09388293 0.27443185 -0.40057084 0.59465617 0.10165431 -0.0058948076 0.29878372 0.17218277 0.07576609 -0.03265735 -0.0034680485 -0.10244021 0.12475848 -0.104874365 -0.14674076
58 -0.13687775 0.103326954 0.061831202 -0.12010764 0.12628718 0.1002472 0.03748579 0.4869784 0.32771024 -0.18884529 0.487364 -0.3637551 0.43723065 -0.20236911 0.19224375 -0.20498918 0.23665173 -0.2089148 0.103292845 -0.028908627 -0.33763057 0.14652437 0.2323488 -0.10644045 0.054537445 0.032524303 -0.55381626 0.17247088 -0.3768081 -0.013936918
16 -0.06190796 -0.021192253 -0.05100737 -0.17536406 0.23735818 -0.16887647 -0.16630676 0.64769214 -0.2778931 -0.1765095 -0.48317564 -0.36524382 0.1393482 -0.39048755 0.41921988 0.025193255 -0.048872612 -0.0759559 0.43342057 -0.17625386 -0.21133856 0.12538691 0.08997675 -0.2072402 -0.35034603 0.009607624 -0.51665044 -0.1819389 -0.78487176 0.15787184
73 -0.122846656 -0.21956608 -0.0689061 -0.8196209 0.38814694 0.30278814 -0.47337773 0.40762153 -0.24271211 0.2536208 0.030652463 -0.25430486 0.090954155 -0.17114945 0.41610762 -0.64391273 0.2963926 -0.15781663 0.5405293 -0.10570972 -0.3687948 0.17122848 0.04280382 -0.042842176 -0.17098238 0.122236505 -0.71696687 -0.30330673 -0.904425 0.3147562
45 -0.3116205 0.84030354 0.5766994 -0.42887875 0.03127106 -0.56873703 0.13374613 0.86474085 0.45746842 0.22111256 0.03433115 -0.8654718 0.9066667 -0.88388264 0.16148508 -0.023986543 0.23196931 -0.4861501 0.0367498 0.37768453 0.5094779 0.13767803 0.07326323 0.5756606 0.10987411 0.04655815 -0.24268365 0.020999318 -0.01360393 -0.21198547
49 -0.20816408 -0.0912794 -0.08672574 -0.8460453 0.36617818 0.2789358 -0.36233878 0.3755553 -0.067398705 0.2213798 0.09323946 -0.27201158 0.04328435 -0.34456986 0.3187619 -0.50294274 0.38964623 -0.21158385 0.37824872 0.011950275 -0.33978334 0.27029654 -0.025424683 0.05597107 0.0029123263 0.21766083 -0.78595835 -0.22233532 -0.79605126 0.28315052
2 0.33347452 0.13431588 -0.14951305 -0.3755471 0.060486756 0.4230384 0.34664822 0.59927326 0.073938854 0.15826084 0.8436127 -0.27529532 0.9428383 0.2779952 0.2204724 -0.7994733 0.384368 -0.1280769 -0.050043654 -0.19079041 -0.3464316 -0.17824367 0.27123454 -0.061866473 -0.09851703 0.2752699 -0.76826656 0.16217865 -0.3147805 0.05697564
0 -0.109609 0.18005364 0.28581947 -0.117683105 0.20131652 -0.34515354 0.0010388817 0.66066986 -0.3379878 0.057205707 -0.6828285 -0.4968444 0.22415623 -0.5339635 0.2988644 0.15142912 0.05606242 -0.13600576 0.58463544 -0.051962346 -0.00142761 0.1340416 0.050890066 -0.11272378 -0.30133188 -0.1450296 -0.16707815 -0.2558359 -0.6156965 -0.009066382
69 0.13691437 0.24858539 0.10624174 -0.30717143 0.23580036 -0.29499894 -0.19018869 0.92871916 0.040272802 0.0052467985 -0.4249604 -0.3757663 -0.6408693 -0.82802147 0.1079852 0.2412257 0.13191755 -0.05131332 0.35337454 -0.3666412 -0.33355668 0.39776278 0.21203044 -0.62006944 -0.051738422 -0.0148342885 -0.33960316 -0.42902783 -1.1160579 0.107148044
91 -0.23729853 0.3126967 0.34264982 0.031451914 0.23392026 -0.100367434 0.28895316 0.5769743 0.15767443 0.09978558 -0.10942302 -0.4142543 -0.03966879 -0.6130034 -0.11696656 0.40963066 0.45408994 -0.30601108 0.55807877 0.07329513 -0.4224007 0.47380242 0.13546422 -0.2525204 0.13768707 -0.14725243 -0.22187158 0.10655461 -0.468333 -0.20368278
30 -0.03388875 0.5538662 0.6047999 0.25462165 0.16479628 -0.27800134 0.37828812 0.8946247 0.084447905 0.3692924 0.10906963 -0.49567872 0.4156103 -0.100704096 0.06858772 0.2465614 0.2849854 -0.39819103 0.8935874 -0.060141392 0.017037664 0.28914595 0.3485067 -0.15083861 -0.090777315 -0.26802343 0.2610667 0.14956209 -0.119057745 -0.30797303
5 -0.30859363 -0.08829932 -0.020612475 -0.40466574 0.15462282 0.18931864 0.36011648 0.43960238 -0.2828586 0.67250645 0.16645646 -0.6493098 0.026438624 -0.13503058 0.15252392 -0.70810336 0.87285525 -0.20023727 0.24582514 -0.015860258 -0.790818 -0.22856618 0.32514575 -0.5457973 -0.29227608 -0.07965969 -0.36440346 -0.18619466 -0.6922084 -0.19143178
37 -0.28671768 0.75859535 0.5708426 -0.34659362 0.052870393 -0.572871 0.11448473 0.78417075 0.36747405 0.17315474 -0.08038471 -0.76876163 0.8805347 -0.8791439 0.097071126 0.03129833 0.15672581 -0.40784967 0.068436526 0.37104782 0.47358966 0.1970195 0.03822661 0.56132615 0.08155458 0.018163338 -0.21547017 -0.02179246 -0.053550966 -0.18953732
67 -0.15502171 -0.12312368 -0.11273023 -0.87039036 0.36765212 0.21161054 -0.61288214 0.5403513 -0.263508 0.034467686 -0.17369036 -0.2764836 0.060170222 -0.3454304 0.5308641 -0.4536792 0.18932433 -0.16241273 0.55881166 -0.09746537 -0.21736477 0.27083468 -0.07124336 -0.00926671 -0.19479087 0.20352578 -0.85463583 -0.35707134 -0.9914471 0.4388326
8 0.6231893 -0.44649363 0.25590596 -0.10088106 0.76400006 0.2045918 -0.16254817 0.4329383 -0.72197217 0.087130144 -0.8826905 0.1619669 0.50191283 -0.24593 0.12704068 -0.25449297 -0.31172624 0.2708145 1.1574329 -0.5102379 -0.6562834 0.18963306 0.063065946 -0.17701209 -0.341083 -0.088758186 -0.49305302 -0.5740385 -1.3600533 0.30091402
114 -0.29009742 -0.059399027 -0.18205611 -0.87169796 0.2537192 0.2440905 -0.59350175 0.51271063 0.029848812 -0.080371395 0.2268754 -0.35163468 0.090798356 -0.33599338 0.5593729 -0.48653483 0.30176657 -0.23648636 0.3436992 -0.02318525 -0.20725429 0.30154628 0.002957856 0.040760186 -0.06707779 0.2431522 -0.9591086 -0.1904988 -0.8078912 0.37664413
62 0.10380124 0.67722756 0.45440376 0.02373619 0.25881937 -0.7196201 -0.01140423 0.91388637 0.78254646 -0.55723625 -0.105033696 -0.5125831 0.75921696 -1.1623411 0.059664197 0.4495238 -0.37205634 -0.12557597 0.012860457 0.052981086 0.26284787 0.41912824 0.24137715 0.43422598 0.26264918 0.0876212 -0.52829796 -0.00079888594 -0.4696088 -0.040904913
93 -0.093103684 0.018723544 0.12954526 -0.15463406 0.3100061 -0.13418762 -0.019443328 0.6501649 -0.4570857 0.07091021 -0.6747956 -0.38434792 0.072808206 -0.419429 0.32274616 0.114996575 0.12448122 -0.10165447 0.7914622 -0.16024782 -0.28857097 0.22093502 0.07483483 -0.3527825 -0.34289268 -0.15082464 -0.29229477 -0.2131347 -0.8464775 0.08296408
101 -0.07726505 0.37030438 0.56285185 0.24225216 0.23311391 -0.18900259 0.19840562 0.7186882 -0.0334841 0.28436166 0.0152851865 -0.37036908 0.5812541 0.08963622 0.16886306 0.12454145 0.12018576 -0.3469279 1.0023365 -0.036313303 0.045003854 0.23228092 0.26164353 0.048404865 -0.20846121 -0.217105 0.16434312 0.1300648 -0.03588429 -0.1594375
40 -0.17129035 -0.39076552 0.14510043 -0.28217587 0.3633141 0.34748414 0.3120902 0.16776587 -0.56044936 0.59798366 -0.040154506 -0.39721248 0.7060314 0.17399766 0.19415864 -0.8695873 0.5081954 -0.066008575 0.6182621 0.0032616039 -0.775567 -0.37227166 0.24041031 -0.19699273 -0.4302059 -0.11138335 -0.30242902 -0.18126707 -0.60879934 -0.1603294
43 0.77670544 0.43553677 0.025307784 0.42529282 0.23410043 -0.06632259 0.47631648 0.99642843 0.6753374 0.0615337 0.6563938 -0.050763853 0.7336296 0.20317341 -0.32553557 -0.05361972 -0.3775501 0.0510901 0.16493174 -0.4175876 -0.47917822 0.24142247 0.78431225 0.091327846 -0.0066038393 0.3299783 -0.5485018 0.27003136 -0.20745817 -0.12402223
70 0.174298 0.5780033 0.37031153 0.22210328 0.2624375 -0.6570175 0.043505013 0.8506903 0.64917123 -0.5005457 -0.2147877 -0.45479286 0.42886895 -1.0783327 -0.026299126 0.535431 -0.37965307 -0.033652175 0.11050793 -0.095380194 0.043504223 0.43115923 0.30831066 0.15079997 0.16311724 -0.02421713 -0.39786926 -0.027576908 -0.57627404 -0.08070104
76 0.16330522 0.51387644 0.43817252 0.1115449 0.3077908 -0.46596584 0.0651025 0.6882857 0.780222 -0.6696943 -0.031591423 -0.39941117 0.6088965 -1.190283 -0.07960738 0.46846458 -0.30502343 -0.059011668 -0.02726161 0.04825796 -0.056879267 0.46464935 0.22747357 0.2398919 0.36481467 0.034587417 -0.5650248 -0.020078309 -0.59913015 -0.098703615
9 0.2025233 -0.12072856 0.0854288 -0.13346727 0.40651226 -0.02910758 -0.16497055 0.63280463 -0.60208297 -0.0938575 -0.7287724 -0.20318878 0.42928153 -0.24896894 0.4395463 -0.06940809 -0.17583017 0.017507888 0.8094264 -0.29606625 -0.22146083 0.117109664 0.028944869 -0.18166593 -0.43578812 -0.085229464 -0.437634 -0.30045176 -0.91012037 0.250195
77 0.33679488 -0.46487042 0.2570438 -0.27782518 0.7323562 0.35256845 -0.17580317 0.20013578 -0.60461664 0.29648158 -0.5151312 0.073267005 0.5712233 -0.10194678 0.11936331 -0.5204149 0.012467851 0.1413613 1.113732 -0.29760346 -0.7059709 0.19006652 0.052784212 -0.02322112 -0.24288669 -0.093293056 -0.50861895 -0.4381079 -1.1347085 0.20030637
25 -0.33224502 0.6467824 0.42982176 -0.73791534 -0.02398645 -0.42196882 -0.06778471 0.7483781 0.25135645 0.36221755 0.010092472 -0.82127494 0.70014966 -0.83293396 0.22585481 -0.30729252 0.36415237 -0.42284536 -0.10246092 0.36328083 0.42048004 0.050715357 -0.0138665605 0.46632966 0.03021962 0.13770904 -0.3252136 -0.20515634 -0.15949552 -0.09864704
20 0.37685865 0.30306792 0.39150947 0.2841649 0.39603686 -0.31310803 0.014139095 0.59741545 0.47837466 -0.5591204 -0.20896564 -0.15090804 0.5699878 -0.80593824 -0.089639254 0.3861835 -0.4974326 0.082800224 0.2663734 -0.14836222 -0.15588467 0.45244303 0.23541835 0.14708641 0.1720056 0.004058477 -0.41288358 -0.08062766 -0.59969693 0.013102452
19 0.014044671 0.56350565 0.6090771 0.2906786 0.2134916 -0.23064502 0.33142638 0.86735874 0.24571347 0.3049365 0.17563725 -0.38479185 0.62602013 0.024876995 0.029362584 0.24724077 0.08160997 -0.40634587 0.9218828 -0.009511854 0.060127113 0.32821357 0.38498217 0.118436225 -0.0422308 -0.1181709 0.13192467 0.23285188 0.03120849 -0.2594765
81 -0.44516167 -0.17387815 0.023099508 -0.5285378 0.22292152 0.25475183 0.29438442 0.33394244 -0.35990027 0.6817997 0.11034874 -0.6106577 0.2775771 -0.027687341 0.27523318 -0.7634475 0.8485472 -0.26267844 0.47463357 0.08455159 -0.6750174 -0.22658302 0.21196242 -0.30575442 -0.33729386 -0.07386423 -0.42411584 -0.14069337 -0.6002655 -0.1299254
17 0.17707874 0.37808454 0.21720459 0.08217528 0.32850015 -0.5368139 -0.2232219 0.8184073 0.62203 -0.823519 -0.22099853 -0.32974097 0.50106823 -0.9491451 0.222277 0.456902 -0.5274643 0.0032614833 0.19616044 -0.14839502 0.09269548 0.49982473 0.21216784 0.24511154 0.10763996 0.1472921 -0.7282431 -0.012520957 -0.69834346 0.16307792
7 0.4267039 -0.4574716 0.28602868 -0.22207499 0.7787834 0.31010714 -0.23801365 0.28796872 -0.6365979 0.13355254 -0.6467635 0.13107903 0.70521706 -0.16036826 0.1621518 -0.45256728 -0.17816427 0.18463959 1.1359928 -0.3695087 -0.58612967 0.18020594 0.035205264 0.037596326 -0.29094827 -0.07253686 -0.5566236 -0.48961058 -1.1739435 0.29660302
78 0.6235737 -0.30845788 0.39538395 -0.08686 0.7631653 0.16754644 -0.12039461 0.46706274 -0.57222646 0.19915274 -0.7699315 0.13522324 0.35937184 -0.35147983 -0.05143539 -0.19776687 -0.21565227 0.24247923 1.1254762 -0.4753322 -0.6899382 0.27908364 0.11115357 -0.22050096 -0.18229675 -0.17584212 -0.33919156 -0.58345515 -1.3095138 0.17230244
65 0.1448827 0.39885232 0.30127072 0.1637563 0.30932176 -0.52948743 -0.031074598 0.7378081 0.56905884 -0.67037266 -0.21492861 -0.37259093 0.45372754 -1.0103103 0.046780426 0.5146069 -0.39502016 -0.020317886 0.12303226 -0.089849755 -0.04876333 0.40387678 0.25328547 0.124132425 0.1463109 -0.025349354 -0.5145765 -0.026042446 -0.6387456 -0.010845049
29 -0.0943531 0.52006096 0.46427158 0.35293636 0.20229968 -0.1749021 0.4951233 0.83844453 0.1344793 0.38523668 0.21629258 -0.4424253 0.399993 0.111576974 0.025780542 0.30152288 0.29044083 -0.4197318 0.97105443 -0.058341354 -0.11218444 0.32995144 0.4354289 -0.116005324 -0.10953549 -0.1866123 0.14068201 0.35709873 0.0067147277 -0.2822355
26 0.7275709 0.3884309 0.042226348 0.33426294 0.31466344 -0.09071883 0.49352977 0.86263925 0.66901624 0.09502958 0.6001915 -0.037078578 0.9835715 0.1688812 -0.33369434 -0.22090858 -0.38303745 0.06757399 0.05689322 -0.2804767 -0.43386656 0.16934358 0.7275521 0.3686993 0.0050526555 0.39139947 -0.6402833 0.2653101 -0.122837685 -0.1128306
83 -0.43516153 -0.06314144 -0.018541284 -0.8149594 0.29623815 0.07209089 -0.4759844 0.5486634 -0.21114488 0.18879391 -0.16130581 -0.5033319 -0.21908695 -0.54043674 0.5262159 -0.37884602 0.49634856 -0.25893617 0.57282275 -0.05227807 -0.32166162 0.23160966 0.017976755 -0.24539988 -0.18290628 0.038774572 -0.6812533 -0.35002053 -0.9971047 0.26162308
44 -0.27886224 0.60435265 0.55620617 0.1264179 0.15673344 -0.31696188 0.44404516 0.6662111 0.48395652 0.10392032 0.119444 -0.59911466 0.35166466 -0.7342529 -0.15032037 0.42904133 0.42333516 -0.414301 0.35807154 0.2383586 -0.20005044 0.40286055 0.25119787 0.047935247 0.25159004 -0.12184244 -0.17194386 0.21408741 -0.12769887 -0.3632751
11 -0.06644217 0.15458462 0.08160214 -0.2622064 0.06618342 -0.070202895 0.21572325 0.7461107 -0.18062824 0.4153291 -0.17285569 -0.56193364 -0.49106497 -0.5388559 0.054785404 -0.11113779 0.61827475 -0.13720939 0.23699917 -0.2235283 -0.5947873 0.040618893 0.2538046 -0.80971664 -0.14131537 -0.16391316 -0.15598664 -0.33558398 -0.8671928 -0.14332314
50 0.3396093 0.08109993 0.18501048 -0.059604973 0.25742304 -0.034260042 0.1052112 0.7200584 -0.22730409 0.34422863 -0.3104523 -0.19130085 -0.40712392 -0.33573034 -0.05810674 0.029932402 0.23678614 0.002898601 0.5977558 -0.41001746 -0.5394438 0.2265985 0.28023165 -0.68404424 -0.13749154 -0.13395558 -0.084638886 -0.3613182 -0.92557645 -0.028322583
24 0.058678653 0.18237886 0.16714422 -0.24238116 0.20694713 -0.119346194 0.12777337 0.6583966 -0.05447145 0.27809626 -0.31043518 -0.41551214 -0.5076815 -0.74749905 -0.101958804 0.067348115 0.44784108 -0.05533279 0.23179449 -0.22752975 -0.55883443 0.20810543 0.20969485 -0.6723307 0.022372121 -0.1374505 -0.21408573 -0.41276067 -0.9577296 -0.08860067
90 0.070051484 0.14190084 0.12141932 -0.25640285 0.18874842 -0.18569979 -0.031976987 0.86053014 -0.29487202 0.2502928 -0.44649497 -0.45613965 -0.4708806 -0.5792288 0.14723283 0.017981565 0.33266842 -0.057214517 0.4927211 -0.3744998 -0.44643223 0.13710567 0.24884385 -0.76774913 -0.2644039 -0.14861521 -0.1819235 -0.46601707 -1.0461072 0.0011583733
4 -0.18006352 -0.038201384 0.12662867 -0.16245084 0.2925323 -0.17142498 -0.12188669 0.7249643 -0.5196855 -0.05317251 -0.77803457 -0.48534074 0.057116657 -0.5262819 0.48229837 0.11686808 0.121564 -0.14653976 0.791328 -0.17090985 -0.24020016 0.14987531 0.017942678 -0.40254533 -0.41984615 -0.15979554 -0.34197557 -0.26030788 -0.89605033 0.14137626
88 -0.38227752 0.0040771123 0.027207807 -0.73911965 0.23800142 0.09698264 -0.36173663 0.4293277 -0.071363345 0.23125817 0.10340711 -0.46823505 0.20153143 -0.32389283 0.43611547 -0.51239514 0.3814953 -0.26699147 0.37583905 0.09250903 -0.16847008 0.11036233 0.007345365 0.051291604 -0.12146316 0.09491068 -0.5920964 -0.22712289 -0.63303244 0.19380607
113 0.28213704 0.38273248 0.46734253 0.2730975 0.38768065 -0.5501632 -0.05118773 0.7485604 0.5528044 -0.7330586 -0.3335168 -0.32092816 0.57603514 -1.1584111 -0.033470023 0.5206114 -0.5757933 0.082454465 0.18120795 -0.1313501 -0.036707357 0.4396764 0.24527638 0.09516085 0.20010202 -0.09536797 -0.41868132 -0.16600832 -0.77591026 -0.022902207
60 0.420766 0.15683383 -0.152239 -0.35506973 0.06441028 0.47511783 0.39334166 0.63832116 0.052207682 0.18763568 0.87072986 -0.23608126 0.9493309 0.32390574 0.19349444 -0.830926 0.3645541 -0.12215177 -0.0982053 -0.23186578 -0.3844548 -0.24231142 0.2949247 -0.1237148 -0.08541876 0.28948054 -0.7374199 0.15459576 -0.32262453 0.09769292
14 0.686003 0.355708 -0.08187789 0.17489515 0.20496331 0.14077923 0.48428527 0.917687 0.48412895 0.20478512 0.83275187 -0.05845677 0.9162252 0.44726047 -0.12739572 -0.40041482 -0.16096134 -0.01156657 0.13629197 -0.37620133 -0.4576651 0.06622534 0.7047536 0.12108846 -0.088367134 0.391616 -0.6476828 0.294811 -0.15317725 -0.048542917
31 0.6744105 0.41942534 0.055902243 0.26015463 0.27191037 0.07695759 0.5714501 0.8734907 0.516572 0.26297694 0.7975928 -0.059174586 1.0084227 0.44313243 -0.19420207 -0.37850687 -0.2053766 -0.032560416 0.22548133 -0.2970886 -0.4138656 0.08293246 0.7006359 0.22068924 -0.06227792 0.40173373 -0.54707944 0.3167377 -0.07959572 -0.08788909
35 -0.011604555 0.50247616 0.54418635 0.4510173 0.22899461 -0.21540411 0.48094457 0.8171592 0.29574513 0.14135109 0.18556601 -0.4021036 0.5061604 -0.116762094 -0.036999624 0.38972262 0.17492071 -0.3346495 0.8230054 -0.023097526 -0.1326544 0.37192717 0.42295533 -0.028833993 -0.0061977007 -0.16065238 0.07295034 0.3159705 -0.03442649 -0.308442
27 0.19487047 0.560525 0.33862072 0.18070947 0.26014376 -0.56175315 0.0788571 0.8238788 0.76180905 -0.5795732 0.008535605 -0.40628815 0.6791384 -0.99350786 -0.05069145 0.45465016 -0.38833994 -0.046928287 -0.015503256 -0.012409189 0.031563006 0.44476172 0.3295032 0.3347814 0.26255518 0.09931807 -0.57955337 0.10243796 -0.48537898 -0.0861133
111 0.48552343 -0.42164487 0.29255784 -0.12709434 0.7360839 0.2713509 -0.07382228 0.28017917 -0.6204047 0.17167012 -0.63971084 0.123456314 0.62765306 -0.16913405 0.078026064 -0.3809285 -0.17780401 0.19363113 1.0301328 -0.37866676 -0.66833705 0.1310807 0.10032343 -0.09516234 -0.25210422 -0.14445938 -0.4343405 -0.4454147 -1.1689092 0.18324536
48 -0.28912672 0.289684 0.30439496 -0.068993345 0.22358885 -0.030628009 0.29709166 0.38174322 0.49923825 -0.12273108 0.15240707 -0.44387928 0.17908777 -0.88623077 -0.19390528 0.28931326 0.41981885 -0.24371295 0.10868117 0.23733254 -0.54698104 0.40515837 0.14277197 -0.034271166 0.40966225 0.0274622 -0.5199253 0.092499234 -0.44800952 -0.2202305
18 0.67344505 0.5371208 0.09554464 0.3644771 0.20395099 0.0023524212 0.6477508 1.0146178 0.715742 0.21284173 0.9024717 -0.12676732 0.939433 0.36089155 -0.29241905 -0.23750618 -0.20278968 -0.091327935 0.1472275 -0.32965747 -0.42689615 0.17050755 0.76995534 0.1728049 -0.022364479 0.36697793 -0.50727266 0.40887302 0.0052069323 -0.17780586
46 -0.044850253 -0.10392573 -0.09462796 -0.83921444 0.38103762 0.25005463 -0.55888623 0.5061826 -0.15076059 0.17779657 0.06661276 -0.18068194 0.1447524 -0.16392499 0.4480419 -0.58885854 0.17625095 -0.17350039 0.55724216 -0.13945897 -0.20603059 0.22637276 0.013836694 0.09764798 -0.10700063 0.24383268 -0.7806899 -0.3211818 -0.8457949 0.43404645
95 0.1142851 0.5818591 0.37876192 0.11722276 0.31758195 -0.693778 -0.08013241 0.91710883 0.6733839 -0.6867482 -0.2891107 -0.48219636 0.46875578 -1.2121187 0.07430211 0.62923926 -0.41768444 -0.105492145 0.16059929 -0.04313967 0.15117313 0.5319405 0.24522316 0.23624077 0.20164624 0.010542639 -0.52814054 -0.006645092 -0.6247264 0.00556764
21 0.6420699 -0.3650779 0.27740917 -0.06051608 0.7482 0.2427479 -0.18117034 0.35568523 -0.53761005 0.038580548 -0.6366589 0.20976977 0.678022 -0.14509435 0.06086055 -0.32811648 -0.39280307 0.26426786 1.0351546 -0.461422 -0.5699873 0.19573711 0.11008794 0.008456029 -0.24604338 -0.10772579 -0.45691285 -0.45157912 -1.1516026 0.25391194
47 0.5455437 0.011198539 -0.18338344 -0.43268955 0.23003726 0.49828026 0.18984921 0.58635366 -0.15443671 0.23209451 0.6073457 -0.05428296 0.9263285 0.43217987 0.2788379 -0.894913 0.14422163 -0.019654322 0.1887132 -0.32677004 -0.30940408 -0.14968243 0.22628123 0.019284895 -0.2049456 0.30285084 -0.802312 0.03182589 -0.48531803 0.26971707
105 -0.5642562 0.8042504 0.6374033 -0.45085987 0.06533588 -0.60018915 0.06294703 0.8259853 0.40962476 0.11293479 -0.09815279 -0.9921314 0.94104564 -1.1230861 0.21413799 0.03729525 0.31357202 -0.56071705 0.088345796 0.49172345 0.52524334 0.19459058 -0.027962897 0.5796168 0.09355726 -0.06655991 -0.24984145 0.009324118 -0.10382294 -0.24064825
61 0.70046747 0.39985833 -0.008371936 0.23962279 0.24945319 0.004833504 0.5235429 0.802988 0.60212266 0.092327684 0.70210814 -0.020609347 0.92833376 0.23599231 -0.23076561 -0.28119102 -0.23801166 0.039990693 0.013267759 -0.32124975 -0.3980399 0.10540496 0.6466408 0.22863857 0.034072068 0.41509873 -0.6409243 0.2690522 -0.15246627 -0.06306957
87 0.1101097 0.34317625 0.38354063 0.18747975 0.33028755 -0.56441706 -0.0037525664 0.707932 0.44989592 -0.6156898 -0.4502125 -0.41578496 0.3205507 -1.1389995 -0.0067514745 0.53411597 -0.31443825 0.012417803 0.18224269 -0.08568674 -0.142555 0.43807822 0.20912011 -0.0029452066 0.13891296 -0.102628134 -0.46059588 -0.15645882 -0.80447376 -0.072475605
22 0.42092642 -0.43148476 0.35532543 -0.079664156 0.75793296 0.24717605 -0.093250856 0.3547805 -0.7040016 0.1843285 -0.7199731 0.022013286 0.7286806 -0.13393366 0.17692177 -0.37847057 -0.16400525 0.14794743 1.2421839 -0.3646079 -0.64272326 0.13280946 0.09817447 -0.076673895 -0.3482065 -0.17535825 -0.40271637 -0.4619643 -1.1771444 0.19985649
68 0.518394 -0.37734824 0.23375031 -0.2050059 0.7063388 0.24073528 -0.2503934 0.40719622 -0.6048201 0.10269283 -0.64323294 0.11211044 0.45144224 -0.17507231 0.14642684 -0.29876226 -0.18815845 0.15499547 1.0906838 -0.45462117 -0.5724512 0.2163412 0.07181574 -0.12934838 -0.2513663 -0.082788795 -0.49693304 -0.5039879 -1.2129742 0.30509916
53 -0.37362957 0.045254152 0.061737105 -0.8271775 0.27264526 0.09908743 -0.4468613 0.42178488 -0.01586544 0.16196433 0.062329765 -0.4540109 0.080956824 -0.5132734 0.41768244 -0.44884986 0.3915606 -0.27894557 0.32673422 0.12037683 -0.14306219 0.2342129 -0.035143185 0.089129865 -0.02040424 0.1262872 -0.68006146 -0.23820579 -0.68596 0.2113256
12 0.6837337 0.34092155 -0.034454588 0.31407383 0.23494871 -0.018427057 0.46189702 0.8906939 0.57294935 0.099627085 0.65445274 -0.07230477 0.7786598 0.23704816 -0.2055608 -0.22784683 -0.26936674 0.061648484 0.1281516 -0.38063255 -0.46013108 0.091242746 0.76148915 0.081232294 -0.077330515 0.3131758 -0.58553827 0.24103892 -0.22989424 -0.083693095
55 0.02981426 0.55182225 0.511045 0.3794818 0.18381529 -0.25314438 0.41881725 0.8919903 0.2580611 0.18501733 0.33351934 -0.45147043 0.77037317 0.12920398 0.13028027 0.13705605 0.056366414 -0.38579816 0.828448 -0.049514603 0.0538076 0.23958942 0.47055215 0.112369254 -0.13030759 -0.11912919 0.055737518 0.3132143 0.09790611 -0.23311791
23 -0.01542627 -0.13439667 0.08815548 -0.20690876 0.4139938 -0.119183175 -0.14736104 0.7210878 -0.6527469 0.023632137 -0.8840528 -0.41118175 -0.007356359 -0.52455324 0.43285942 0.040103797 0.07154245 -0.062180847 0.9126662 -0.2671548 -0.39344677 0.21096757 0.04565102 -0.44263446 -0.45930257 -0.16505037 -0.43907475 -0.38244608 -1.1500952 0.16599767
108 0.583626 -0.4819354 0.2947647 -0.13456075 0.792288 0.23152055 -0.20991029 0.42224637 -0.8121553 0.105841726 -0.9063662 0.09555092 0.5751931 -0.2547793 0.19669992 -0.34163022 -0.27776182 0.25510958 1.2346895 -0.50589705 -0.70036626 0.17220359 0.064466946 -0.17892775 -0.39894843 -0.15292789 -0.50377464 -0.610167 -1.4304081 0.3045017
98 -0.52287555 -0.1510736 0.23104684 -0.3222948 0.24784698 0.19954345 0.44113728 0.16024521 -0.2777439 0.6578815 0.112857275 -0.6620895 0.4686269 -0.21254754 0.09270876 -0.68581116 0.86740786 -0.24071552 0.41492808 0.2286427 -0.73332626 -0.27345157 0.21399885 -0.21211365 -0.22369629 -0.19344527 -0.27059394 -0.0653337 -0.49041688 -0.32141897
33 -0.49896526 0.64963984 0.62562585 -0.37677088 0.021737784 -0.542432 0.05249048 0.8417132 0.069657 0.29051277 -0.20056745 -0.9317561 0.6642614 -0.8356143 0.3012062 -0.039888334 0.36642462 -0.49873352 0.3061758 0.342161 0.41041678 0.04733431 0.02252018 0.255808 -0.091781326 -0.20191228 -0.013893141 -0.10664448 -0.15784729 -0.21133356
110 -0.23670669 0.053592846 -0.17012607 -0.9303274 0.23080674 0.21088377 -0.4545038 0.5848554 -0.06807519 0.15033084 0.18148062 -0.36576375 -0.019658133 -0.28060058 0.48046386 -0.4758252 0.37685993 -0.2953645 0.3156427 -0.0629167 -0.16064976 0.22242658 -0.021187358 -0.019921321 -0.08050967 0.22444224 -0.80282754 -0.20291969 -0.7754955 0.35361022
52 -0.46726352 -0.12822044 0.10816481 -0.40683693 0.2429299 0.20504163 0.41562343 0.2843531 -0.16147876 0.63417745 0.117869936 -0.59173954 0.23955838 -0.22002238 0.06690893 -0.56443447 0.85724306 -0.2374514 0.33421072 0.1645947 -0.7847654 -0.17506559 0.24608439 -0.2780587 -0.16621009 -0.050209086 -0.3742339 -0.095774844 -0.53534395 -0.2763606
75 -0.11985546 0.35658422 0.47941634 0.100298725 0.26497436 -0.049797565 0.46389022 0.35779506 0.52396065 -0.02786277 0.18761691 -0.38703915 0.5387672 -0.7784824 -0.34855527 0.26536006 0.370048 -0.24441679 0.16629118 0.21164897 -0.49042138 0.34263217 0.20983295 0.085461795 0.42279863 -0.088556245 -0.39224485 0.20191145 -0.27174574 -0.33704406
96 0.20504206 0.5545533 0.4931581 0.28046224 0.36957934 -0.55812424 0.10950929 0.8104206 0.7562022 -0.6539094 -0.14067523 -0.3716706 0.5668313 -1.1489085 -0.097914726 0.61894554 -0.35694295 -0.06843616 0.17542802 -0.060840644 -0.055660345 0.5527505 0.26811916 0.17910239 0.3457447 -0.036606703 -0.5115414 0.061272666 -0.6431153 -0.11839925
34 0.7426717 0.50863683 0.04079311 0.32638285 0.21791866 -0.01776423 0.5796467 1.0179356 0.6208828 0.19995062 0.7824352 -0.06051488 0.84518 0.38948148 -0.23274884 -0.2018625 -0.22573893 -0.027190419 0.17857598 -0.38090417 -0.3661134 0.14853264 0.7494635 0.16201477 -0.03715453 0.41595688 -0.5631455 0.34236565 -0.061501406 -0.08032219
106 0.25064954 0.26002496 0.014636465 -0.3376017 0.093072526 0.26316035 0.28668955 0.50767004 0.11052207 0.039751813 0.54489434 -0.2976325 0.99600875 -0.015738606 0.18237841 -0.5450008 0.23656394 -0.13826539 -0.08309113 -0.07543174 -0.104800254 -0.09393894 0.14191326 0.13763697 0.006594599 0.16684426 -0.6488336 0.1253365 -0.23873533 0.09781654
41 -0.10250754 -0.12734237 0.044777274 -0.18250065 0.3067861 -0.12649633 -0.14893033 0.6701463 -0.50962156 0.07005495 -0.619614 -0.3891205 0.13241372 -0.2514813 0.45873448 -0.09702877 0.0659917 -0.09124807 0.796608 -0.22583294 -0.32674828 0.06596098 0.16114235 -0.30827332 -0.5128148 -0.11391357 -0.36933115 -0.290673 -0.8842592 0.11954669
85 0.7291415 0.4513177 -0.057294555 0.36852306 0.22139928 -0.04442201 0.55579907 0.9914068 0.6279956 0.20791304 0.76336586 -0.06878469 0.9178278 0.37321156 -0.32113135 -0.22393453 -0.31460002 0.012574385 0.13571918 -0.38823494 -0.49441013 0.14615962 0.83987826 0.2202641 -0.09841235 0.40169197 -0.61392903 0.33574384 -0.088394925 -0.13983336
71 0.5867797 0.2964715 -0.13036151 0.077544264 0.21624799 0.21377803 0.61776936 0.8157151 0.442867 0.30529037 0.89111596 -0.108863935 0.8650854 0.4830172 -0.10262531 -0.57529265 0.041202046 -0.0313179 0.061047696 -0.3144918 -0.55781156 -0.030901587 0.69930595 0.062428918 -0.09712422 0.47750697 -0.74105483 0.2809603 -0.17697462 -0.08920916
6 0.37602603 0.10609378 -0.16304332 -0.30234572 0.1640946 0.3373506 0.13312612 0.6216753 0.057431042 0.030579135 0.62513405 -0.11062932 0.83254635 0.31705248 0.28724727 -0.6233131 0.0982538 -0.09898335 0.15272026 -0.2696885 -0.225177 -0.037128504 0.23875883 0.024830438 -0.1457755 0.28847224 -0.7590835 0.11467682 -0.33948934 0.23962657
72 -0.21713832 -0.08530586 0.0075677047 -0.30706516 0.1750396 0.18630406 0.45194072 0.3960787 -0.2545093 0.59489757 0.3017212 -0.5339015 0.60228777 0.16133289 0.18622737 -0.8343568 0.60782063 -0.17960908 0.26619288 0.022250332 -0.59942704 -0.38952053 0.33405468 -0.20231614 -0.39286447 0.0030693545 -0.3968568 -0.021561751 -0.3873751 -0.19293228
99 0.71215934 0.5394918 0.02824177 0.23814937 0.22313371 -0.02944382 0.60899 1.0058676 0.6827908 0.24777445 0.89987624 -0.13148856 1.1307583 0.41108942 -0.21704394 -0.3806763 -0.25986668 -0.07518279 0.07153178 -0.2809914 -0.29273218 0.044266753 0.77525806 0.36550662 -0.05930518 0.447448 -0.6118681 0.37177342 0.03364115 -0.105069906
36 0.23684844 0.3795638 0.19398098 0.18439825 0.21539322 -0.14789496 0.20888141 0.72933424 0.5690164 -0.1802875 0.48181263 -0.2419597 0.70716685 -0.15771034 -0.01148215 0.034927778 -0.17752963 -0.13871722 0.19590572 -0.1255915 -0.1445284 0.23042442 0.4138693 0.16698813 0.060050458 0.0863243 -0.43936703 0.20993589 -0.18711872 -0.042632688
64 0.38479698 0.02021206 -0.017720528 -0.23010236 0.18374164 0.34649053 0.19409761 0.45391038 -0.16690384 0.041822046 0.34698698 -0.12880109 0.9098268 0.14278647 0.2061003 -0.5730427 0.10969473 -0.02306617 0.18674557 -0.24914403 -0.27044186 -0.11912821 0.12729634 0.01035911 -0.109901614 0.09022345 -0.6309951 0.021246081 -0.46698076 0.16392565
56 0.10330496 0.4810153 0.343424 0.14755382 0.29318324 -0.46065888 0.19074652 0.6773364 0.69727474 -0.615361 -0.074046984 -0.43764693 0.6545248 -1.1005709 -0.034503423 0.4626132 -0.20758815 -0.056363583 0.009985888 0.027116174 -0.07265327 0.44768375 0.22553594 0.24096318 0.29591873 0.043505494 -0.5955686 0.07833172 -0.5345587 -0.08342746
59 0.08568439 0.39213943 0.15424512 0.060274985 0.053877804 -0.092391945 0.23624231 0.6666772 0.5309997 -0.25100836 0.4275093 -0.39220273 0.35345083 -0.45942122 -0.03645063 0.049805824 0.1781859 -0.17292763 -0.06116671 -0.08828803 -0.30276248 0.24255662 0.31212094 -0.1766426 0.15660962 0.029462302 -0.4702824 0.16737433 -0.3698168 -0.10215101
79 -0.06478855 0.674578 0.49588883 0.30248576 0.14068706 -0.32950294 0.40430728 0.9848607 0.30076802 0.30474105 0.26774943 -0.49426487 0.63150233 0.037071384 0.07660508 0.22668925 0.15744522 -0.4409392 0.827495 -0.009555282 0.10695474 0.30605608 0.47031155 0.08677394 -0.14599042 -0.12083087 0.1203366 0.30869552 0.10956014 -0.27358347
86 -0.17895776 0.42627004 0.3923935 -0.025238037 0.20599814 -0.097442575 0.39704543 0.4869381 0.53517526 0.071649395 0.17711926 -0.45333844 0.29065838 -0.7902834 -0.3104915 0.2853661 0.43105027 -0.2829845 0.10489527 0.24520126 -0.45185122 0.43280414 0.18168274 0.036071762 0.40027937 0.007981682 -0.40505427 0.14637247 -0.31568816 -0.2930172
28 0.42008746 0.15744469 0.07622954 0.035798013 0.2750431 -0.22983094 0.022739615 0.84006065 -0.033295672 0.021333734 -0.3264722 -0.20759483 -0.33718237 -0.46111518 0.020888658 0.20482105 -0.04844667 0.07077144 0.4456961 -0.48508653 -0.39084816 0.2849726 0.3396424 -0.5997242 -0.16239575 -0.071542084 -0.22952618 -0.3277018 -0.93845874 0.056922376
102 -0.41892508 -0.02499035 0.1649931 -0.5489361 0.13814573 0.18625906 0.3876447 0.34453088 -0.2778653 0.71617335 0.26578152 -0.68421495 0.6714365 -0.061209373 0.2317533 -0.9375398 0.82307893 -0.26868725 0.2504352 0.16828148 -0.4739288 -0.3975759 0.21903002 -0.09215798 -0.31251585 -0.037065472 -0.342222 -0.14010912 -0.39771387 -0.22307648
109 -0.43898454 0.69195557 0.6004931 -0.32437393 0.050008103 -0.45771363 0.14219975 0.7779055 0.28973827 0.28455943 0.058675017 -0.8522858 0.88289857 -0.69135725 0.18473865 -0.050457995 0.317786 -0.5026447 0.25189248 0.36253548 0.3804194 0.12156731 0.096932255 0.46743277 0.009552989 -0.08753231 -0.14581466 0.06309113 -0.0058561675 -0.26520342
15 0.32839552 0.1854366 -0.20613746 -0.399799 0.07619214 0.3721589 0.18563944 0.622943 0.10264912 0.06466882 0.69487095 -0.15460306 0.69120973 0.2075338 0.2186142 -0.55243886 0.26052967 -0.17781876 0.037439413 -0.25725296 -0.22836657 -0.03319314 0.19867986 0.002034955 -0.051263306 0.21784842 -0.76153725 0.14569913 -0.34347835 0.21515428
63 -0.05779053 0.39138302 0.2884763 0.045704834 0.14728855 -0.18976606 0.17409013 0.591102 0.56141853 -0.30565155 0.31154844 -0.42187962 0.618525 -0.65447885 -0.027533287 0.14607482 0.10652583 -0.19542587 -0.022184387 0.086689584 -0.15510046 0.26995564 0.2039765 0.13353063 0.2265654 0.039597373 -0.49963412 0.14867839 -0.27974692 -0.1304141
13 0.25105703 0.19798462 -0.10646137 -0.5540291 0.07675235 0.40580302 0.1983494 0.6013083 -0.017568473 0.2176747 0.71522695 -0.28768355 0.9465957 0.19347554 0.3267186 -0.8020329 0.36490282 -0.18399464 0.018347625 -0.10182832 -0.17523968 -0.13176093 0.1614254 0.098055676 -0.13096757 0.26657268 -0.75331074 0.090915926 -0.3003264 0.14308852
54 0.6462577 0.4454962 0.025427854 0.32053635 0.24685499 -0.04625077 0.5127404 0.9387915 0.5513219 0.15226175 0.7274146 -0.07452326 0.81352174 0.38194218 -0.14187844 -0.18486881 -0.24383049 -0.030030835 0.2628128 -0.35765913 -0.333558 0.12549633 0.73709905 0.16214646 -0.079284325 0.3690425 -0.5293119 0.32833323 -0.08474896 -0.09060783
39 0.49365824 0.1929587 -0.03492379 -0.13446374 0.17367272 0.33360204 0.43885946 0.6289546 0.080971435 0.3097986 0.6571941 -0.10085962 0.96594924 0.36763945 0.042622358 -0.6392523 0.19418108 -0.089673385 0.16024393 -0.2828734 -0.37207726 -0.099367686 0.35766134 0.03305796 -0.09693257 0.21532954 -0.5711298 0.18869959 -0.24113901 0.042330526
94 -0.0387102 0.53358173 0.56672513 0.43058422 0.22018291 -0.25375298 0.47913924 0.8656572 0.17338713 0.34659615 0.20351717 -0.43187135 0.5011425 0.14925285 0.059276607 0.27132022 0.16082253 -0.40467983 1.0432307 -0.056294035 -0.028887725 0.32945764 0.4495408 -0.04887753 -0.15686497 -0.21676376 0.24708025 0.3058563 0.028470993 -0.29864246
103 -0.40610585 0.64513296 0.5432489 -0.53359413 0.03872701 -0.4937296 0.019891383 0.6921015 0.29203367 0.24645633 -0.08309212 -0.8565781 0.9394267 -0.9336217 0.21659158 -0.18669423 0.25364268 -0.39719495 -0.019622892 0.40410978 0.4318754 -0.0010482237 -0.0021805149 0.5774298 0.042945843 0.016581241 -0.28913385 -0.13692541 -0.12661615 -0.19805633
107 -0.5413835 -0.04493365 0.0436382 -0.5154354 0.14178148 0.23802562 0.3679373 0.39429548 -0.16394952 0.6558763 0.362087 -0.7355821 0.28617314 -0.099708416 0.23177376 -0.7488133 0.9273246 -0.3146643 0.2684795 0.15759952 -0.64205414 -0.25628364 0.2737394 -0.3066487 -0.26334825 -0.02998279 -0.38799095 -0.035796337 -0.44654927 -0.23128727
89 -0.31718665 0.683705 0.4983083 -0.42190492 0.043257497 -0.46319774 -0.01036668 0.814957 0.28456745 0.22193627 0.017873023 -0.7340418 0.8106245 -0.6409218 0.2606032 -0.06937709 0.16074702 -0.4376855 0.19917853 0.30069876 0.49225333 0.11193561 0.080152854 0.5048785 -0.035887964 0.07669569 -0.20612426 -0.048409823 -0.025366256 -0.124648236
100 0.42014393 0.17176722 -0.114551276 -0.28775182 0.10922114 0.47845942 0.48949414 0.6495806 -0.07336589 0.2972467 0.79565513 -0.22653794 1.1840314 0.46959808 0.19229116 -0.8653262 0.32617298 -0.14731933 0.111581944 -0.23816437 -0.32780576 -0.2617521 0.28316697 0.02921208 -0.22029373 0.18651034 -0.6772062 0.21893013 -0.23539962 0.090241954
10 -0.44593772 -0.044056263 0.03389158 -0.45190606 0.11463568 0.1904272 0.40863204 0.39883497 -0.27488723 0.64658314 0.2941474 -0.7120615 0.39824727 -0.046997055 0.27570817 -0.7799771 0.8423233 -0.2881052 0.23029663 0.09388857 -0.5498519 -0.35709202 0.26163304 -0.33692837 -0.31597182 -0.04894066 -0.33995944 -0.05600783 -0.43595287 -0.21259473
32 0.45947617 0.07856228 -0.034453567 -0.34020463 0.18890955 0.4363534 0.1656461 0.47662506 -0.0029594644 0.05493202 0.57534105 -0.053650875 0.9754644 0.18469685 0.21246254 -0.65172637 0.1395151 -0.061611 0.1388154 -0.2289857 -0.2452297 -0.03243171 0.1505358 0.12651259 -0.04872177 0.23620936 -0.6822017 0.06673452 -0.38659647 0.17257324
97 -0.42484993 0.18564434 0.21103849 -0.31141886 0.05248054 0.057312723 0.29245302 0.477883 0.1836255 0.2233567 0.33344486 -0.6470668 0.18309289 -0.46925756 0.09933648 -0.2311714 0.7029735 -0.31574836 0.09348358 0.1737408 -0.46127364 0.025864538 0.16568922 -0.27505884 0.050373513 -0.0918092 -0.34329778 0.03236303 -0.39836314 -0.24504788
42 0.4210181 0.483156 0.23014642 0.38997415 0.2250492 -0.11093882 0.570821 0.7801002 0.6083758 0.23407784 0.5555351 -0.19400711 0.7820164 0.08733639 -0.36580878 -0.015980655 -0.0035774284 -0.10694486 0.29155847 -0.15094191 -0.42780173 0.27939922 0.6302623 0.21365693 0.06877316 0.18032506 -0.37170437 0.3423414 -0.029392311 -0.25148582
